131 128
126 -0.014016832 -0.6084789 0.2702496 -0.15640682 0.1669577 -0.14899707 0.21088219 -0.14289215 -0.035012394 -0.23650935 -0.31117517 -0.17127292 -0.3778559 -0.2910298 -0.046062563 -0.04883574 -0.10559115 0.082705304 -0.09446591 -0.6270611 0.8331731 0.6236743 -0.33640614 -0.33015668 -0.05897276 -0.30637005 -0.06858131 0.2117093 -0.09444715 -0.3989243 0.031228263 -0.09468195 0.027070055 -0.45813635 0.10703984 -0.034509234 -0.12704913 -0.013779249 -0.32143226 -0.39800304 -0.3369744 0.48846588 -0.09180855 0.10374449 -0.2565763 -0.07333464 0.39126354 -0.19485642 -0.06540487 -0.3083858 -0.1514451 0.1283105 -0.17000455 0.21771035 0.13129734 -0.3458398 0.06813608 0.7336626 -0.203957 -0.10557775 -0.30386648 -0.39486113 -0.03105265 0.020335842 -0.10722308 -0.087926626 -0.12851758 0.20378317 0.01909316 0.25837544 0.1012082 0.06223945 0.17188646 -0.31422082 -0.06499395 -0.04628753 0.009971534 -0.2014063 0.020498957 0.13699035 0.3328176 -0.22879358 0.058808893 -0.07053374 -0.027527224 0.10189296 0.72247624 -0.19214217 -0.26466775 -0.28366587 -0.22441046 -0.1358631 -0.13259831 -0.14246196 -0.18527162 0.4184871 0.30154848 0.10518316 0.05266982 0.4008083 0.2174839 -0.21527709 -0.056204546 0.3517608 0.5839224 0.04119819 0.28699842 0.09108697 -0.1704503 -0.01798073 0.36330554 -0.06260816 -0.01299431 0.061515026 -0.14633484 0.10528367 -0.100013055 0.116277836 0.15636463 -0.19984546 0.5666414 0.14661932 -0.008902815 0.009604522 -0.5691501 0.35755682 -0.17435874 -0.0829181
103 -0.00079975545 -0.6318422 0.25319633 -0.18401684 0.14838171 -0.20210895 0.2667686 -0.10492084 -0.038246404 -0.22634111 -0.28873053 -0.16608952 -0.40720716 -0.3105426 -0.021784017 -0.05968872 -0.029364964 0.07381066 -0.09132083 -0.61478025 0.77728796 0.65991664 -0.38319376 -0.2573502 0.019689022 -0.37091744 -0.09065069 0.22229601 -0.06202696 -0.37160984 -0.0027800277 -0.07303199 -0.026078708 -0.4669686 0.077973135 -0.061896227 -0.053754695 0.027478762 -0.31463933 -0.4709016 -0.39622286 0.5118689 -0.07764514 0.11621114 -0.28649458 -0.053027608 0.40984875 -0.20562793 -0.035781596 -0.32072723 -0.13704385 0.19936103 -0.168087 0.2144637 0.12841778 -0.36932608 0.08334125 0.6545816 -0.22364455 -0.06291751 -0.26067102 -0.39099926 -0.049767364 0.013253004 -0.13453843 -0.0936245 -0.17033905 0.21240848 0.011251991 0.20705086 0.115867704 0.084990874 0.18039188 -0.29743826 -0.070304945 -0.11352561 0.03692015 -0.27394465 -0.010040107 0.10015813 0.32833272 -0.24938542 0.017731724 -0.05243753 -0.025668303 0.08969219 0.6620438 -0.21820778 -0.28156054 -0.29472685 -0.25413534 -0.15270539 -0.08386396 -0.094884835 -0.23328577 0.48715496 0.32795691 0.087711096 0.09894386 0.3838863 0.13118355 -0.22412919 -0.12068685 0.38968292 0.61397165 0.028593767 0.28099287 0.070782356 -0.14072227 -0.0029302896 0.4044724 -0.037300084 -0.07233837 0.025818296 -0.15047027 0.14841895 -0.15452965 0.15951689 0.13814229 -0.18563773 0.49883315 0.13277498 0.015090279 -0.024024846 -0.5859588 0.3880549 -0.15482469 -0.052972484
121 -0.00283875 -0.6491183 0.23952433 -0.1817108 0.17569944 -0.19900948 0.2763971 -0.10550234 0.0016635543 -0.19753031 -0.27269176 -0.15956081 -0.38233963 -0.3388352 -0.02901328 -0.08265728 -0.047012936 0.095504574 -0.11920768 -0.61881644 0.79795355 0.63268226 -0.36561155 -0.28878307 -0.018207707 -0.34117815 -0.12403344 0.21816206 -0.07032699 -0.3581182 0.012514996 -0.059904326 -0.029567352 -0.41776076 0.06896504 -0.06500604 -0.11888393 0.0019499558 -0.35045004 -0.45865387 -0.35573038 0.5119623 -0.09527443 0.078847095 -0.27766156 -0.0135546755 0.40350404 -0.24563733 -0.024725381 -0.30656222 -0.1744266 0.20922974 -0.19207683 0.21285143 0.0633758 -0.38365903 0.10196423 0.6768329 -0.23486067 -0.06805877 -0.21715239 -0.4077949 -0.093295485 0.007115961 -0.10044847 -0.09582103 -0.12327132 0.19770339 -0.003254658 0.25483927 0.123713665 0.07154293 0.21776061 -0.3127216 -0.076169364 -0.118553475 0.030923711 -0.26820865 -0.01929804 0.12058644 0.33494836 -0.2627643 0.023757676 -0.071025796 -0.028272402 0.10412888 0.6651113 -0.23945798 -0.29470938 -0.2832278 -0.21323931 -0.11859786 -0.092059836 -0.114040755 -0.25888696 0.47538167 0.28355828 0.04688506 0.1255809 0.38033402 0.13811077 -0.2021074 -0.12079199 0.3619495 0.5988156 0.03140504 0.30738083 0.14219616 -0.1408808 0.027311392 0.38343248 -0.074059226 -0.035256587 0.007472681 -0.11965403 0.11417504 -0.116874725 0.13597408 0.1472194 -0.19864786 0.5159119 0.14395365 -0.02035949 -0.024815062 -0.59031487 0.40571538 -0.15697032 -0.060867876
85 0.0033897203 -0.6061768 0.25889954 -0.1686008 0.10769009 -0.19268842 0.23245084 -0.11840878 0.0004002565 -0.21558136 -0.28343597 -0.15059163 -0.36284545 -0.27699825 -0.017784469 -0.07176383 -0.06906091 0.08048131 -0.09843959 -0.6381764 0.75156116 0.653052 -0.32242578 -0.28339675 0.01635607 -0.3477823 -0.043492284 0.20728576 -0.05894888 -0.33769128 0.007234663 -0.10862768 0.0117716985 -0.4461198 0.10502472 -0.035688616 -0.08813004 0.017745867 -0.3137664 -0.42538944 -0.36499834 0.4505601 -0.07009938 0.13914143 -0.27297023 -0.09314584 0.40384832 -0.22017312 -0.050559755 -0.29171118 -0.14283225 0.14749712 -0.14932565 0.2326801 0.13277051 -0.31182638 0.0784533 0.6851381 -0.19288273 -0.05634837 -0.26290253 -0.39166534 -0.061814073 0.0034666704 -0.11480708 -0.09678575 -0.12456606 0.21124543 -0.03498189 0.20546696 0.09628425 0.059377685 0.13514505 -0.28641903 -0.070125476 -0.07599881 0.025033768 -0.26014757 -0.012804143 0.084240794 0.2894064 -0.23680474 0.039244924 -0.057365835 -0.027630746 0.073327415 0.6652 -0.18915714 -0.27892843 -0.2952408 -0.25607234 -0.14599921 -0.06470944 -0.09021868 -0.21214944 0.4475985 0.32054317 0.106068455 0.0678999 0.42569155 0.17635311 -0.22304629 -0.06965332 0.36863464 0.5469678 0.04580608 0.25972968 0.08326489 -0.15489529 -0.014185386 0.403221 -0.054041844 -0.045685917 0.02850245 -0.1316187 0.13609026 -0.08454878 0.15805784 0.12236387 -0.18434748 0.51785636 0.13607231 0.010880497 -0.0408275 -0.5916922 0.35984975 -0.19694734 -0.05063093
122 -0.056593113 -0.35307297 0.46319363 -0.087202 0.3532752 0.25496754 -0.01703074 -0.21721566 -0.16748507 -0.44212973 -0.17245011 -0.30136496 -0.45661408 -0.54171723 -0.36141488 -0.14266478 -0.22481714 -0.08447155 -0.10877813 -0.5071729 0.99664664 0.13171095 -0.29977062 -0.5498449 -0.42162853 0.10366113 -0.26846835 -0.053087197 -0.11932572 -0.48057386 0.11317326 0.059741817 0.10343868 -0.23005521 0.06647238 0.051208593 -0.32394233 -0.26575175 -0.3285424 -0.07477439 -0.3465016 0.3177414 -0.24411355 -0.09926522 -0.23298025 -0.097657315 0.18995507 -0.3576433 -0.22872533 -0.23267049 -0.28389704 -0.012028516 -0.2006741 0.2739317 -0.22980765 -0.7459112 -0.057587218 0.64548886 -0.12870465 -0.22083488 -0.5222006 -0.24337476 0.020573124 0.40877068 -0.2797206 -0.10637233 0.13684994 0.28894934 0.08798518 0.30037865 0.21427345 0.050806846 0.55920655 -0.4417672 0.07664959 0.0914577 -0.012895428 0.14593397 0.3224914 0.046352737 0.46625653 -0.39258552 0.20712903 -0.25838298 -0.070178226 0.05589239 0.73417443 -0.058457945 -0.124945015 -0.104745276 0.39021245 0.29387605 -0.45916283 -0.20533288 -0.08906094 -0.07348984 -0.102314025 -0.1251537 0.0046639973 0.3913032 0.43028146 0.016680479 0.07290234 0.012952719 0.4227055 0.36824542 0.40437663 0.30520123 0.06779997 -0.009033481 0.0109334765 0.05800146 0.28224894 0.22693536 -0.2575397 0.0014634014 0.08611476 0.07533564 0.2413334 -0.2561378 0.65412045 0.10714222 -0.24687468 0.07598227 -0.34952065 0.27227613 -0.018150229 -0.0007925116
118 0.48508176 -0.7235352 0.7418025 -0.21504639 -0.45472613 -0.12733293 0.08197616 -0.0117463535 -0.17358574 -0.5162536 -0.4840771 0.065942235 -0.2048743 -0.10695268 -0.117207445 0.14654467 -0.06408713 -0.11843252 0.14965865 -0.26457983 0.20275551 0.52591133 -0.063099064 -0.24297692 0.19346984 -0.2474899 -0.1413032 0.20643799 0.16132282 -0.07923058 -0.29766503 -0.06462427 0.2862904 -0.4059364 0.16253687 0.30191618 0.6000102 0.16742611 -0.12329331 -0.5474324 -0.7214836 0.0727213 -0.054368112 0.4668241 -0.32478273 -0.31149536 0.4896033 -0.2450026 -0.5018088 -0.5624969 -0.13615245 -0.10455737 0.09631693 0.20962754 0.17678955 -0.18903081 0.0931711 0.16729084 -0.02251926 -0.16408348 -0.4296322 -0.14433798 0.28466263 0.04342861 -0.6608524 -0.0040164744 -0.15890212 0.54320717 -0.30380598 -0.10596888 0.08782046 0.069678426 0.1254353 -0.3356743 -0.13372314 0.2105852 0.34724575 -0.50563306 0.2578428 -0.19621342 0.14957327 -0.5078754 0.30611044 -0.16285987 -0.21691807 0.05132468 0.7387641 0.18216994 -0.093420476 -0.54276425 0.08273674 0.0790144 0.14886034 0.23939112 0.06853864 0.429321 0.5591256 0.4181194 0.059895955 0.5108554 -0.029086186 -0.43836102 0.41309592 0.1890893 0.2699217 0.6495909 -0.11979025 -0.29606608 0.14254002 -0.071174555 0.23194765 0.53276545 -0.5937168 -0.15333001 -0.1907987 0.26468745 -0.0355827 0.46599808 -0.06654895 -0.12410172 0.04270931 -0.47040102 0.22901785 -0.3852092 -0.23072883 -0.14388122 -0.60297394 -0.13353555
125 -0.032195594 -0.41490442 0.43338737 -0.08962374 0.3143515 0.16758622 0.019808738 -0.21372887 -0.097330764 -0.36637703 -0.17838073 -0.25651538 -0.3989499 -0.4884837 -0.2984933 -0.11796128 -0.21972163 -0.010811074 -0.13069884 -0.5133835 0.9566133 0.18561424 -0.23483747 -0.55634475 -0.39028847 0.0745039 -0.2508386 -0.0015424321 -0.13155046 -0.41945043 0.11161077 0.048039496 0.10849512 -0.2074407 0.089039065 0.067235045 -0.3259652 -0.2511456 -0.34527066 -0.10266899 -0.27560756 0.32214478 -0.21163213 -0.08252427 -0.20661359 -0.0696249 0.23182051 -0.34394097 -0.20047586 -0.25386024 -0.29772332 -0.004424465 -0.18247539 0.2609573 -0.22904752 -0.6538795 -0.011663204 0.67676187 -0.14446798 -0.20655918 -0.42727157 -0.2696086 -0.019788727 0.3242601 -0.20797999 -0.113066025 0.14860322 0.24724032 0.040855058 0.34104937 0.19873492 0.035800043 0.4976703 -0.40609834 0.03955644 0.098615356 -0.016552066 0.0656531 0.24796139 0.08223138 0.4305337 -0.38889924 0.21042454 -0.23440711 -0.0630314 0.08481308 0.72847944 -0.07715741 -0.1454027 -0.13732514 0.337508 0.25978312 -0.3878901 -0.20748946 -0.10073793 0.001446429 -0.055380225 -0.083566934 0.03508321 0.37790513 0.40675122 -0.013856995 0.07837877 0.034939636 0.40514356 0.31396365 0.39286882 0.32353362 0.031289384 0.010927407 0.034288414 0.013486123 0.2536572 0.16521078 -0.17918478 -0.010830822 0.11282253 0.054351613 0.2284141 -0.26371902 0.6408681 0.096022435 -0.21367402 0.053914763 -0.37189683 0.27230087 -0.08134724 -0.029610451
115 0.46514463 -0.7488615 0.73916525 -0.2190312 -0.44487068 -0.14876303 0.099388056 -0.030341815 -0.1401158 -0.5109433 -0.48881173 0.032640282 -0.20550175 -0.1392332 -0.0933268 0.12705813 -0.07385203 -0.09034657 0.11195893 -0.35253873 0.26120502 0.57217115 -0.031913742 -0.26244065 0.19230731 -0.27422586 -0.11247341 0.22131743 0.13733722 -0.07582891 -0.288762 -0.08100264 0.28019747 -0.4296591 0.19331203 0.29231256 0.54620415 0.13677198 -0.15828405 -0.54556525 -0.7203293 0.06917874 -0.0380119 0.49354586 -0.3332114 -0.31639352 0.53434306 -0.26207593 -0.47374064 -0.560815 -0.15240215 -0.09475175 0.09729855 0.2571155 0.16073486 -0.18977612 0.075074725 0.24545524 -0.02177635 -0.123628 -0.42023924 -0.16459271 0.25986803 0.0629266 -0.64132375 -0.021916278 -0.12485526 0.54822916 -0.32307267 -0.09197692 0.0854541 0.060243838 0.10599455 -0.33146217 -0.13500103 0.20306434 0.31701192 -0.50818115 0.23361629 -0.19662674 0.15053901 -0.4950557 0.31349674 -0.14794025 -0.21278743 0.043271814 0.76291513 0.17641836 -0.12806262 -0.54884243 0.06416978 0.068125725 0.16061322 0.21826003 0.04667475 0.45096108 0.5658956 0.41217196 0.05971881 0.5575039 0.0004756814 -0.4264309 0.3892766 0.21026294 0.274372 0.622364 -0.07025608 -0.23809685 0.12574339 -0.08939651 0.27839303 0.4988358 -0.5444887 -0.14242822 -0.179118 0.26606953 -0.011003913 0.4715138 -0.06500328 -0.13092503 0.117252395 -0.4298924 0.22450463 -0.39606956 -0.3042679 -0.10687187 -0.5991073 -0.094632946
86 0.4996594 -0.74905384 0.7612079 -0.21295027 -0.48047036 -0.15827113 0.08832926 -0.0139867915 -0.14717919 -0.49865374 -0.4873802 0.07694259 -0.1700488 -0.08723027 -0.061628588 0.16597375 -0.062135164 -0.092612624 0.13292259 -0.2649129 0.16865197 0.5256493 0.012172597 -0.23804499 0.19386627 -0.24674022 -0.13152318 0.22264783 0.14038786 -0.04241272 -0.30153233 -0.0696131 0.29186597 -0.39396176 0.18500608 0.32871726 0.6233188 0.14180571 -0.11593248 -0.53167105 -0.68862593 0.044282682 -0.012351611 0.48471364 -0.31496173 -0.31199926 0.52238536 -0.22944875 -0.49185964 -0.5811235 -0.13946795 -0.11687165 0.117372416 0.22203143 0.1484984 -0.14336793 0.107062675 0.1681542 -0.014055788 -0.14318682 -0.39785737 -0.12250887 0.2898277 0.045387194 -0.67202413 -0.0026236142 -0.14200862 0.5485222 -0.32555026 -0.09088718 0.08454956 0.07268526 0.08739763 -0.31247684 -0.1393027 0.23103002 0.355759 -0.5250442 0.24595284 -0.18606435 0.14058074 -0.4866906 0.33380425 -0.1599104 -0.20124993 0.054508973 0.73625094 0.18554986 -0.08373363 -0.55609167 0.10179249 0.084549315 0.1785143 0.23201053 0.08068186 0.4630515 0.6040914 0.45097914 0.07382837 0.5128654 -0.041906387 -0.4460291 0.41691783 0.20574908 0.25108394 0.6410777 -0.12245633 -0.28560725 0.16113524 -0.075181946 0.22273201 0.54880774 -0.61617196 -0.18766157 -0.16519406 0.26737812 -0.027042722 0.45443857 -0.07346382 -0.13891293 0.04083238 -0.48963457 0.26021707 -0.41501975 -0.23533317 -0.15072477 -0.61835915 -0.13011377
116 0.47816342 -0.7793463 0.75089276 -0.19350138 -0.50531244 -0.135137 0.07766171 0.0210616 -0.16605632 -0.5555194 -0.5222121 0.11356203 -0.21098165 -0.084189326 -0.10479484 0.12375603 -0.08907601 -0.1445153 0.19896188 -0.23674603 0.19667397 0.5697958 -0.06693875 -0.19821465 0.24064623 -0.28745285 -0.16410717 0.21674739 0.17639074 -0.1043423 -0.3105976 -0.08235402 0.2860822 -0.46105996 0.1572692 0.24501106 0.6596747 0.21629032 -0.13860364 -0.5619752 -0.78370905 0.059527732 -0.038752932 0.53634286 -0.31689695 -0.2993669 0.50862527 -0.21584019 -0.5214306 -0.559515 -0.14484544 -0.10134583 0.09830113 0.21226868 0.22419444 -0.15191351 0.08524218 0.18367805 -0.023219522 -0.18103899 -0.45883515 -0.1581781 0.31956032 0.0091523575 -0.67639035 0.02803406 -0.18012327 0.56773144 -0.27277437 -0.12665725 0.061557095 0.08659418 0.05466902 -0.33204523 -0.10455161 0.22995293 0.38698447 -0.51203924 0.28278947 -0.23321131 0.16512364 -0.46123263 0.31710368 -0.18117508 -0.21615031 0.013899844 0.7715255 0.15929358 -0.099359356 -0.54444575 0.042219218 0.046555944 0.17080782 0.2561576 0.043889076 0.504648 0.60196674 0.4698423 0.06916865 0.5199433 -0.08880859 -0.48736638 0.38669837 0.21715683 0.29353604 0.6520932 -0.19541062 -0.327792 0.09002472 -0.10204559 0.23894233 0.5583358 -0.6356633 -0.16357677 -0.24754208 0.26496345 -0.044998687 0.51116264 -0.123848215 -0.09703989 0.016922753 -0.49517706 0.29740778 -0.40668374 -0.2639789 -0.15263139 -0.62619185 -0.14858
127 -0.08914941 -0.32926786 0.40329912 -0.072563015 0.34168136 0.23270246 -0.015461459 -0.21005522 -0.14470097 -0.3941281 -0.16576612 -0.27817622 -0.42740566 -0.49499297 -0.32252294 -0.13660713 -0.21977402 -0.066335164 -0.0982841 -0.48314548 0.958774 0.15002865 -0.28619853 -0.51112026 -0.38799393 0.080137335 -0.23149168 -0.039593972 -0.12172262 -0.46553186 0.13149655 0.029700119 0.09473224 -0.23519418 0.069168314 0.01866626 -0.32873678 -0.24737026 -0.3236088 -0.052139536 -0.30261254 0.30822793 -0.23502034 -0.09300476 -0.20175502 -0.08161413 0.16989224 -0.30572504 -0.19330913 -0.20015137 -0.259014 -0.007112293 -0.1943222 0.2554134 -0.18576306 -0.6639815 -0.061163027 0.64481485 -0.12919801 -0.2092299 -0.4857752 -0.24639156 0.018129855 0.358419 -0.21373907 -0.09999342 0.12886207 0.2461704 0.108745985 0.29625246 0.18236545 0.040785264 0.4788656 -0.39984924 0.08000301 0.087124795 -0.041704707 0.1524095 0.28655738 0.0452761 0.4311885 -0.32591036 0.17824759 -0.23274861 -0.04988909 0.04033777 0.68316233 -0.071402706 -0.13188002 -0.07937983 0.3176079 0.24015735 -0.43500885 -0.20606759 -0.096490994 -0.057004124 -0.0958132 -0.10591195 -0.0065123565 0.36920205 0.4104167 0.008724451 0.042131886 0.04452995 0.40571824 0.29929414 0.37237582 0.29230258 0.01414395 -0.01441603 0.015901074 0.010590509 0.29436454 0.22269791 -0.23722622 -0.008267848 0.08735731 0.055202156 0.21707511 -0.24161337 0.62724817 0.13389118 -0.2203933 0.08890427 -0.35120532 0.27223215 -0.013573656 -0.008776632
123 -0.05594714 -0.33853894 0.43363735 -0.03195071 0.27665916 0.256484 -0.033261444 -0.17315485 -0.12616646 -0.4467027 -0.19115159 -0.26378816 -0.41093424 -0.5233237 -0.34939346 -0.14545137 -0.2569431 -0.088221796 -0.09171773 -0.41198236 0.94051254 0.10202244 -0.24736919 -0.5003967 -0.38903806 0.120886475 -0.29953948 -0.07197111 -0.11136904 -0.4504522 0.1285749 0.06880875 0.117898315 -0.22194757 0.05134405 -0.02631368 -0.33374935 -0.24353993 -0.35673082 -0.010658252 -0.3415775 0.23100947 -0.23602146 -0.051966112 -0.18555893 -0.0477016 0.18905565 -0.30995592 -0.25109726 -0.17722462 -0.2816004 0.006153827 -0.19349888 0.26000485 -0.23581935 -0.6969209 -0.10078428 0.60369056 -0.082198836 -0.2243861 -0.50961125 -0.20588973 0.052682232 0.378454 -0.22576268 -0.09298824 0.20349205 0.29553884 0.13869011 0.28142497 0.17635112 0.05958325 0.4792194 -0.3955093 0.07862981 0.11656998 -0.019764354 0.1762057 0.3445192 -0.009965408 0.46173158 -0.3266568 0.238483 -0.28698766 -0.048271257 0.030283296 0.70020175 -0.054984745 -0.14845651 -0.06300162 0.4328416 0.29727817 -0.4580556 -0.1860034 -0.111141495 -0.06984469 -0.13600518 -0.12161357 0.011457965 0.35615486 0.38516602 0.021624336 0.012048661 -0.03457574 0.35757667 0.34538376 0.33471677 0.33023453 0.047902893 -0.032274894 -0.027533682 0.089664854 0.31968328 0.22148192 -0.25302136 -0.048120003 0.10831001 0.068876974 0.18343757 -0.23881479 0.6108222 0.09071248 -0.1912447 0.055613466 -0.31699404 0.22851318 -0.04005982 0.0072480263
112 0.5154705 -0.80812824 0.75741583 -0.22118032 -0.51813334 -0.1964785 0.1070246 0.03733407 -0.119051136 -0.49836138 -0.48155105 0.12494469 -0.1712903 -0.10011146 -0.052425988 0.13680619 -0.05692144 -0.07736626 0.1510337 -0.20418099 0.13656735 0.5241527 0.026280496 -0.23487498 0.2121871 -0.2541316 -0.18649845 0.2230885 0.16477257 -0.022027498 -0.32479414 -0.03877667 0.28298417 -0.35761863 0.16549134 0.30221787 0.6541747 0.17691562 -0.15565367 -0.55851007 -0.7186901 0.038432773 -0.020281706 0.49531266 -0.30457523 -0.2649729 0.5371286 -0.22901373 -0.49513486 -0.5900088 -0.1789417 -0.086384326 0.11800598 0.20693325 0.11323732 -0.15158926 0.120706536 0.13919175 -0.035787046 -0.15436906 -0.3421909 -0.13431111 0.28007415 0.0033255387 -0.65611976 0.0016254906 -0.11925372 0.54161483 -0.32470483 -0.086176254 0.09935318 0.08598874 0.08847846 -0.30208996 -0.13230981 0.24210498 0.38262895 -0.5869331 0.23087378 -0.22796541 0.1534995 -0.5160079 0.337722 -0.18967997 -0.21482158 0.050814044 0.722946 0.15867284 -0.08923596 -0.55311406 0.14714174 0.10415194 0.20475703 0.26510826 0.03505762 0.50816464 0.5970379 0.45716584 0.124412164 0.49371725 -0.10152596 -0.45954722 0.3809115 0.19804156 0.24365391 0.6630373 -0.15628311 -0.26606455 0.14393793 -0.062263247 0.2021316 0.56761473 -0.64406955 -0.24242213 -0.14903015 0.26420996 -0.01456624 0.48463163 -0.10990307 -0.1378298 -0.0060462262 -0.5395354 0.28455478 -0.45929098 -0.22108965 -0.15684213 -0.6546112 -0.14348094
124 -0.01741229 -0.4804054 0.28365785 -0.13866141 0.2331827 -0.047509573 0.16775839 -0.15631405 -0.08796097 -0.2649911 -0.22338402 -0.21530235 -0.39259768 -0.36228162 -0.13413732 -0.04417797 -0.07653194 0.034714688 -0.110778846 -0.5179893 0.8006892 0.43446735 -0.35015216 -0.37057528 -0.15828213 -0.17696702 -0.16288948 0.121820815 -0.0865819 -0.38012302 0.04691264 -0.012287978 0.031944033 -0.3309957 0.060292102 -0.0030039917 -0.16283387 -0.08519557 -0.30714253 -0.2942662 -0.3085161 0.43571347 -0.1585911 -0.019646594 -0.24324676 -0.053622935 0.29930717 -0.24401125 -0.1067736 -0.27610233 -0.16357295 0.12504882 -0.16793334 0.20169689 -0.018791707 -0.46626866 0.04288955 0.59794027 -0.17447732 -0.11807287 -0.31371886 -0.30113888 -0.029284649 0.13550405 -0.14337367 -0.10568207 -0.046281353 0.19703095 0.050959963 0.24620965 0.1463468 0.06482231 0.3180007 -0.31707317 -0.04460703 -0.03741933 -0.01649029 -0.11630308 0.0942402 0.11335669 0.35172656 -0.28917187 0.077975735 -0.11054838 -0.025239209 0.10751279 0.63752097 -0.1458532 -0.21552658 -0.21013086 -0.012317402 0.020586371 -0.2249077 -0.13301672 -0.1498726 0.23343371 0.14639086 0.006049742 0.053775076 0.32731035 0.25232556 -0.114530936 -0.055405516 0.23957755 0.50983775 0.12243159 0.33184657 0.14474346 -0.04988944 0.021058748 0.2357634 -0.012313289 0.055456612 0.08966372 -0.12554081 0.080026165 -0.07151619 0.06614966 0.21314432 -0.22788368 0.5294366 0.10672509 -0.08588875 0.02668072 -0.43405136 0.3202218 -0.11363511 -0.05606244
92 -0.034363385 -0.47323453 0.27755755 -0.13930158 0.26110598 -0.026520688 0.1648292 -0.16087547 -0.06598454 -0.24883659 -0.22350034 -0.23627093 -0.3821042 -0.38898072 -0.13948742 -0.06035221 -0.107586116 0.052420855 -0.14643486 -0.5362746 0.85016125 0.4029234 -0.33415237 -0.39406896 -0.19744287 -0.13981536 -0.17120802 0.11667922 -0.1103766 -0.38455346 0.073908135 -0.002789798 0.03368429 -0.31512833 0.06060473 -0.018526094 -0.24490267 -0.12604013 -0.33250943 -0.26109135 -0.27300265 0.4148541 -0.16272847 -0.03183386 -0.22776239 -0.024592452 0.2893933 -0.2575414 -0.09172385 -0.25092205 -0.18574914 0.13771081 -0.1920251 0.20365033 -0.052213114 -0.48680508 0.020659681 0.6437146 -0.1753845 -0.121793285 -0.29730082 -0.3233164 -0.052257624 0.15367112 -0.110164315 -0.11403384 0.002332612 0.19375214 0.05951366 0.28635013 0.15246236 0.052816037 0.3417447 -0.33760408 -0.042418014 -0.04430681 -0.035705436 -0.08465087 0.093952216 0.11107583 0.37568906 -0.28410882 0.09413263 -0.12512302 -0.014744112 0.11121712 0.642719 -0.1539936 -0.2165176 -0.19343089 0.02392575 0.038333364 -0.258733 -0.15646732 -0.17638758 0.20993811 0.109614186 -0.038828455 0.06322754 0.34008545 0.27318835 -0.081119165 -0.06832674 0.2068848 0.48770303 0.1139202 0.37041727 0.21925618 -0.059789725 0.025966458 0.21569285 -0.049817625 0.12433097 0.10905655 -0.11041018 0.036465365 -0.03802063 0.05829263 0.21734335 -0.23674595 0.57993406 0.1417202 -0.11756485 0.039531745 -0.44384468 0.34948802 -0.09915682 -0.04554245
9 -0.22259136 -0.48917812 -0.029334318 -0.2160829 0.23203796 0.033534396 0.1978197 0.34589666 0.25335994 -0.021346318 0.24872887 0.29508895 -0.0258964 -0.4310701 -0.044811264 -0.70739764 0.21748434 -0.17485361 0.16034023 -0.13413857 0.074186474 -0.03763721 0.06472442 0.43750986 0.1345362 -0.14721988 -0.32036135 -0.13050109 0.031084768 -0.031971693 -0.3070397 0.102865994 -0.5193191 -0.002197491 -0.13287859 -0.3683553 0.34772983 0.118272915 -0.0734311 -0.44714758 -0.61312836 0.029124258 0.2865153 0.27320984 -0.22589995 0.23874886 0.022202576 -0.18579058 0.42078692 -0.06772365 -0.43346944 0.27315813 -0.21510696 0.21316014 -0.44732407 -0.38709965 0.22814746 -0.150104 -0.41215065 0.2529137 0.30875868 -0.2993915 -0.323977 0.24518071 -0.30131397 0.09477087 -0.31493503 0.09943734 -0.1935009 -0.16849312 0.13712452 0.1231587 0.30236337 -0.23995042 0.50485283 -0.35923842 0.43798682 -0.18019325 -0.13089979 -0.16137736 0.003593017 -0.07780165 -0.3519927 -0.10388462 -0.29273003 -0.43129668 -0.25317737 -0.30373394 0.07796109 0.24154805 0.045356497 0.14019467 0.2914779 0.15264247 -0.63312674 0.572858 -0.072137244 -0.3846 0.5125384 0.21465589 -0.81437856 0.01595186 -0.22650774 0.21129717 0.31006157 0.20468181 0.14924589 0.47124922 -0.22640689 -0.035841033 0.16767427 -0.21343927 -0.054977283 -0.19963461 -0.5138956 0.24954468 -0.119705714 0.59322155 -0.52313155 0.5328869 -0.2651614 0.027451523 -0.098017044 -0.29832765 -0.4474993 0.42454898 0.4798099 0.39064023
53 -0.15812734 -0.41607642 0.0057672714 -0.22895451 0.3648106 0.06452251 0.040655006 0.27172145 -0.045770288 0.1173737 0.25624996 0.4597383 -0.14515595 -0.1208082 -0.033165805 -0.4444243 0.14848053 -0.14632685 0.38645267 0.3384838 -0.13006434 -0.2902862 -0.052618507 0.24782234 -0.091581225 0.01382083 -0.49921542 -0.058526605 0.08901746 -0.1157216 -0.1981461 0.24463236 -0.45153582 0.19170237 -0.2784127 -0.07490377 0.49627674 0.1902301 0.058010705 -0.35810325 -0.23046409 0.4155489 0.1722519 -0.21467263 -0.04494685 0.38526422 -0.17041484 0.036626384 0.32613316 -0.16089801 -0.3913164 0.033325434 -0.2061619 -0.14560863 -0.39365256 -0.32288283 0.4767081 -0.3457721 -0.53011787 -0.023907328 0.37175074 -0.18747215 -0.11347159 -0.048655268 -0.30061454 0.22874416 -0.52648497 -0.15154602 0.014169454 0.09845241 0.189529 0.19022584 0.2931181 -0.18029045 0.5167547 -0.07490702 0.5615144 -0.23070455 -0.10029744 0.18538776 0.100909084 -0.1236116 -0.35356843 -0.14626072 -0.18886648 -0.18499577 -0.20911351 -0.40659758 0.3482868 0.15429547 0.1376334 0.14730895 0.111352995 -0.03626252 -0.3256262 0.5241443 0.004339553 -0.09207022 0.4501378 -0.34694967 -0.7298514 -0.102328375 -0.091229856 0.11124227 0.5082667 0.2311166 -0.19106826 -0.039205212 -0.16011976 0.11643798 -0.28418383 -0.052254353 -0.48938495 -0.40007234 -0.3926208 0.20987846 -0.22247562 0.18842131 -0.2727513 0.34057683 -0.5815566 -0.19324897 -0.079799816 -0.05962223 0.039554916 0.23327167 0.42254987 -0.18504561
129 0.013709625 -0.6202383 0.30330005 -0.16168171 0.0665249 -0.15139173 0.19545701 -0.092332885 -0.035967994 -0.28705442 -0.30915597 -0.10991649 -0.37695554 -0.25861356 -0.05996396 -0.080577984 -0.082439795 0.00924004 -0.01983003 -0.6008791 0.7239842 0.6644669 -0.35254338 -0.23997416 0.064118505 -0.35637882 -0.046921287 0.19395104 -0.020528615 -0.38319486 -0.023810536 -0.12311665 0.021666503 -0.49985668 0.10712759 -0.07174917 0.023112468 0.068733916 -0.285341 -0.44227165 -0.4646138 0.43019843 -0.06890343 0.22336663 -0.28819647 -0.13634759 0.38009688 -0.18605609 -0.09706119 -0.31176147 -0.13503437 0.12671003 -0.13166647 0.221036 0.22055279 -0.3034087 0.058221765 0.6532275 -0.19566847 -0.10091032 -0.3435754 -0.38956955 0.001496131 0.008828796 -0.17911074 -0.06452915 -0.18318279 0.24305643 -0.019047469 0.14063734 0.07947307 0.06547496 0.10920731 -0.30981407 -0.045185573 -0.054734103 0.05126631 -0.248491 0.04742837 0.023321915 0.28935722 -0.22372387 0.038106874 -0.05833388 -0.06535212 0.030338423 0.69099134 -0.16081885 -0.25638276 -0.29097494 -0.28745365 -0.16021024 -0.061520185 -0.047617108 -0.2031549 0.4519973 0.3495041 0.15036823 0.045447644 0.46088558 0.14104502 -0.27267998 -0.025541745 0.39049718 0.5500297 0.09513148 0.19792019 0.0044859946 -0.18926507 -0.04732516 0.40635875 -0.0024347506 -0.09269 0.062311977 -0.22423227 0.16181545 -0.10646428 0.23245665 0.062369283 -0.14189671 0.46841937 0.087141015 0.051994894 -0.043685097 -0.568713 0.31428584 -0.20616513 -0.059943292
58 -0.17016672 -0.54096013 -0.027472394 -0.17674002 0.14453256 0.010757503 0.18365607 0.37840244 0.29181886 0.0034575132 0.19903027 0.35530838 0.052810896 -0.37839162 -0.027303431 -0.67500246 0.153604 -0.14738184 0.1757596 -0.03712186 0.01637477 -0.060674902 0.11255729 0.43950865 0.14057507 -0.11599992 -0.37460092 -0.10554797 0.03961896 0.009662743 -0.3005784 0.101461925 -0.4761429 0.02878873 -0.14110877 -0.37802768 0.33834705 0.1472355 -0.11125346 -0.41589722 -0.57086813 -0.012503897 0.2715389 0.283222 -0.16659722 0.31234133 0.029868793 -0.16263449 0.36738962 -0.055010624 -0.45083034 0.26206586 -0.2084526 0.16634242 -0.45673072 -0.31251234 0.23721804 -0.15904082 -0.38030717 0.2034986 0.35303348 -0.29549357 -0.2987386 0.15043554 -0.253289 0.12576549 -0.25968242 0.09840724 -0.17780332 -0.1226568 0.09797436 0.108083114 0.2449593 -0.23140252 0.4681203 -0.30440435 0.46678367 -0.19705683 -0.11874782 -0.170272 0.0023283355 -0.059051078 -0.28558856 -0.1292549 -0.284516 -0.4050054 -0.22579826 -0.32182193 0.060245473 0.22281602 0.068919234 0.13672715 0.3027817 0.14807343 -0.633051 0.6146309 -0.07453547 -0.35162094 0.54376996 0.1638455 -0.8469505 -0.016354935 -0.20410596 0.15856715 0.25350818 0.20791787 0.061142653 0.4767068 -0.24440293 -0.019348286 0.09544624 -0.20236954 -0.083071396 -0.24535592 -0.47643626 0.18734826 -0.08724989 0.57241225 -0.5542741 0.51851547 -0.30969948 -0.0126786865 -0.057089113 -0.31530362 -0.39586297 0.3602739 0.39844066 0.32383046
90 -0.030128988 -0.45165813 0.3398299 -0.12917577 0.28324005 0.08079042 0.10788122 -0.18103498 -0.11725713 -0.3378939 -0.27195132 -0.2808514 -0.40524068 -0.44835937 -0.2515029 -0.065570354 -0.1690056 -0.0052546626 -0.123181954 -0.524744 0.95245326 0.34945416 -0.3804844 -0.43966556 -0.28300384 -0.067855485 -0.20956548 0.074559405 -0.11669768 -0.46361765 0.093528464 -0.00957572 0.07619655 -0.3472932 0.06629362 -0.018723194 -0.27884483 -0.15814331 -0.35640252 -0.21528439 -0.3433191 0.3934354 -0.22552584 -0.032698493 -0.22919773 -0.04556238 0.2414973 -0.28456894 -0.17922094 -0.24201828 -0.19958258 0.12077891 -0.21161176 0.22613803 -0.07111154 -0.57466227 -0.033156432 0.6641997 -0.15896188 -0.18322323 -0.41675976 -0.32791993 -0.0082267 0.22867255 -0.15736206 -0.11452186 0.033431564 0.23683684 0.0967913 0.29295066 0.15617095 0.04690994 0.43224445 -0.41960263 -0.023962758 -0.02048193 -0.04665768 0.017825432 0.18189462 0.086987585 0.40335804 -0.31659228 0.14512563 -0.17411011 -0.0430092 0.08833397 0.7072029 -0.12314966 -0.20616077 -0.17307104 0.10286185 0.100566015 -0.35843405 -0.16390193 -0.14837351 0.1148357 0.031309694 -0.07123052 0.03305944 0.37982026 0.32684106 -0.06824225 -0.016411843 0.14993224 0.48300856 0.19825065 0.388637 0.24971868 -0.061743073 0.020395614 0.16757229 -0.051052958 0.19352579 0.18933597 -0.17959453 0.0032941233 -0.0061709546 0.081698015 0.22021185 -0.23791668 0.61893183 0.13783953 -0.15976684 0.057154838 -0.41760147 0.3256527 -0.095086634 -0.048066925
128 0.4055762 -0.6891897 0.6418658 -0.22315428 -0.35116228 -0.14460963 0.09433567 -0.03547319 -0.12938584 -0.40956172 -0.45315948 0.052745853 -0.1807176 -0.08428853 -0.08635044 0.13216987 -0.07608787 -0.052816246 0.11640282 -0.31181017 0.25601134 0.52820045 -0.07398365 -0.25612804 0.12981096 -0.23552752 -0.080800295 0.21961083 0.10805439 -0.11722605 -0.24352048 -0.09243296 0.25184256 -0.39579347 0.16943833 0.27998525 0.4833621 0.12447767 -0.12389524 -0.5160166 -0.604607 0.13653076 -0.03396087 0.3926548 -0.28311303 -0.27917263 0.4405306 -0.21498239 -0.41371152 -0.5250776 -0.12977587 -0.09102045 0.061052635 0.1858622 0.1790378 -0.14343977 0.108667545 0.25691277 -0.07501444 -0.15267214 -0.35164636 -0.19712406 0.21458577 0.007121278 -0.5426723 -0.008614658 -0.17722322 0.44276398 -0.28073186 -0.029211584 0.08705381 0.040647596 0.11997772 -0.335871 -0.12219899 0.17482524 0.28809753 -0.46064597 0.16828673 -0.1101953 0.13813306 -0.45097077 0.25589406 -0.12721393 -0.1939741 0.06897154 0.7045865 0.118710585 -0.08273931 -0.49816462 -0.012119158 0.018982844 0.1173174 0.17487511 0.05807398 0.41801614 0.5344553 0.37813678 0.059815664 0.48020053 0.008305454 -0.4093096 0.3885486 0.21991459 0.29285064 0.5214528 -0.048618797 -0.23673914 0.049405005 -0.04033602 0.23989351 0.37134477 -0.5177492 -0.13571705 -0.15512747 0.23040926 -0.024191564 0.39627805 -0.038492348 -0.119041696 0.10578489 -0.36946642 0.18408774 -0.31083724 -0.25769478 -0.06769757 -0.5438857 -0.15108967
79 -0.18975529 -0.40809745 -0.014232921 -0.2628725 0.39703053 0.038856976 0.08109039 0.24988008 -0.050194073 0.13504128 0.25764102 0.40040678 -0.16085671 -0.12977904 -0.021307176 -0.45730793 0.18868124 -0.14223771 0.36265785 0.20619857 -0.07038133 -0.20186524 -0.076944664 0.2633141 -0.057006642 -0.053914018 -0.39704043 -0.031420223 0.07259802 -0.13824762 -0.21257985 0.20121714 -0.47350016 0.11549847 -0.2467205 -0.07961274 0.48544967 0.19483733 0.07292328 -0.42245176 -0.2599805 0.44661042 0.20242228 -0.17052276 -0.0914997 0.31971204 -0.14406455 0.035503834 0.37910673 -0.17447282 -0.3601401 0.053421684 -0.20901111 -0.10353505 -0.33507848 -0.3212987 0.4665245 -0.2834798 -0.5432228 0.032960877 0.34309965 -0.22575535 -0.15289328 -0.024767097 -0.29837462 0.19851786 -0.58936536 -0.15346551 -0.010092772 0.061482888 0.19036555 0.17496476 0.29101804 -0.20031828 0.5038514 -0.1344107 0.52876264 -0.23929347 -0.14759812 0.19835234 0.07800226 -0.11274827 -0.39674035 -0.09949119 -0.20350868 -0.21320038 -0.20625192 -0.40273273 0.3243167 0.15266395 0.021124564 0.08380345 0.13190855 -0.02270295 -0.33391836 0.548622 0.05375544 -0.0998057 0.41817072 -0.26014587 -0.6988514 -0.10894787 -0.09240007 0.18823506 0.5515477 0.17964524 -0.11819631 -0.03777223 -0.19657807 0.0929399 -0.16883059 -0.11070772 -0.4590085 -0.35228893 -0.40043467 0.25985625 -0.25543335 0.22787169 -0.27976573 0.36775008 -0.50902754 -0.11938448 -0.091424435 -0.049192835 -0.059143767 0.2920127 0.4485962 -0.12538949
48 0.044684175 -0.4736359 0.2502662 0.15402259 -0.09075118 0.26804528 -0.21279489 0.26584175 0.02627691 -0.30107847 -0.19014938 0.3811376 -0.04286059 -0.21034928 -0.29454607 -0.2132425 -0.38506523 -0.21922135 0.31866962 0.6569127 0.17940159 -0.3588959 -0.049690943 -0.037772488 -0.22254954 0.36638084 -0.80187404 -0.17155097 0.063504815 -0.30831426 0.026223633 0.22838946 0.049431 0.0507627 -0.21340689 -0.37531522 0.11405613 0.103472374 -0.31022775 0.18149593 -0.33212808 -0.025981672 -0.17713207 0.036539752 0.17113951 0.460011 -0.14310189 0.0076178545 -0.36278567 -0.013726277 -0.40839928 0.03235963 -0.17135157 -0.14632973 -0.3159827 -0.31819788 0.01980718 -0.05199765 -0.11322943 -0.4801711 -0.13392474 -0.0771646 0.24448928 -0.08161817 -0.10327381 0.23349595 0.18024902 0.17224543 0.36343324 0.2469769 -0.012865738 0.1488586 0.18056646 -0.27446368 0.28250834 0.30720696 0.32110292 0.16803588 0.40772057 -0.19876662 0.40098596 -0.048755053 0.28722757 -0.4741606 -0.12373078 -0.15736079 0.33997604 -0.22033152 0.040715717 0.20693941 0.6462745 0.3421685 -0.2922254 -0.046921354 -0.24143995 0.14449286 -0.21750017 -0.014095431 0.29760247 -0.22493474 -0.34846702 -0.16091448 -0.086523294 -0.2707258 0.10300206 0.4001813 -0.4171977 0.20782928 -0.16900367 0.026360404 -0.59311044 0.24826261 -0.02591599 -0.11758 -0.36967152 -0.23816559 0.06773658 0.15476738 -0.28072888 0.016515005 -0.25501668 -0.3068146 0.10245726 -0.04161579 0.19533698 -0.12165468 -0.0716312 -0.30617958
1 -0.17413819 -0.5306122 -0.013660295 -0.18938974 0.12702073 -0.0021961918 0.20392717 0.36333808 0.30150822 -0.023990067 0.1906247 0.31238943 0.04455156 -0.40080044 -0.024111643 -0.685779 0.18800707 -0.16865826 0.15380463 -0.13363546 0.026216224 -0.0058308947 0.10891551 0.46532714 0.18773316 -0.15925023 -0.3074405 -0.09180116 0.04796927 0.020822953 -0.3126613 0.06669814 -0.48265135 -0.010215677 -0.12127281 -0.37195635 0.33573347 0.13679951 -0.08824705 -0.45386833 -0.6092681 -0.037350744 0.29206192 0.33792952 -0.20630461 0.2473755 0.060817357 -0.19910397 0.38005105 -0.044929743 -0.4360989 0.27123508 -0.20543934 0.2181849 -0.43146598 -0.30664957 0.22010297 -0.13101393 -0.35819718 0.24884571 0.3118258 -0.29902667 -0.31686157 0.19811401 -0.2900064 0.1066219 -0.27127808 0.15096562 -0.23116131 -0.17928067 0.08637006 0.09188055 0.23199973 -0.2258928 0.44555217 -0.3409824 0.46773532 -0.19918938 -0.11222047 -0.19926205 -0.02612086 -0.056275796 -0.29796425 -0.10656104 -0.28729162 -0.4223817 -0.22293806 -0.284952 0.03408561 0.19291012 0.00807714 0.11627677 0.33429992 0.16011925 -0.6376935 0.61303294 -0.048352282 -0.36539873 0.5185394 0.24968341 -0.8337421 -0.004187174 -0.18703268 0.1771893 0.25015897 0.2064633 0.10376324 0.4764646 -0.22683491 -0.04088847 0.1784638 -0.20616429 -0.0704231 -0.21092379 -0.49421123 0.21802722 -0.08331262 0.6144786 -0.55263907 0.531351 -0.2742009 0.01723067 -0.056201708 -0.3371493 -0.46793061 0.37562802 0.4027536 0.38131592
21 -0.1262791 -0.37472492 0.009743537 -0.19467235 0.23848638 0.043580383 0.046498023 0.24907401 -0.02159351 0.08249048 0.17980821 0.39576212 -0.094405845 -0.08859293 -0.02442824 -0.38801694 0.12720248 -0.15256636 0.34869236 0.26448372 -0.12662412 -0.1991809 -0.030496666 0.2711998 -0.008286097 -0.03026258 -0.388699 -0.03832242 0.083223365 -0.09671332 -0.19790109 0.16532093 -0.37799174 0.1012977 -0.22018681 -0.10070984 0.46580485 0.19960892 0.058908347 -0.34093443 -0.26763454 0.3053254 0.17113505 -0.07956485 -0.051978294 0.29933006 -0.12801298 0.043901596 0.26907498 -0.13668792 -0.31224936 0.04105945 -0.16421796 -0.106322855 -0.2775754 -0.22380355 0.38131085 -0.2949951 -0.43646592 7.642343e-05 0.28372392 -0.17087227 -0.08089618 -0.04074068 -0.26463223 0.19847818 -0.47771406 -0.09223353 -0.005488206 0.0204631 0.12818716 0.1458534 0.20454903 -0.16413814 0.43429527 -0.08058509 0.48754913 -0.19890074 -0.07952159 0.115153864 0.04851907 -0.068178676 -0.2981396 -0.116355754 -0.18688717 -0.20992345 -0.17689142 -0.32213098 0.2746115 0.12671342 0.048930254 0.0852249 0.13569075 0.012995605 -0.2895571 0.4859051 0.042072322 -0.05381473 0.37629387 -0.23213089 -0.6591871 -0.120524034 -0.060208634 0.123017594 0.42044768 0.19715291 -0.18109675 -0.03971398 -0.17687437 0.0635993 -0.17706917 -0.047102965 -0.4267468 -0.31546822 -0.3734378 0.19876747 -0.20614994 0.23112988 -0.29427272 0.3428699 -0.5056674 -0.16196795 -0.02617673 -0.08269079 -0.015314515 0.18703386 0.3470209 -0.1207823
89 -0.039133556 -0.31633756 0.43309778 -0.06491132 0.3172013 0.24465778 -0.015561313 -0.18775025 -0.15497175 -0.41646242 -0.16559745 -0.2841568 -0.41586572 -0.5315202 -0.33702853 -0.107419714 -0.21028547 -0.07667893 -0.12035579 -0.40489665 0.9206842 0.07118551 -0.2606713 -0.523884 -0.4198898 0.137401 -0.31117922 -0.06526549 -0.12063517 -0.42655212 0.11570675 0.09289694 0.11603748 -0.17720702 0.039347913 0.02353498 -0.3254884 -0.26362902 -0.33645308 -0.03028308 -0.2987574 0.26130277 -0.2593417 -0.12716277 -0.19162525 -0.046704568 0.18039115 -0.33045152 -0.24478087 -0.19951186 -0.2754102 0.016663885 -0.18775736 0.24106447 -0.27629617 -0.7260535 -0.066909604 0.55038816 -0.094702676 -0.21685173 -0.47327045 -0.18416457 0.03731467 0.38549018 -0.24671921 -0.10052754 0.1981784 0.28148574 0.11205406 0.29633164 0.20606999 0.06120407 0.54863703 -0.39418057 0.05492479 0.094231084 -0.028924672 0.15818188 0.32375845 0.021770757 0.4564229 -0.37971854 0.23496854 -0.27688223 -0.052206665 0.07460475 0.6623758 -0.05228774 -0.12824553 -0.07570634 0.4677606 0.329181 -0.4651955 -0.18975776 -0.08654259 -0.10196874 -0.13972987 -0.14504105 0.02396631 0.32036975 0.39603707 0.04062074 0.027220733 -0.033334773 0.36346015 0.36164233 0.37856305 0.32692742 0.100791834 0.005901488 -0.046065602 0.09709986 0.29102337 0.19564997 -0.19625194 -0.039434113 0.0884189 0.042467643 0.2401738 -0.27085552 0.59995157 0.07722167 -0.2292474 0.06323857 -0.26805133 0.23865424 -0.031533822 0.0046805446
94 0.04550987 -0.4624561 0.20922543 0.16874972 -0.08722934 0.21450114 -0.17216317 0.26873332 0.04444383 -0.27394223 -0.17350414 0.34261295 -0.04908402 -0.22265652 -0.24744695 -0.17413975 -0.35239476 -0.18328738 0.2578316 0.62481576 0.18009527 -0.3304047 -0.040488284 -0.027540056 -0.19733918 0.33816996 -0.7939145 -0.14824168 0.043603715 -0.26965064 0.035006545 0.23835948 0.039492805 0.055836253 -0.21308333 -0.38973987 0.07022368 0.09963674 -0.3311259 0.1858764 -0.28425366 -0.023230543 -0.17692073 0.014075457 0.16587658 0.47943476 -0.09702959 0.0043032295 -0.33849305 0.006049435 -0.3915868 0.07660282 -0.1684841 -0.14899322 -0.33224425 -0.31629175 0.017201819 -0.05891849 -0.07958689 -0.4455471 -0.10818109 -0.04919096 0.21691717 -0.09800074 -0.06383663 0.211863 0.22172311 0.1725481 0.3664428 0.25488645 -0.00387234 0.1611913 0.16202612 -0.23336732 0.2331819 0.27249908 0.29179448 0.15247715 0.38756785 -0.18271263 0.41059074 -0.0365194 0.29339254 -0.45837605 -0.08412081 -0.118741594 0.31443614 -0.23897742 -0.009367774 0.19876523 0.64240295 0.32556903 -0.2718321 -0.06318872 -0.25176913 0.1664435 -0.21660104 -0.02380359 0.29876274 -0.25037563 -0.33758473 -0.13197146 -0.15133129 -0.26185656 0.10755336 0.33844924 -0.38710916 0.22961743 -0.11956762 0.035748687 -0.5610949 0.2615961 -0.0032632407 -0.131721 -0.30387282 -0.24694806 0.04273549 0.114202216 -0.2392337 -0.026921099 -0.22597952 -0.26638654 0.11021354 -0.036959864 0.17790043 -0.10177013 -0.07385675 -0.27355316
10 -0.20111106 -0.52106243 -0.06708166 -0.21635984 0.22480246 -0.037791908 0.22780156 0.35544574 0.2763987 0.062159587 0.26118252 0.33700553 0.0047194934 -0.3690671 0.022276936 -0.6711311 0.23596765 -0.1166115 0.15229435 -0.08697018 0.005921701 -0.031385336 0.09458916 0.44502455 0.14467135 -0.164983 -0.32930765 -0.0791508 0.03280675 0.02471001 -0.30952707 0.11353071 -0.52877784 0.057041537 -0.15811108 -0.33300027 0.34840432 0.14120607 -0.0769294 -0.4740521 -0.5181808 0.08198818 0.30172318 0.21236809 -0.1848024 0.3094303 0.045833554 -0.16740678 0.45912793 -0.07184069 -0.43708587 0.27704358 -0.20657685 0.15842457 -0.47193608 -0.3274825 0.29428053 -0.17554091 -0.4306396 0.26110137 0.41334388 -0.29412147 -0.34848717 0.14691198 -0.25126973 0.11094166 -0.330724 0.04516411 -0.20852752 -0.12234027 0.13652654 0.11565082 0.26170474 -0.19107287 0.46898863 -0.3461631 0.46791726 -0.25956085 -0.19431531 -0.10039765 -0.011089543 -0.079383 -0.3589785 -0.084416874 -0.27232328 -0.37700516 -0.28880113 -0.35508746 0.08167814 0.20810325 0.0229111 0.11122368 0.33776382 0.12901331 -0.628409 0.64657205 -0.039243594 -0.3540491 0.54576445 0.1315011 -0.8428742 -0.00043685516 -0.24021018 0.20911774 0.32229325 0.15571813 0.1091398 0.43526083 -0.22113669 0.0028539968 0.13782994 -0.22378395 -0.12999487 -0.28244317 -0.42877814 0.2452796 -0.12727955 0.535191 -0.4994046 0.50364214 -0.31547958 0.012900042 -0.07721427 -0.29420137 -0.4096227 0.41375902 0.44462174 0.32344925
87 -0.0144278575 -0.44460377 0.19895871 0.1651425 -0.050243128 0.2974139 -0.2179028 0.2885627 0.006688178 -0.29968956 -0.16723488 0.40248722 -0.05716078 -0.18704772 -0.29062742 -0.24641673 -0.37838227 -0.26140678 0.37373018 0.6818124 0.16681044 -0.37841126 -0.086960725 0.056402538 -0.19331294 0.33783624 -0.80304956 -0.17975907 0.06630539 -0.3550676 0.029301902 0.21721554 -0.0130036315 0.0038083356 -0.23049575 -0.43331406 0.16398251 0.14152233 -0.27829722 0.17436342 -0.35064727 -0.0053566145 -0.14807639 0.056316353 0.17475094 0.47393566 -0.19533223 0.06521555 -0.31396544 0.012564983 -0.3920265 0.029776733 -0.19829223 -0.16693178 -0.25589183 -0.29606625 0.027245175 -0.082352854 -0.12831564 -0.47408465 -0.15418343 -0.089397125 0.25526732 -0.088684805 -0.098686084 0.26137918 0.08344742 0.15054037 0.42190087 0.21355622 -0.030693099 0.16338597 0.13627812 -0.2737754 0.34015477 0.27359134 0.35152167 0.21823984 0.41928762 -0.18450485 0.38509482 0.03457247 0.22389606 -0.4540048 -0.11598905 -0.20193231 0.29942632 -0.24624836 0.060590226 0.24973913 0.5467113 0.28428897 -0.2866814 -0.06143594 -0.26168558 0.18726064 -0.20636094 -0.0062821344 0.2845955 -0.26171902 -0.41492397 -0.16976368 -0.11625528 -0.23795775 0.15407075 0.35069785 -0.4539761 0.15946831 -0.21568964 0.00028724188 -0.5800614 0.21347742 -0.043174487 -0.096254654 -0.451786 -0.22454882 -0.0040319567 0.16172259 -0.32304975 0.08080317 -0.31073526 -0.26861104 0.11579216 -0.0068971384 0.1827888 -0.10161571 0.020430852 -0.30905256
97 -0.0037240584 -0.45353195 0.20221718 0.15183188 -0.02247824 0.2780707 -0.20367794 0.28126368 0.0023856286 -0.2827003 -0.14792913 0.4113766 -0.05198187 -0.18017705 -0.28648534 -0.23683192 -0.36120287 -0.2468355 0.37025553 0.68560284 0.14566016 -0.39407632 -0.06506789 0.041383464 -0.2071862 0.33466837 -0.81000805 -0.17326537 0.05377371 -0.32945326 0.009652995 0.23677886 -0.031923186 0.030439973 -0.23914585 -0.39931157 0.18921018 0.13303775 -0.26809606 0.14129384 -0.31503314 0.008734077 -0.13199867 0.040686797 0.1671801 0.47812185 -0.18300886 0.07109207 -0.2973304 -0.014013881 -0.40054262 0.02186816 -0.19538023 -0.17647213 -0.26559713 -0.29427347 0.055608675 -0.08569663 -0.14000046 -0.47836703 -0.13073832 -0.08749215 0.24363129 -0.088168256 -0.11301908 0.26964673 0.058099944 0.14058392 0.40617374 0.22061412 -0.012526845 0.1721941 0.15383926 -0.2740519 0.34133452 0.277745 0.36472335 0.20108312 0.41218555 -0.14576362 0.38262084 0.01908198 0.22620946 -0.4550858 -0.120571606 -0.19258654 0.2947862 -0.23577741 0.07815785 0.22042838 0.54797924 0.29590183 -0.26486805 -0.07087763 -0.25127345 0.20644404 -0.20703577 0.0029297185 0.30015764 -0.28038543 -0.43697923 -0.16487975 -0.089933485 -0.2436916 0.17042914 0.3687435 -0.4339518 0.1561968 -0.21249531 0.008981496 -0.5860928 0.2123023 -0.072174214 -0.113139026 -0.4318469 -0.21943587 -0.013986207 0.14247267 -0.30427274 0.07702116 -0.31831977 -0.28664044 0.10570601 -0.011647117 0.1967667 -0.101500794 0.029572966 -0.313766
74 -0.1921554 -0.43491334 0.016715016 -0.19738428 0.3488043 0.06207605 0.011563598 0.26020253 -0.001371713 0.11518413 0.28565884 0.4993844 -0.15298563 -0.087794326 -0.0027040436 -0.49288997 0.09985546 -0.14706877 0.40213558 0.29441682 -0.13680467 -0.28919756 0.0002833476 0.23068114 -0.08159423 0.025591662 -0.4900008 -0.05044718 0.10245087 -0.10286649 -0.15077749 0.22412127 -0.4531884 0.21446073 -0.2578896 -0.06745167 0.4591032 0.1845492 0.047930203 -0.31378344 -0.17830798 0.42952558 0.20242324 -0.21451123 -0.02078621 0.3844349 -0.14355077 0.02071154 0.3412273 -0.13709293 -0.43829125 -0.03784384 -0.2051412 -0.13352229 -0.39483985 -0.27689883 0.5124798 -0.25851965 -0.517513 -0.041933525 0.3518916 -0.19346942 -0.12592076 -0.07985856 -0.29350385 0.247627 -0.5083443 -0.1524291 0.0006353097 0.14395364 0.15840732 0.17370933 0.21504068 -0.14850666 0.5367955 -0.013967485 0.6078735 -0.22434594 -0.080197155 0.19367886 0.11649675 -0.08754728 -0.34212834 -0.15832116 -0.16016266 -0.19681512 -0.15419886 -0.4306563 0.32968158 0.14094594 0.11574058 0.13227521 0.12972263 -0.09678161 -0.32603505 0.5622435 0.027523685 -0.046324357 0.43614414 -0.33688042 -0.69413185 -0.123692274 -0.06878125 0.097774714 0.5205123 0.2135075 -0.27000913 -0.057754964 -0.17186533 0.09273144 -0.30985367 -0.045912825 -0.48256117 -0.431944 -0.42199963 0.20146789 -0.18128996 0.16776288 -0.27674913 0.31917667 -0.56367147 -0.16598605 -0.050286945 -0.030727973 -0.022301981 0.22764592 0.40839288 -0.22007695
22 -0.044726297 -0.42484036 0.18634069 0.13440987 0.003853417 0.28955242 -0.21378465 0.26715425 0.002779979 -0.2548843 -0.101540305 0.42091852 -0.050680008 -0.1521738 -0.25559986 -0.28382587 -0.34742472 -0.2529683 0.3949877 0.6227718 0.12604897 -0.3903614 -0.020473527 0.072508216 -0.19249234 0.3163821 -0.72739065 -0.17692074 0.057555128 -0.31617412 0.0032278795 0.20133291 -0.06652835 0.03073469 -0.21502753 -0.37391284 0.20870769 0.12617226 -0.21359088 0.13580167 -0.29711637 0.0146200145 -0.07406701 0.053542066 0.15808277 0.43156114 -0.1965061 0.09146955 -0.22238316 -0.008632496 -0.39886627 -0.03581691 -0.18842372 -0.15668869 -0.24253954 -0.26312217 0.08199168 -0.06842866 -0.16556504 -0.42561576 -0.11255658 -0.0938535 0.21869555 -0.062034056 -0.13274075 0.27030912 -0.002757078 0.11056692 0.3659972 0.20288111 -0.022062834 0.15841202 0.11600818 -0.25732318 0.3878777 0.27862558 0.377791 0.19816284 0.37048203 -0.12740591 0.33557332 0.048386995 0.16426699 -0.41349396 -0.12637046 -0.22360064 0.26018137 -0.24028018 0.12263979 0.24006231 0.4814202 0.26255372 -0.22643271 -0.08781266 -0.24163736 0.21996772 -0.17165461 0.017914409 0.28091195 -0.2532382 -0.4321395 -0.1612634 -0.06361141 -0.1955032 0.18586187 0.34208956 -0.43140393 0.120106496 -0.22964226 -0.017941674 -0.5429199 0.17201735 -0.08371676 -0.11125422 -0.4710695 -0.1759449 -0.0157537 0.15766023 -0.33633208 0.13272 -0.32398102 -0.25332466 0.10074327 -0.0006777375 0.15604843 -0.08198397 0.0844209 -0.2865984
67 -0.18738648 -0.38501152 -0.0019680879 -0.1967374 0.38418114 0.06381167 0.02873778 0.24303624 -0.045453258 0.12105064 0.27793333 0.4456656 -0.17120963 -0.10119415 -0.013267791 -0.4366027 0.13060586 -0.15052441 0.38581586 0.32826674 -0.117145374 -0.2986715 -0.054950986 0.2273243 -0.08939722 0.023738507 -0.48622638 -0.060776707 0.08195272 -0.13967966 -0.16535439 0.24029659 -0.44932684 0.18789704 -0.27342802 -0.082936555 0.46352556 0.18455034 0.06661952 -0.31573874 -0.17665021 0.44232127 0.18146303 -0.23437044 -0.028522769 0.3774455 -0.16965494 0.05958758 0.33461815 -0.14663737 -0.3842838 0.008376248 -0.20563535 -0.1607608 -0.37147027 -0.30750558 0.48140657 -0.30218318 -0.51935786 -0.042071473 0.34310293 -0.17092109 -0.103358105 -0.052968938 -0.27770942 0.23145005 -0.52418643 -0.16599226 0.05745124 0.12587081 0.17890726 0.19357334 0.26006052 -0.15200742 0.51162463 -0.051166747 0.5419823 -0.19709472 -0.08132899 0.21002017 0.12734856 -0.08838227 -0.3499837 -0.14330362 -0.16230333 -0.17771976 -0.18809532 -0.4135962 0.339611 0.1612399 0.12339101 0.13217601 0.08277458 -0.07742892 -0.29941404 0.50996333 0.011705785 -0.06517185 0.41220322 -0.37193096 -0.6742343 -0.10173067 -0.10388588 0.11220512 0.5254229 0.18541543 -0.21002422 -0.064927876 -0.15697026 0.10184712 -0.29822868 -0.037018757 -0.47110906 -0.3824617 -0.39481604 0.2043223 -0.2362151 0.14031808 -0.24261603 0.30554795 -0.556095 -0.16088574 -0.063471064 -0.00425239 0.03274915 0.23645782 0.43577754 -0.19962184
69 -0.13495149 -0.38211992 0.022606412 -0.19302829 0.3294854 0.066677004 0.028164133 0.2418872 -0.08301206 0.090330765 0.2184508 0.42957228 -0.15525553 -0.07610492 -0.03002178 -0.36723128 0.11724724 -0.15064862 0.3867032 0.35258058 -0.12795807 -0.2779403 -0.06233667 0.21707371 -0.0928746 0.026952153 -0.49172923 -0.047834992 0.07721711 -0.12539372 -0.17751561 0.24020717 -0.4030174 0.16874123 -0.26025176 -0.06113554 0.48658207 0.19228555 0.061282005 -0.3172045 -0.19251801 0.40645644 0.15575986 -0.22212385 -0.03073518 0.3629733 -0.159938 0.05797629 0.27186468 -0.16590385 -0.34895578 0.008327538 -0.1944419 -0.16725847 -0.33947992 -0.2868433 0.44988555 -0.3312048 -0.48067424 -0.064506605 0.30967122 -0.15107352 -0.065165654 -0.06251173 -0.2854537 0.22610128 -0.51894975 -0.13748893 0.055850457 0.1066828 0.16669087 0.18746327 0.26225966 -0.16978437 0.46952927 -0.03779949 0.5350186 -0.19964975 -0.057633355 0.20156568 0.12013499 -0.100857414 -0.30181944 -0.14503248 -0.16139053 -0.15453483 -0.16258043 -0.37098032 0.3277089 0.12737288 0.12405817 0.12604056 0.07571863 -0.05080106 -0.26473907 0.48826152 0.024062617 -0.043987732 0.39529258 -0.3652615 -0.6609364 -0.11409345 -0.07185985 0.095177226 0.49924734 0.21680297 -0.2176612 -0.098716676 -0.13941516 0.10355626 -0.2909463 -0.0065600737 -0.49665412 -0.36883476 -0.3713556 0.18633544 -0.24473584 0.14072715 -0.23421688 0.2885316 -0.55319244 -0.19371158 -0.04656099 -0.021011343 0.07659767 0.18926276 0.38169295 -0.21375628
98 0.19793434 -0.58634156 0.27810365 0.07221979 -0.031572554 -0.08144314 0.013588491 0.11209911 0.18484423 -0.080648564 -0.10077671 0.19032094 -0.038800083 -0.30948812 -0.08291066 -0.0012286556 -0.22834493 0.15364195 -0.09279748 0.32939896 0.275966 -0.1656852 0.09457529 -0.44936022 -0.31148827 0.30666256 -0.70945644 0.0033872859 -0.031922035 -0.002033975 0.04230748 0.31823778 0.13730066 0.3099913 -0.1327892 -0.06602315 -0.20319013 -0.07486003 -0.45883667 0.092523545 0.026988367 0.1094583 -0.23303975 -0.23276697 0.11395758 0.46626204 0.20076235 -0.25310883 -0.2816426 -0.15930878 -0.46350226 0.1098677 -0.080605224 -0.07996143 -0.620305 -0.42179698 0.14736775 0.14129956 -0.08645346 -0.3332604 0.17281869 -0.038515005 -0.010002508 -0.13924551 0.052216213 0.047733285 0.49820456 0.11024999 0.08107853 0.49522415 0.18021426 0.1081028 0.3656923 -0.1186745 -0.059146367 0.2653038 0.14187832 -0.1922457 0.14210908 -0.0084579205 0.4377143 -0.40767005 0.38917142 -0.42416018 -0.045634337 0.20337811 0.39746577 -0.25909087 -0.13320906 -0.03481852 0.87165886 0.43930137 -0.19252399 -0.124262 -0.20157163 0.15124758 -0.18296403 -0.05216077 0.36725244 -0.20964003 -0.035265498 -0.055005163 -0.1322151 -0.28516307 0.0852145 0.32733718 -0.057961684 0.41839358 0.12548904 0.19337708 -0.46982825 0.29444194 0.018116776 -0.30855334 0.21835232 -0.23782843 0.19877495 -0.096412435 0.08318788 -0.354592 0.07387073 -0.27724048 -0.021211723 -0.11239738 0.12635395 -0.02671904 -0.3411294 -0.2721731
8 0.15615688 -0.52211314 0.2266959 0.15282945 -0.15867022 0.09801752 -0.095926456 0.2757531 0.13276452 -0.19919759 -0.16944964 0.3247121 0.01705229 -0.26351857 -0.1868364 -0.10792065 -0.29301152 -0.072372876 0.13509831 0.6295464 0.11304682 -0.31013152 0.029911712 -0.13684747 -0.20339261 0.36015213 -0.8249809 -0.10812549 0.04605556 -0.10597074 0.0016162251 0.29807377 0.09304124 0.19397421 -0.21668373 -0.31536752 -0.0017016525 0.06875094 -0.38992882 0.16151685 -0.21336189 -0.060389526 -0.22094308 -0.04660463 0.16920966 0.5340308 -0.0023600475 -0.109928034 -0.35865232 -0.024900477 -0.42911682 0.14013413 -0.12394097 -0.14335294 -0.49318495 -0.34766713 0.038272187 -0.10145377 -0.050897963 -0.40624684 0.048205484 -0.019946372 0.14235717 -0.132426 -0.008792014 0.1630691 0.38753393 0.17940068 0.2524735 0.3017046 0.04157749 0.14462335 0.24761946 -0.1804186 0.09678989 0.25105324 0.2559097 0.008963845 0.30082637 -0.19533199 0.40222895 -0.19320282 0.35610408 -0.4750771 -0.09736298 -0.00033552543 0.28206056 -0.24307597 -0.07196745 0.1241325 0.80910325 0.40066773 -0.22062466 -0.020600285 -0.27108434 0.14779307 -0.24304567 -0.08874523 0.37036735 -0.26702988 -0.3048041 -0.10076848 -0.17689449 -0.33035818 0.014582653 0.36385363 -0.30090317 0.34068587 -0.007956352 0.111427665 -0.57167596 0.3213547 -0.007341312 -0.22764781 -0.086454906 -0.26658842 0.113335475 0.08183755 -0.17330728 -0.12764043 -0.20009515 -0.33287188 0.087611556 -0.12383409 0.22161306 -0.12283235 -0.20786604 -0.2551345
49 0.02265967 -0.49906674 0.2543695 0.18963021 -0.08722055 0.29957342 -0.23978391 0.2888162 0.037743606 -0.32431486 -0.18228453 0.43961808 -0.03731638 -0.18404002 -0.29826817 -0.2504562 -0.43197447 -0.25946075 0.38198596 0.6951754 0.16680968 -0.39400783 -0.02287708 0.015042456 -0.20564234 0.37519372 -0.83056927 -0.18548976 0.064386025 -0.33908063 0.02110238 0.21801488 0.01669077 0.026575424 -0.21833356 -0.4173359 0.16635916 0.12851003 -0.29661557 0.19239606 -0.34029773 -0.035516076 -0.13478093 0.086518414 0.18664148 0.47706255 -0.16640213 0.051432256 -0.3551481 -0.0012284244 -0.4385634 -0.012130829 -0.18508676 -0.16199173 -0.27716607 -0.2872258 0.038853105 -0.037697982 -0.11365242 -0.5130631 -0.17165056 -0.08534659 0.26999384 -0.09471868 -0.122250676 0.28022152 0.12570627 0.18343267 0.40156457 0.23978402 -0.041552488 0.15501069 0.1309352 -0.2900579 0.33421323 0.33583623 0.38518822 0.21364348 0.45424968 -0.19388881 0.40634915 0.019983752 0.28048962 -0.49029103 -0.13305867 -0.20329718 0.36454412 -0.23230192 0.056728765 0.22624715 0.60097426 0.31580794 -0.28278232 -0.07812772 -0.25249365 0.20019005 -0.20388372 0.023315098 0.29786775 -0.23707916 -0.40530142 -0.18809554 -0.06564543 -0.2731662 0.1347875 0.4025662 -0.48292667 0.1757318 -0.21764295 -0.011276334 -0.6135768 0.24933104 -0.046251897 -0.11287942 -0.45439476 -0.25082856 0.03779354 0.17078988 -0.34294614 0.06998121 -0.30065456 -0.29732212 0.12976427 -0.022242447 0.18244381 -0.14059871 -0.023796251 -0.32770595
18 0.026199592 -0.4969021 0.24130523 0.18154706 -0.08682385 0.2896558 -0.21766146 0.29455164 0.050897256 -0.3216495 -0.19232672 0.39724985 -0.030404244 -0.24358827 -0.30412543 -0.24570107 -0.4076057 -0.23109105 0.3244792 0.6915319 0.20576048 -0.3866568 -0.024469798 -0.0040250053 -0.2214775 0.3853081 -0.8472356 -0.19103782 0.04999054 -0.31981897 0.019800171 0.24570222 0.030390242 0.042585213 -0.21646447 -0.44352412 0.1129308 0.103801705 -0.33326223 0.20962691 -0.3605077 -0.05907087 -0.17053953 0.074659094 0.17745624 0.4965327 -0.1502728 0.026492247 -0.35839438 0.0011843711 -0.4342185 0.042929567 -0.18278158 -0.13694054 -0.33750588 -0.3321354 -0.0014871543 -0.054181974 -0.10831339 -0.48856887 -0.14322187 -0.08476196 0.2531082 -0.062991545 -0.08871175 0.24375269 0.20613891 0.18670131 0.40308267 0.24784856 -0.021832703 0.1650927 0.17762811 -0.28706792 0.31605202 0.31119984 0.33236936 0.20885724 0.43600053 -0.22788928 0.4173272 -0.011520276 0.30133346 -0.5002565 -0.13432054 -0.189275 0.3445058 -0.231809 0.024414811 0.25066105 0.6813597 0.35512418 -0.29426092 -0.05608123 -0.28861848 0.1669961 -0.24491112 -0.026094358 0.3207119 -0.22862096 -0.39169103 -0.1499344 -0.12497969 -0.27528995 0.10242573 0.39937282 -0.4200505 0.25330046 -0.19189642 0.0019830507 -0.6086995 0.25071207 0.010230368 -0.10426396 -0.4065071 -0.26149872 0.056018557 0.16949983 -0.32451147 0.041771486 -0.25689816 -0.30631927 0.114400424 -0.05474951 0.18790452 -0.121257134 -0.048470702 -0.28117853
70 0.078913964 -0.50040835 0.23192349 0.16044807 -0.09594022 0.20100673 -0.1678165 0.26666185 0.082811095 -0.24980456 -0.17749181 0.35707307 -0.008916002 -0.23685655 -0.24803317 -0.17349777 -0.35743093 -0.14866747 0.23500244 0.6400108 0.1770414 -0.34991968 0.008404272 -0.083939105 -0.23272711 0.37122518 -0.8103585 -0.14694384 0.038466707 -0.22766988 0.02343944 0.25908235 0.055070963 0.10944581 -0.20401806 -0.35464263 0.05306357 0.07693806 -0.34839642 0.1904145 -0.2625272 -0.042753298 -0.18818465 0.0043798843 0.17205861 0.49485734 -0.08696586 -0.025330573 -0.34919026 -0.022522628 -0.42317942 0.06843085 -0.15378667 -0.13719805 -0.39770046 -0.32553932 0.031977866 -0.04731732 -0.092769 -0.4432447 -0.05413467 -0.0526184 0.19382922 -0.095416225 -0.053354852 0.20651372 0.2709589 0.16488187 0.32813367 0.28658354 0.01107759 0.1479527 0.20670642 -0.24117261 0.21560463 0.2964669 0.29268497 0.12095074 0.36249736 -0.18477307 0.40489924 -0.089755 0.31558833 -0.46861807 -0.11042635 -0.10203925 0.322482 -0.23371345 -0.0040396107 0.19117865 0.7196145 0.3699888 -0.2658292 -0.053680576 -0.2553549 0.154614 -0.227508 -0.041175004 0.33056077 -0.24550527 -0.3299751 -0.126662 -0.12674592 -0.28681627 0.072258614 0.36960712 -0.3515686 0.28371313 -0.11358661 0.053197 -0.588168 0.26195988 0.0010917527 -0.15296821 -0.24948443 -0.25743076 0.08628212 0.11202767 -0.24578635 -0.030418932 -0.21051402 -0.30516988 0.09753482 -0.07055356 0.19280614 -0.117655054 -0.11340779 -0.28210342
41 -0.15314642 -0.43477574 0.053893857 -0.167537 0.36167112 0.09518522 -0.033090025 0.23290895 -0.06823946 0.09370205 0.23314878 0.51503927 -0.16871226 -0.042728078 -0.048166417 -0.39211953 0.031337313 -0.15287815 0.44183332 0.42527926 -0.12055584 -0.34684235 -0.059572984 0.15517208 -0.15662532 0.09799747 -0.57197046 -0.04585486 0.09645249 -0.16412288 -0.123122446 0.25485352 -0.39392835 0.22212161 -0.28189823 -0.032530032 0.46958414 0.1906147 0.037748225 -0.2655401 -0.11718877 0.4738252 0.13179803 -0.29765707 0.02730363 0.41708803 -0.1935464 0.06449844 0.24188426 -0.16782089 -0.42229682 -0.07668417 -0.21502979 -0.22179577 -0.3577173 -0.28546825 0.52013487 -0.2680212 -0.5070546 -0.17013386 0.30766463 -0.17553735 -0.051770136 -0.12580049 -0.27518228 0.27628297 -0.51916754 -0.17334296 0.09056677 0.22311138 0.15803342 0.18291071 0.25090647 -0.17836317 0.5056542 0.059875302 0.6000718 -0.1826833 -0.024421405 0.2589308 0.17031336 -0.10944775 -0.28090662 -0.19889364 -0.14506269 -0.13698956 -0.073477596 -0.42696154 0.36238593 0.12194296 0.16404212 0.15096612 0.03745757 -0.13260934 -0.24867356 0.5095913 0.012196092 0.012310759 0.40743116 -0.43194968 -0.6467623 -0.15709825 -0.012382233 0.04842325 0.53928745 0.24648803 -0.32127592 -0.14129801 -0.17649317 0.12949376 -0.4144976 -0.007091692 -0.53739125 -0.42468143 -0.4039521 0.14421138 -0.20587659 0.085898146 -0.21471909 0.252984 -0.5882568 -0.22625458 -0.05224529 0.029712835 0.10456066 0.1621199 0.35866103 -0.35309765
31 -0.14821716 -0.48117685 -0.01994945 -0.21053039 0.29125547 -0.036216043 0.12169314 0.2877329 0.14527673 0.16309741 0.30124292 0.4521695 -0.030089527 -0.1902744 0.04277397 -0.53786284 0.16394041 -0.07904932 0.2640878 0.13627163 -0.12972564 -0.19326046 0.08360026 0.28596175 -0.0038299803 -0.039771624 -0.41343474 -0.032787837 0.06752265 0.02867454 -0.22336459 0.19454806 -0.48442605 0.22390103 -0.20982651 -0.10064639 0.3930547 0.15296446 0.0019698183 -0.40387774 -0.23359121 0.29289836 0.24609746 -0.09437493 -0.07931237 0.3737494 -0.048121054 -0.09655871 0.40141395 -0.121805854 -0.45792508 0.08760814 -0.20136261 -0.032538578 -0.47995403 -0.2769305 0.47365862 -0.23887613 -0.4840316 0.09127257 0.47030658 -0.23014022 -0.26930296 -0.026242442 -0.25602838 0.18368849 -0.42156944 -0.09548812 -0.14878953 0.072242245 0.16283365 0.12762341 0.2530296 -0.14700279 0.4638158 -0.1479529 0.57182556 -0.29520908 -0.16778834 0.12472099 0.039334513 -0.13044776 -0.34189534 -0.118060894 -0.20453578 -0.21396118 -0.23331046 -0.40400398 0.23533209 0.12236171 0.0867562 0.13960116 0.2541088 -0.010113567 -0.43575487 0.60892874 -0.005834206 -0.1804448 0.50631714 -0.16768107 -0.7575598 -0.058031015 -0.100124754 0.1119271 0.4078631 0.1904068 -0.0939072 0.1609426 -0.14741099 0.1007053 -0.14268747 -0.13890734 -0.3745881 -0.43195924 -0.33382493 0.21120572 -0.13603982 0.28544375 -0.3405673 0.37980902 -0.4790247 -0.10825088 -0.08531841 -0.16043927 -0.15829848 0.29552674 0.38724792 -0.015283376
120 0.12636279 -0.5366811 0.22265671 0.133756 -0.1262558 0.108598694 -0.10927937 0.24635345 0.10737738 -0.18588701 -0.18376142 0.3414436 0.015603275 -0.21870382 -0.19638842 -0.11153287 -0.3131876 -0.067968026 0.17812642 0.6082302 0.13448286 -0.2872085 0.011150773 -0.13649052 -0.2281595 0.33725742 -0.7831639 -0.08427262 0.04056679 -0.15566882 0.015326414 0.25791284 0.081187025 0.15481322 -0.19874488 -0.27715766 0.02081291 0.07382091 -0.36445388 0.13285966 -0.19680722 -0.00025787234 -0.20475665 -0.045318726 0.17434588 0.50171167 -0.031561334 -0.06382065 -0.33676258 -0.051241323 -0.41645902 0.096312754 -0.14555383 -0.15950319 -0.42294016 -0.30073756 0.07392951 -0.044006504 -0.09811954 -0.42412123 0.03520987 -0.056646995 0.15496297 -0.16013768 -0.013892566 0.17386946 0.29911986 0.14217587 0.2540121 0.3254846 0.030697796 0.13586201 0.21436623 -0.2091176 0.12780103 0.27997568 0.26864982 0.014951007 0.2825386 -0.14543507 0.37628278 -0.15212834 0.323085 -0.4389527 -0.10460123 -0.01923541 0.3111245 -0.24026819 -0.02844482 0.108819656 0.70778537 0.35514182 -0.22302823 -0.047476247 -0.24625874 0.17863455 -0.19805172 -0.0313957 0.35095364 -0.25809896 -0.3018574 -0.13093527 -0.11892985 -0.28189147 0.06421692 0.34702533 -0.316531 0.28247365 -0.073502585 0.10709401 -0.55694854 0.25380805 -0.050172128 -0.21205989 -0.12619331 -0.25775573 0.10376282 0.07140631 -0.17433797 -0.08996537 -0.20163007 -0.3309377 0.08546829 -0.099222526 0.20643121 -0.113194935 -0.194959 -0.3138812
30 -0.13999355 -0.4701918 -0.017906416 -0.23978569 0.2848373 -0.010495743 0.13528965 0.28758356 0.069106564 0.13290633 0.24088794 0.4016358 -0.06330839 -0.17918065 0.01162234 -0.4946677 0.20337443 -0.11536473 0.28524506 0.1560123 -0.110674046 -0.16327211 0.029868951 0.31505072 0.015941132 -0.08037989 -0.3898723 -0.02982278 0.05618321 -0.024939412 -0.26287842 0.17763276 -0.46956226 0.13297243 -0.21638872 -0.11602504 0.46724227 0.18326122 0.032141965 -0.45042968 -0.3146538 0.3006185 0.23858145 -0.045132205 -0.1034227 0.33510754 -0.07247336 -0.03905887 0.37949955 -0.15405543 -0.38887227 0.11831867 -0.19432843 -0.044489246 -0.40103087 -0.28466558 0.42214522 -0.28222966 -0.4882723 0.10152458 0.41149798 -0.23072106 -0.20491257 0.008106421 -0.27795738 0.17479743 -0.4928557 -0.083260864 -0.10411638 0.0065795537 0.1657346 0.14659888 0.27627456 -0.18243293 0.4592124 -0.18635613 0.53290987 -0.27587688 -0.17079312 0.118156426 0.023337169 -0.1178308 -0.3626026 -0.098471686 -0.22958763 -0.23702586 -0.24761409 -0.3657982 0.24961273 0.14280015 0.044750575 0.10345649 0.23091273 0.037717644 -0.40310588 0.59673625 0.032443598 -0.15432061 0.47813222 -0.15907264 -0.76027465 -0.07842391 -0.10372964 0.16057758 0.4408701 0.19157188 -0.06102217 0.108339936 -0.18400942 0.078772806 -0.0923765 -0.13137253 -0.4079401 -0.3722361 -0.36389855 0.23984388 -0.2084535 0.31546706 -0.35139433 0.41438362 -0.48981988 -0.120548606 -0.06989926 -0.15414491 -0.1304406 0.29400942 0.4095167 0.002182886
24 -0.18459754 -0.49999285 -0.039265245 -0.1957965 0.2363709 -0.009901018 0.1718969 0.32374677 0.2388596 0.0768038 0.25016132 0.36023152 0.011712758 -0.32230535 -0.0023386679 -0.6261962 0.17305419 -0.11009346 0.18707323 -0.018859297 0.0023911055 -0.08382405 0.08991097 0.37373275 0.07676664 -0.09584786 -0.3517164 -0.08009313 0.030604936 0.002818888 -0.26912808 0.12545279 -0.4901312 0.08557623 -0.15332244 -0.27767786 0.33738446 0.12943192 -0.06437158 -0.41906 -0.43378732 0.12513931 0.26351568 0.14039347 -0.14377032 0.3149637 -0.0068315286 -0.13538845 0.406864 -0.08344788 -0.43468222 0.20753546 -0.2128864 0.10844295 -0.45054558 -0.30362147 0.31730944 -0.15344258 -0.4314878 0.17696941 0.39215237 -0.28459233 -0.30619887 0.10534398 -0.23595405 0.12704168 -0.3305051 0.010296805 -0.17276968 -0.05020492 0.13180692 0.11229625 0.25737682 -0.20001425 0.46332228 -0.26464844 0.46436432 -0.23174168 -0.16546963 -0.042904228 0.015143886 -0.08056048 -0.32545888 -0.10010261 -0.2609714 -0.33963853 -0.23700128 -0.34180042 0.12595493 0.20085935 0.047434524 0.12602411 0.27991492 0.08134371 -0.55508983 0.59649915 -0.045607444 -0.29702243 0.51110446 0.061649162 -0.7786452 -0.013853397 -0.17068066 0.16982907 0.32128116 0.17543918 0.056961607 0.37258387 -0.2258184 0.02616871 0.048371714 -0.21526131 -0.15724075 -0.28502208 -0.4163198 0.20671898 -0.1083821 0.4556786 -0.45507255 0.4689496 -0.32873458 -0.020817157 -0.08400546 -0.2447502 -0.3255546 0.3646448 0.41185158 0.22199689
23 -0.022966208 -0.42471787 0.19103755 0.15510185 -0.014630767 0.28624573 -0.21086438 0.26897433 0.029181948 -0.26039332 -0.12182298 0.39576825 -0.036701392 -0.18708444 -0.26948535 -0.2560166 -0.3606626 -0.22231796 0.3485484 0.63051665 0.15152362 -0.39324987 -0.017211776 0.035490658 -0.21305425 0.34258166 -0.75313526 -0.1813821 0.038096555 -0.30198982 0.017266478 0.21987462 -0.035026986 0.04942673 -0.2136703 -0.38700384 0.14723971 0.10031071 -0.2545359 0.17096892 -0.28584984 -0.009505248 -0.101094104 0.04043218 0.16966398 0.44865552 -0.174153 0.06649116 -0.2619297 0.0024021356 -0.40234938 -0.0048192665 -0.18274891 -0.1531273 -0.2894839 -0.29052836 0.049770776 -0.055249177 -0.14022791 -0.43623272 -0.109862156 -0.08512937 0.21639228 -0.060030874 -0.098128654 0.2496122 0.090990044 0.12783289 0.36815122 0.22713444 -0.0137271825 0.15485317 0.14320725 -0.25183523 0.34235623 0.28523627 0.34807625 0.20276867 0.38190275 -0.1432798 0.37076622 0.021380393 0.21264952 -0.43049327 -0.12188221 -0.19328338 0.27317476 -0.22899297 0.08120988 0.24313517 0.5542146 0.29991364 -0.2545183 -0.08320265 -0.25139832 0.18270504 -0.20677905 -0.011196125 0.28422272 -0.2450603 -0.3969997 -0.13927354 -0.08466329 -0.23662947 0.14379121 0.3398038 -0.4095459 0.17649552 -0.20049709 -0.0036394263 -0.5647713 0.18763195 -0.03158258 -0.11084565 -0.4212284 -0.21441944 0.014747029 0.13934578 -0.31171268 0.09201328 -0.28052294 -0.2498282 0.088421084 -0.008658161 0.17234282 -0.09114188 0.039650034 -0.27443978
46 0.0403176 -0.49958333 0.2867357 0.17873713 -0.094201416 0.28268242 -0.23135221 0.24261782 0.030821908 -0.3146614 -0.1886879 0.40779617 -0.03113871 -0.17635144 -0.29638845 -0.20392978 -0.42464107 -0.20528837 0.33150774 0.6463103 0.18867709 -0.36464712 0.010403267 -0.06335856 -0.2356137 0.37347516 -0.78828055 -0.16447876 0.044158354 -0.31185392 0.023307972 0.21656458 0.060436547 0.04836949 -0.1730045 -0.3457191 0.13578983 0.08611705 -0.29610467 0.20294286 -0.30239892 -0.042706963 -0.1481002 0.075247146 0.1768837 0.43087792 -0.1283409 0.035028018 -0.3755267 -0.048824757 -0.4183063 -0.038669556 -0.15841486 -0.1396351 -0.2887938 -0.27417818 0.032482095 0.005577066 -0.11112378 -0.50978214 -0.15943643 -0.081731156 0.25910947 -0.08347573 -0.11211093 0.24283741 0.17300646 0.16674304 0.35639226 0.26477405 -0.02214883 0.1395398 0.14414634 -0.27478036 0.30256182 0.3734586 0.32733926 0.17437439 0.4222393 -0.18047191 0.40070862 -0.03215311 0.30726823 -0.4724418 -0.12988085 -0.16236998 0.39967164 -0.19077626 0.05408381 0.19634308 0.6346951 0.34199935 -0.273161 -0.0753177 -0.20531794 0.16051614 -0.18441334 0.054484658 0.27187935 -0.2057998 -0.32463294 -0.18618569 -0.028475856 -0.26362607 0.10465721 0.40966037 -0.42734608 0.18463728 -0.18641214 0.0017965068 -0.60006565 0.25544664 -0.030744009 -0.1068065 -0.38554755 -0.24627613 0.08264284 0.1370855 -0.2990179 0.022917014 -0.23879741 -0.32576382 0.12231984 -0.035747148 0.19153014 -0.15911512 -0.09681101 -0.32834464
15 -0.18356681 -0.4513723 -0.016373022 -0.24802215 0.288075 0.0025440056 0.15531585 0.30544466 0.055802237 0.06708703 0.24220474 0.3469049 -0.12326261 -0.23947857 0.014377436 -0.53866196 0.22513373 -0.16301566 0.2746719 0.09642695 -0.05815176 -0.12494723 -0.021087077 0.36418274 0.058811877 -0.12313713 -0.39582998 -0.053441133 0.074876264 -0.066154525 -0.2584962 0.17914636 -0.48392385 0.07298825 -0.22666545 -0.19041426 0.45038125 0.18894857 0.014651109 -0.44841596 -0.4083665 0.2868514 0.23379634 -0.011230495 -0.14095032 0.31998292 -0.051121254 -0.0478221 0.3897219 -0.12242629 -0.37746137 0.16733016 -0.20583172 0.01098443 -0.39606264 -0.35356826 0.36819682 -0.2867511 -0.4673887 0.14623986 0.34945753 -0.21833333 -0.19602562 0.059008498 -0.30883306 0.16186917 -0.47417217 -0.027668472 -0.06644601 -0.036990277 0.1650117 0.17187577 0.2661843 -0.17889953 0.471319 -0.23866525 0.5154602 -0.24901922 -0.14299378 0.036497124 0.054118253 -0.088045456 -0.37196055 -0.11480699 -0.2107793 -0.28181612 -0.25295916 -0.38295352 0.20714876 0.1651774 0.04697683 0.10243895 0.21530063 0.056070387 -0.46304005 0.6007885 0.032543313 -0.19306307 0.4724216 -0.10254162 -0.7660599 -0.062034655 -0.19896248 0.1955689 0.46489915 0.18011914 -0.04435783 0.13210343 -0.15663512 0.044122662 -0.035136137 -0.08855925 -0.35807276 -0.33510786 -0.4275163 0.2705359 -0.22692823 0.37003374 -0.36151975 0.41174826 -0.44291124 -0.08485922 -0.051454976 -0.1665587 -0.20377459 0.34091815 0.44985473 0.07708034
60 0.17357925 -0.5379378 0.2161549 0.08886735 -0.09141335 0.0022220558 -0.0337512 0.20227596 0.17600338 -0.08979495 -0.13389459 0.2642822 0.023030506 -0.2728577 -0.12655532 -0.049252916 -0.24450393 0.05473682 0.009120586 0.47101346 0.16603968 -0.2353406 0.06519007 -0.2681179 -0.25803924 0.32698527 -0.7315677 -0.04298523 0.011375966 -0.036865946 0.01432592 0.2960567 0.10704647 0.2612017 -0.17186572 -0.18999946 -0.11537594 0.00027800264 -0.4077633 0.11171058 -0.079459295 0.024550956 -0.21689256 -0.14754015 0.14612819 0.5025358 0.07495105 -0.17212164 -0.28058127 -0.07702203 -0.42688894 0.14397521 -0.108579256 -0.124462545 -0.5527361 -0.3591836 0.10797844 -0.004581804 -0.08993922 -0.34160718 0.16917014 -0.045791518 0.039186146 -0.1544716 0.048205677 0.10616274 0.43445736 0.11927403 0.13664149 0.3968931 0.10417267 0.115549475 0.31399888 -0.15281814 0.02282313 0.22626868 0.18392724 -0.10033862 0.16980118 -0.0937345 0.38583815 -0.2888652 0.3429923 -0.42639297 -0.080286056 0.09771277 0.28399625 -0.26509124 -0.0931564 0.058131296 0.8134897 0.40435272 -0.19841518 -0.062859856 -0.24820974 0.14765921 -0.21388759 -0.099076234 0.38586062 -0.23563592 -0.19196284 -0.07389498 -0.15175931 -0.28565946 0.03204169 0.31548426 -0.15837112 0.40276212 0.034864374 0.17129521 -0.50187296 0.25043762 0.0026544475 -0.27124462 0.08707315 -0.25015545 0.16298579 0.00092680915 -0.06365982 -0.21684647 -0.085330054 -0.29017806 0.018111385 -0.12538725 0.17817399 -0.05545036 -0.26665926 -0.24841781
29 -0.19614735 -0.45761865 0.034375176 -0.15858327 0.38980225 0.087768905 -0.035130903 0.23254594 -0.05667549 0.0958497 0.24851632 0.53761077 -0.19796164 -0.03724801 -0.02617946 -0.44148037 0.0029105477 -0.1625612 0.46515185 0.3912125 -0.08585445 -0.3252501 -0.07159294 0.17163864 -0.14969541 0.06815598 -0.5745737 -0.040777843 0.101530425 -0.19117066 -0.08638568 0.23713985 -0.42233902 0.19899024 -0.28986838 -0.061921857 0.45869556 0.2019009 0.030350195 -0.26673153 -0.09978318 0.5223342 0.15328027 -0.3041475 0.03154488 0.43649507 -0.1861198 0.07345197 0.27500337 -0.14711711 -0.4472627 -0.09538207 -0.23989214 -0.21321948 -0.3409615 -0.27075085 0.5462873 -0.20255303 -0.51932085 -0.17028292 0.29371333 -0.20687903 -0.064030804 -0.15141942 -0.27134004 0.29212254 -0.5533893 -0.1813016 0.121361874 0.25631854 0.13636197 0.19320175 0.19067587 -0.16858742 0.5435244 0.07569447 0.63347805 -0.16755147 -0.014846275 0.2775341 0.19047531 -0.055910174 -0.29990736 -0.203782 -0.118286595 -0.14665802 -0.03225792 -0.47582364 0.35301995 0.11735098 0.10617703 0.111007154 0.0370729 -0.17744412 -0.27023506 0.5714095 0.03294471 0.032028954 0.40761924 -0.44135636 -0.6565428 -0.16680445 -0.043254223 0.07764885 0.595237 0.20939882 -0.36292392 -0.16395484 -0.2036544 0.113256186 -0.4069869 -0.025132814 -0.5395008 -0.4367052 -0.45420516 0.14268008 -0.21596985 0.0688606 -0.21825579 0.25618517 -0.5738113 -0.18264018 -0.037900746 0.055111814 0.048860516 0.20074849 0.3910268 -0.37661064
66 -0.19218938 -0.42836708 -0.018411929 -0.18426055 0.28235662 0.012809634 0.07245265 0.2858711 0.07862245 0.09665951 0.27136472 0.426122 -0.10791295 -0.1649723 0.024851648 -0.52782476 0.13491926 -0.13129364 0.31449306 0.17956984 -0.096578196 -0.19200762 0.02217562 0.29792783 0.007870817 -0.049564067 -0.42031845 -0.06152174 0.084950455 -0.057236366 -0.17327853 0.1814187 -0.4588185 0.1604846 -0.22905612 -0.15178199 0.39756233 0.17341328 0.0026372643 -0.3292193 -0.26293164 0.30728358 0.22404014 -0.091344506 -0.06345982 0.3563559 -0.07917359 -0.031026205 0.36056843 -0.08419488 -0.41306534 0.0639166 -0.1925568 -0.039905407 -0.39950082 -0.28098556 0.41465786 -0.22414455 -0.4592286 0.061160363 0.35578248 -0.20389067 -0.1764318 -0.025141118 -0.2561202 0.18981688 -0.42439008 -0.085947864 -0.03850801 0.05889808 0.1408009 0.15502606 0.18173116 -0.12499529 0.49300912 -0.11119681 0.5392708 -0.22412632 -0.1074706 0.08334883 0.08170415 -0.05837426 -0.33681127 -0.1350763 -0.16357937 -0.2455092 -0.20188755 -0.4007923 0.23653784 0.16191606 0.08751292 0.11676175 0.17916828 -0.021568375 -0.40688398 0.5696842 0.0064378856 -0.1256117 0.44803408 -0.1977852 -0.70212895 -0.073454194 -0.15773427 0.13021733 0.4359919 0.17331436 -0.18005964 0.07487026 -0.15721597 0.06453258 -0.16682018 -0.074247144 -0.35269433 -0.38422537 -0.40162045 0.20958747 -0.14841418 0.2642108 -0.3280698 0.35078368 -0.46944657 -0.094656415 -0.03787733 -0.10388531 -0.1416501 0.27626848 0.40855214 -0.047495134
75 -0.044570938 -0.4623274 0.21483113 0.15253828 -0.018825527 0.32122183 -0.23928529 0.28714624 0.03265978 -0.2866767 -0.10803231 0.44855154 -0.039300095 -0.17772458 -0.28421706 -0.32259881 -0.38629243 -0.26357704 0.4096136 0.66273075 0.15021381 -0.4247183 0.014924881 0.06298074 -0.20828441 0.34717745 -0.777793 -0.19657001 0.052771304 -0.33198684 0.0044713174 0.21832055 -0.053673208 0.042097606 -0.21064168 -0.40679356 0.20631254 0.11963205 -0.24591465 0.17418927 -0.3303243 -0.022051835 -0.069196016 0.08477104 0.17594022 0.45234066 -0.18864933 0.090927824 -0.24807142 0.0002772396 -0.44299543 -0.044174053 -0.18742621 -0.14335428 -0.2827073 -0.27906048 0.06669757 -0.05347606 -0.16641945 -0.447708 -0.1304214 -0.099016264 0.24012913 -0.05770272 -0.13709494 0.2819559 0.05347279 0.12538265 0.37329325 0.21337727 -0.01824236 0.1589133 0.11168551 -0.27162498 0.42192218 0.31998998 0.39477423 0.21647036 0.40189964 -0.17047346 0.36652744 0.057636265 0.19771016 -0.44963068 -0.14247929 -0.25575587 0.28906465 -0.23930039 0.11960181 0.26965052 0.5521579 0.30983925 -0.24036366 -0.0878168 -0.27085048 0.22068517 -0.19578877 0.022857629 0.3035226 -0.23730567 -0.44875732 -0.16780515 -0.07084407 -0.22145164 0.15875971 0.37959495 -0.45774755 0.16291526 -0.2518551 -0.03532709 -0.5913469 0.19281036 -0.05020792 -0.1182291 -0.50130564 -0.20054749 0.025978448 0.18452236 -0.38193417 0.14982714 -0.329431 -0.27692163 0.11426875 -0.021948187 0.15603587 -0.0936326 0.067710906 -0.28684083
33 0.16642626 -0.59089303 0.2755244 0.029202214 0.0646976 -0.07352191 0.024354909 0.072011895 0.1256811 -0.06510803 -0.11101501 0.15782255 -0.09823543 -0.3247816 -0.1127293 0.021027492 -0.21796007 0.17295669 -0.10076146 0.28247654 0.37563938 -0.117854886 -0.0027373529 -0.5064649 -0.37376168 0.2915423 -0.69821405 0.023151692 -0.043709483 -0.07138031 0.05324125 0.3161694 0.13166475 0.28144455 -0.13243438 -0.04004837 -0.22824115 -0.08572496 -0.46581692 0.050762944 0.025587944 0.22079346 -0.26950943 -0.30484116 0.0893945 0.45215005 0.17149377 -0.25648886 -0.26933494 -0.19450949 -0.44043544 0.1324374 -0.11163663 -0.095489874 -0.5901671 -0.46502033 0.16441886 0.19351943 -0.14384976 -0.3563245 0.16332847 -0.09754268 -0.02047246 -0.13761665 0.06116684 0.028412748 0.43935814 0.063631795 0.10062179 0.5358429 0.21475908 0.11086834 0.44108677 -0.17407005 -0.05583313 0.24395616 0.10865257 -0.19966544 0.11417328 0.05130535 0.46085224 -0.44832686 0.34600294 -0.40229017 -0.053738154 0.24006592 0.42995498 -0.2881973 -0.11051451 -0.04830277 0.8186645 0.42646393 -0.25045764 -0.14838953 -0.18608415 0.13447472 -0.17872639 -0.06643604 0.3611829 -0.21055743 0.01213328 -0.0629579 -0.1275956 -0.22237433 0.16626295 0.3082103 0.014173773 0.40110108 0.09072838 0.22557934 -0.45484936 0.23224853 0.015580339 -0.27912474 0.22025847 -0.2139352 0.17449695 -0.12246458 0.13507962 -0.3809828 0.124773115 -0.2549906 -0.06807261 -0.06880796 0.12779613 0.026008978 -0.331512 -0.311701
39 -0.035907052 -0.45291215 0.2104897 0.15433003 -0.036448482 0.28728858 -0.21985061 0.27192417 0.046562545 -0.2718292 -0.12491172 0.42253053 -0.02614207 -0.1688956 -0.26075438 -0.2933786 -0.38391477 -0.23299721 0.3625611 0.60884434 0.14783989 -0.37494478 0.022456584 0.04361338 -0.19974917 0.33512437 -0.73799056 -0.1681013 0.051470656 -0.29858235 0.019727431 0.19043571 -0.03339594 0.03886717 -0.19301905 -0.37950972 0.16398528 0.11208281 -0.25343028 0.1675329 -0.29836333 -0.021231381 -0.0823862 0.075157605 0.17033115 0.4408687 -0.15729894 0.06108315 -0.2563763 0.004828496 -0.42744225 -0.03867095 -0.17607263 -0.13275509 -0.27620843 -0.25438672 0.060134478 -0.023217503 -0.13767365 -0.43249997 -0.12461943 -0.091193944 0.21160774 -0.07417508 -0.11898607 0.26121268 0.08189548 0.13862365 0.34484434 0.22271325 -0.028007321 0.14307499 0.095409535 -0.25202248 0.36565387 0.3141745 0.3777535 0.1916378 0.38622248 -0.16364902 0.35537437 0.039564546 0.21089841 -0.43255153 -0.124460205 -0.21918032 0.30317912 -0.2305664 0.087089546 0.23665804 0.5255917 0.2889818 -0.22022386 -0.08719987 -0.2539512 0.21884775 -0.18100397 0.020095415 0.28475827 -0.2121017 -0.4090299 -0.15913588 -0.06201925 -0.22451125 0.14874977 0.3531362 -0.44324017 0.16835047 -0.22813746 -0.02743729 -0.56098956 0.18732789 -0.0424943 -0.12051993 -0.45635033 -0.20149834 0.043408576 0.16609274 -0.3478206 0.10854106 -0.2863474 -0.25504506 0.11310325 -0.02206995 0.13525812 -0.09625965 0.028119983 -0.2845307
55 0.16744141 -0.5800081 0.25922954 0.06674286 -0.01694196 -0.049277466 0.001622622 0.12890624 0.1715936 -0.08574273 -0.10709024 0.20801325 -0.06362122 -0.32532296 -0.12232555 -0.03320995 -0.23708253 0.13127482 -0.06148621 0.36716336 0.29957226 -0.18117832 0.046468597 -0.42730752 -0.31945673 0.31576377 -0.7455956 -0.020367179 -0.021465817 -0.039585285 0.051442225 0.32328022 0.12460844 0.29361728 -0.15190835 -0.11143341 -0.21368076 -0.055979963 -0.47060806 0.09116496 -0.010886103 0.13014714 -0.24631512 -0.24274279 0.12270131 0.4987301 0.15702377 -0.23945013 -0.27224413 -0.13321528 -0.46543616 0.13617024 -0.105703555 -0.09176766 -0.6188319 -0.44546276 0.14270216 0.12066934 -0.11320777 -0.35223788 0.1684557 -0.060113452 0.0035819858 -0.14332828 0.065111406 0.061187122 0.48628563 0.093791865 0.11969732 0.48598152 0.17099176 0.12374628 0.38168746 -0.1404462 -0.014337141 0.2515213 0.15049314 -0.1680242 0.14768782 -0.026697766 0.44703034 -0.39100164 0.36589196 -0.43749452 -0.058384493 0.17722781 0.3766425 -0.29292688 -0.1265287 7.61915e-05 0.87393194 0.4445537 -0.22466843 -0.123498514 -0.2362268 0.14017108 -0.22016287 -0.07827761 0.3827431 -0.22901267 -0.061000377 -0.047310077 -0.16722657 -0.28286377 0.09866495 0.3277952 -0.07486339 0.43266362 0.092399135 0.20046373 -0.4993095 0.27198672 0.035835765 -0.29441845 0.17280391 -0.24201304 0.19789831 -0.076208435 0.06006212 -0.33034456 0.04648025 -0.2727368 -0.031169472 -0.107278086 0.13449351 -0.0040038885 -0.31090534 -0.27684447
61 -0.19929722 -0.36369205 0.022490956 -0.11729225 0.33716202 0.124468654 -0.054186743 0.21046391 -0.060351092 0.048986766 0.2001846 0.44476402 -0.1791138 -0.05427072 -0.06469766 -0.394117 -0.0052547664 -0.16493328 0.4110935 0.3702291 -0.045165773 -0.3090611 -0.070949815 0.16385913 -0.13074186 0.07662441 -0.50238746 -0.069926046 0.07680195 -0.21733077 -0.07615489 0.20442341 -0.36593333 0.13992776 -0.2528451 -0.11690467 0.3858348 0.16414747 0.023834422 -0.188178 -0.12888099 0.41002235 0.12715603 -0.21731257 0.031197341 0.369358 -0.19902919 0.10338141 0.22795267 -0.10424992 -0.36898187 -0.06645678 -0.20097905 -0.17744462 -0.27746105 -0.250117 0.41196626 -0.1842421 -0.4499066 -0.16018364 0.20115285 -0.16902055 -0.017551407 -0.09064729 -0.21745901 0.25246856 -0.4521663 -0.15290794 0.15449348 0.18436436 0.11157173 0.17608123 0.16937745 -0.15689498 0.49835068 0.06943549 0.49920747 -0.08515718 0.015917033 0.19144113 0.18256967 -0.013805571 -0.25885618 -0.18561016 -0.11929102 -0.17610835 -0.04167283 -0.39057642 0.30930474 0.16880888 0.12022383 0.11446247 -0.0044682133 -0.14143288 -0.24650238 0.44247302 -0.0021453542 0.009490386 0.330396 -0.36955315 -0.55912375 -0.1318593 -0.06615943 0.06436081 0.4910792 0.17525364 -0.30403572 -0.109087504 -0.21012935 0.069674715 -0.36290976 -0.019274782 -0.39206094 -0.31354997 -0.4306761 0.11745553 -0.18727322 0.08330068 -0.22675978 0.2481492 -0.48174632 -0.14824878 -0.026787633 0.059703764 0.05693747 0.16601028 0.36316368 -0.2895629
45 -0.10297524 -0.42143163 0.00096559065 -0.15953551 0.18437982 0.025238482 0.08391294 0.30579805 0.121582136 0.07067539 0.18865283 0.39251432 0.021035032 -0.1731005 -0.0087948805 -0.46078217 0.11992145 -0.12921828 0.26019073 0.19419144 -0.12332863 -0.19118136 0.08273079 0.32370347 0.023687087 -0.0083196955 -0.3910912 -0.06401765 0.05737483 -0.006730656 -0.23068987 0.1527349 -0.39485028 0.12061105 -0.1817553 -0.17554405 0.40379804 0.16036145 0.0012916074 -0.32841 -0.32050097 0.1393235 0.21326116 0.038018335 -0.06262897 0.31385806 -0.06710154 -0.03727317 0.28004038 -0.09335033 -0.3714419 0.10231096 -0.17077522 -0.020285541 -0.37644562 -0.23542081 0.32701835 -0.26588222 -0.3748109 0.064268395 0.33496073 -0.18787113 -0.16310377 0.0187268 -0.25058284 0.18395528 -0.35441265 -0.014460365 -0.080784775 -0.00913461 0.10674862 0.12574047 0.21081667 -0.17551848 0.41942003 -0.1303713 0.494804 -0.18466343 -0.07995546 0.024949158 0.032273043 -0.07148824 -0.25199836 -0.12329086 -0.2184002 -0.25300226 -0.19979744 -0.2987877 0.19817238 0.16491991 0.100993164 0.12845235 0.20061843 0.05093842 -0.3883419 0.5131501 -0.008424795 -0.16710444 0.44112173 -0.104190916 -0.72341263 -0.067089036 -0.08339106 0.093184285 0.3026934 0.20215634 -0.100834586 0.16205345 -0.16494414 0.048444185 -0.120260544 -0.08602648 -0.29536408 -0.3081883 -0.36442137 0.15795325 -0.14429787 0.32876033 -0.38466054 0.38898182 -0.44055158 -0.121061966 -0.03498575 -0.16809426 -0.110861406 0.21308577 0.34099105 0.03966934
27 -0.15667216 -0.46025947 -0.0451593 -0.23928773 0.24115317 0.011426168 0.16579816 0.33475834 0.116896935 0.06554759 0.20318417 0.34087157 -0.03094849 -0.26008537 -0.021645827 -0.55396634 0.2199375 -0.1598783 0.24618813 0.060680285 -0.049385194 -0.08835967 -0.0073687453 0.41962314 0.08499502 -0.12260453 -0.35631552 -0.05866739 0.05663036 -0.046798196 -0.2901734 0.12805827 -0.47982356 0.032998204 -0.18897022 -0.25468314 0.43050256 0.18437062 -0.0042319098 -0.46570933 -0.47858435 0.17424273 0.2340553 0.104620695 -0.14837895 0.29997686 -0.0571025 -0.07731714 0.36968514 -0.101149924 -0.3599972 0.22385119 -0.21205325 0.045398206 -0.37047222 -0.30972716 0.3088161 -0.26746657 -0.43846706 0.16033104 0.34995112 -0.26052663 -0.23486167 0.08615257 -0.2803525 0.14710456 -0.44526228 0.0022837783 -0.115358725 -0.09655947 0.1266318 0.13808171 0.28293633 -0.22989304 0.44927046 -0.2959666 0.48108825 -0.22449793 -0.1505289 -0.014716525 -0.0021197682 -0.08475407 -0.35676134 -0.084109 -0.2638798 -0.3197989 -0.2648619 -0.33368042 0.16723064 0.187333 -0.0098727355 0.0810862 0.24538119 0.11845777 -0.50122577 0.57820874 -0.0054629026 -0.2661121 0.48589313 -0.009084168 -0.8141139 -0.05132018 -0.1566771 0.18849482 0.37540698 0.18472147 0.0212897 0.23230256 -0.2231527 0.04169833 0.03551267 -0.17758255 -0.2700118 -0.27346668 -0.4319182 0.23313871 -0.20235817 0.45149767 -0.43675736 0.47482747 -0.41934508 -0.054343354 -0.07112801 -0.21535963 -0.23945336 0.33825722 0.4281023 0.16188388
80 0.18953325 -0.5339236 0.25055453 0.08939477 -0.09041869 -0.001288556 -0.022154681 0.16908488 0.14406796 -0.12597103 -0.13835017 0.22163755 -0.011841676 -0.2896889 -0.14302485 -0.024338016 -0.23927766 0.0683344 -0.010505478 0.441608 0.2004125 -0.21294257 0.045852076 -0.32709032 -0.26606208 0.31769708 -0.73033994 -0.043138545 0.011799166 -0.03566074 0.020651199 0.30699512 0.13278237 0.26156473 -0.16413714 -0.148112 -0.12959763 -0.01921449 -0.42209512 0.10583402 -0.076939136 0.025303045 -0.24625689 -0.15882233 0.12642093 0.47300416 0.107866645 -0.20162247 -0.3133587 -0.10453489 -0.41734713 0.13716967 -0.10098432 -0.10899712 -0.5507277 -0.39325044 0.08621047 0.022159558 -0.07483629 -0.3537076 0.13062248 -0.031805724 0.054763716 -0.12407751 0.029037036 0.08227707 0.45477083 0.1333982 0.13306265 0.38816136 0.13253821 0.11760898 0.33682498 -0.15026139 -0.015586724 0.2404572 0.15856323 -0.120568655 0.19099812 -0.10313612 0.39611095 -0.3343259 0.36576214 -0.4309946 -0.07399665 0.12849914 0.32840392 -0.22755843 -0.10037652 0.014370556 0.8395529 0.43057474 -0.2051453 -0.054966386 -0.22242238 0.10430462 -0.21386449 -0.08476884 0.35774893 -0.2114804 -0.12987688 -0.057763122 -0.14075 -0.30219224 0.027312662 0.35010725 -0.12565337 0.3890088 0.077574484 0.17451666 -0.49443403 0.2917004 0.013105847 -0.25705415 0.11738545 -0.24396531 0.18081659 -0.017047754 -0.008820131 -0.26156342 -0.03616522 -0.31266236 0.0051771807 -0.12450882 0.17970763 -0.069045596 -0.30381796 -0.25219232
63 -0.18986256 -0.37351984 0.061286848 -0.19885865 0.39268252 0.17690702 -0.053590477 0.24408482 -0.11569615 0.04636087 0.24622798 0.49070227 -0.19774152 -0.05953265 -0.09835489 -0.46323857 0.04712474 -0.24393637 0.49221087 0.36457378 -0.11112909 -0.34284267 -0.12286562 0.24062283 -0.13234593 0.07356469 -0.52462167 -0.080881484 0.12353835 -0.221025 -0.13405484 0.2121322 -0.4244773 0.15077716 -0.28539228 -0.062903166 0.51729417 0.20661712 0.09517067 -0.29732034 -0.22553702 0.46066427 0.15500487 -0.24725683 -0.01663982 0.34817106 -0.24731532 0.055290796 0.26501405 -0.13824244 -0.40260208 -0.07902262 -0.23731028 -0.18655723 -0.29133683 -0.3110408 0.49342868 -0.2960863 -0.5174178 -0.13984126 0.22456944 -0.2071656 -0.051089417 -0.052788757 -0.354467 0.29016215 -0.6142783 -0.13525224 0.08353526 0.14033304 0.14311616 0.18368344 0.2685779 -0.23510578 0.5727356 -0.0021664184 0.6233875 -0.11124995 0.008031819 0.22133109 0.13632892 -0.07878175 -0.33853215 -0.18536213 -0.1698227 -0.2016157 -0.09361569 -0.4068147 0.39402655 0.13891535 0.07742688 0.12459393 0.024817849 -0.10142864 -0.26570934 0.48492023 0.0041596345 -0.040183727 0.37638628 -0.3577121 -0.6842168 -0.1474644 0.01308092 0.07903379 0.5570118 0.27568987 -0.31232917 -0.170637 -0.19654104 0.09966315 -0.35737935 -0.041176002 -0.5268513 -0.35951406 -0.53258115 0.18761285 -0.23487663 0.17054005 -0.26038253 0.33066317 -0.606493 -0.18789203 -0.075456984 0.03900148 0.061136276 0.19570747 0.44999066 -0.2939385
19 0.108193554 -0.5150128 0.25680122 0.15957423 -0.12952305 0.1682336 -0.15558386 0.25747803 0.13644461 -0.24230641 -0.15899272 0.34805244 -0.002847369 -0.2671187 -0.23419678 -0.1749212 -0.3547844 -0.11506515 0.18235403 0.59563065 0.17468326 -0.33708382 0.05173501 -0.13519676 -0.22743742 0.38141808 -0.80449367 -0.14547127 0.042234574 -0.17168117 0.021234559 0.2717436 0.08397494 0.15625164 -0.19243927 -0.3314048 -0.009760641 0.05516553 -0.3780046 0.19451848 -0.24452077 -0.06744924 -0.18845332 -0.0035787981 0.17164354 0.49288493 -0.02868906 -0.094128944 -0.34678167 -0.015307376 -0.45876926 0.07482356 -0.13660778 -0.11592722 -0.45987248 -0.3508818 0.0309374 -0.027383398 -0.06792533 -0.42328596 -0.019387959 -0.04695177 0.16105461 -0.087760866 -0.037470285 0.17770024 0.3651035 0.18183441 0.26153684 0.29949996 0.034747545 0.13690245 0.22843033 -0.21127743 0.17709942 0.29002523 0.27948052 0.071011 0.33793342 -0.21364352 0.4072999 -0.14937928 0.34683758 -0.49046803 -0.114614785 -0.072382934 0.3254801 -0.2330893 -0.043523606 0.16571629 0.7936356 0.4105213 -0.2413317 -0.04598754 -0.2717542 0.1389436 -0.25185516 -0.063596964 0.34736055 -0.21579653 -0.28300145 -0.10519544 -0.13578407 -0.3200762 0.027694015 0.3898503 -0.32740608 0.34420422 -0.06354374 0.066454984 -0.58209425 0.2891279 0.033299368 -0.18814644 -0.18336193 -0.26008767 0.1514369 0.1187221 -0.22597422 -0.07778907 -0.1764214 -0.30602643 0.07787587 -0.105330855 0.17189798 -0.11256172 -0.17111021 -0.24970277
96 0.17687386 -0.5434529 0.26623154 0.043782603 -0.002515041 -0.028316855 -0.0052413368 0.11365584 0.11896487 -0.10149258 -0.12914723 0.17332508 -0.06892507 -0.3217056 -0.13934171 0.009189808 -0.2149547 0.11496703 -0.05958231 0.3758142 0.29763356 -0.17929897 0.006491956 -0.420075 -0.33341965 0.31832355 -0.7257901 -0.017989853 -0.024433585 -0.06733642 0.041258015 0.32161596 0.1315047 0.272627 -0.14982504 -0.09915039 -0.18724288 -0.058744624 -0.43678206 0.0824457 -0.036798496 0.1291098 -0.26486713 -0.24716963 0.10774219 0.45969436 0.12900722 -0.21985349 -0.28984743 -0.14453177 -0.42320246 0.14674652 -0.10758016 -0.097260125 -0.5768009 -0.44724008 0.12263715 0.0887812 -0.112331115 -0.35028914 0.13967381 -0.051960018 0.02951347 -0.11569874 0.035735775 0.047361817 0.45456707 0.0980941 0.12896962 0.46306828 0.17891243 0.11937251 0.4130147 -0.16841365 -0.025104836 0.23421057 0.12147549 -0.15056597 0.15260379 -0.03066031 0.4386425 -0.39564756 0.35390845 -0.41402233 -0.06030193 0.18421434 0.36721843 -0.2596571 -0.10200311 -0.0048420904 0.85263246 0.4379142 -0.25335696 -0.101125024 -0.2022338 0.09762265 -0.20985006 -0.08697088 0.36006865 -0.22629891 -0.049710546 -0.050549865 -0.15078788 -0.26802415 0.09773437 0.33002934 -0.045911103 0.4023351 0.0956356 0.2015577 -0.48177502 0.26813617 0.026116997 -0.2527081 0.16777225 -0.23240662 0.16729043 -0.06890782 0.07595128 -0.32564715 0.041595064 -0.2833248 -0.036773987 -0.09732528 0.17245483 -0.008907806 -0.30373737 -0.2780599
71 -0.17383598 -0.445067 -0.040643897 -0.21454488 0.27543348 0.0082567725 0.11801745 0.31452718 0.1355389 0.1053454 0.2738118 0.41274717 -0.0518967 -0.23480926 0.0021822895 -0.5738922 0.18743907 -0.13780335 0.27307773 0.11999605 -0.09957688 -0.16179511 0.019074546 0.35728133 0.036306474 -0.06767545 -0.39586294 -0.07432317 0.080493145 -0.0254198 -0.2398889 0.17166181 -0.4866347 0.14258952 -0.2164509 -0.19879234 0.39754227 0.1682374 0.0021884958 -0.4041317 -0.36071894 0.23748569 0.23222068 -0.015994493 -0.105932586 0.3436333 -0.076635994 -0.09479547 0.38866156 -0.085893184 -0.421894 0.15048611 -0.21006244 -0.0044146795 -0.4400721 -0.31195694 0.39159402 -0.26648772 -0.47010496 0.114005566 0.40330297 -0.2428308 -0.25068313 0.039724242 -0.2720609 0.17620355 -0.4159715 -0.05642442 -0.1191862 -0.016565498 0.1502345 0.14224617 0.26436383 -0.17596363 0.48201197 -0.21672416 0.5226328 -0.24574813 -0.14699085 0.025787545 0.038893443 -0.10475862 -0.35918742 -0.1166672 -0.22472708 -0.27539077 -0.26375917 -0.37982282 0.20939194 0.1802749 0.06746606 0.12468153 0.2255163 0.056337427 -0.4763811 0.5715574 -0.035134636 -0.24148038 0.4929604 -0.10502743 -0.7797714 -0.04811402 -0.159255 0.14327092 0.38867617 0.18579753 -0.071109705 0.19947264 -0.17539911 0.07235788 -0.08100477 -0.14730647 -0.3053907 -0.35434917 -0.4104475 0.22374283 -0.14776202 0.37223905 -0.3887658 0.42539367 -0.4638613 -0.074634075 -0.0851921 -0.16787367 -0.18588263 0.32051742 0.42292443 0.07058187
84 -0.17163391 -0.44524047 -0.033205282 -0.17210062 0.25670186 0.034770455 0.0981806 0.31455594 0.13868615 0.09437564 0.2366698 0.4091998 -0.0147440685 -0.21268754 -0.019081587 -0.54194146 0.12818077 -0.13783227 0.27605808 0.14890711 -0.07751384 -0.17307486 0.034072097 0.35137537 0.017604113 -0.033540122 -0.40697142 -0.06781185 0.06554602 -0.048642855 -0.21729763 0.15742187 -0.45785913 0.12021495 -0.20309901 -0.2208565 0.37055674 0.17078704 -0.021408685 -0.36211905 -0.34110877 0.21080872 0.21887013 0.004874352 -0.07805012 0.3557416 -0.09472765 -0.06651989 0.34666327 -0.07273785 -0.41320506 0.13611564 -0.21949013 -0.016435716 -0.40380895 -0.2766071 0.3607483 -0.22309388 -0.43355992 0.07496446 0.3617505 -0.24393749 -0.22562693 0.015943892 -0.23209313 0.18935856 -0.3986677 -0.043283578 -0.074660406 0.006575664 0.11195765 0.12081792 0.23238339 -0.1932013 0.4621421 -0.18045425 0.51700425 -0.18645006 -0.1113214 0.037393972 0.050838538 -0.06498114 -0.3150894 -0.12646872 -0.2193717 -0.28045076 -0.21702369 -0.369736 0.19757588 0.18766 0.04959783 0.10947287 0.1989581 0.030037297 -0.46240816 0.5576041 -0.038885605 -0.22194506 0.46911317 -0.094480686 -0.75203514 -0.056714356 -0.12775224 0.118108 0.3624276 0.1745195 -0.095365375 0.19579726 -0.21027079 0.061919462 -0.107434325 -0.16190974 -0.26559776 -0.32276556 -0.41362405 0.1758273 -0.1453776 0.3540546 -0.40390345 0.42110965 -0.43921265 -0.06173544 -0.068414815 -0.14794286 -0.17355074 0.28708193 0.4059424 0.04185973
40 -0.18722707 -0.3687608 0.049020965 -0.16647194 0.36824185 0.15337761 -0.059264787 0.23582725 -0.091728926 0.05414462 0.24275814 0.48239475 -0.18593803 -0.06044034 -0.08516254 -0.43883374 0.029578114 -0.21158595 0.45759943 0.3778289 -0.102434725 -0.34899083 -0.082477205 0.20025925 -0.14026761 0.08853359 -0.52723503 -0.08196732 0.10771181 -0.20132536 -0.114619 0.22247428 -0.40218127 0.18088824 -0.2753098 -0.06641149 0.458987 0.19271965 0.06777978 -0.25418544 -0.17781253 0.44284648 0.14167333 -0.25169414 0.0037893695 0.36227864 -0.22690007 0.058598313 0.25202826 -0.12253001 -0.40455613 -0.0833301 -0.22391562 -0.18980186 -0.31014264 -0.2978222 0.47601032 -0.27147788 -0.48974788 -0.14816347 0.23828416 -0.17510423 -0.047448214 -0.07532744 -0.30724025 0.27471817 -0.54101217 -0.14577502 0.09807616 0.16460341 0.13651632 0.17743862 0.23907703 -0.1998789 0.5406111 0.03042485 0.58998555 -0.116514094 0.006911233 0.20974846 0.15082623 -0.07127207 -0.30443978 -0.19269258 -0.14782673 -0.17940263 -0.08635955 -0.4041063 0.3639063 0.1478839 0.11722731 0.13333707 0.018046282 -0.11570888 -0.25037688 0.46699074 -0.0063657374 -0.024985459 0.36881587 -0.37993813 -0.63353044 -0.13819633 -0.007605058 0.052513104 0.525405 0.24948063 -0.31340462 -0.1445877 -0.18459095 0.096254766 -0.38211724 -0.02413634 -0.4904269 -0.36121842 -0.47222954 0.15800293 -0.19827488 0.12815289 -0.23965357 0.29192302 -0.57147616 -0.18230066 -0.06263172 0.037841927 0.07149781 0.17813435 0.41064167 -0.30261293
52 0.17318155 -0.5043615 0.24929626 -0.013103687 0.06196142 -0.07527055 0.056549437 0.062324516 0.07334359 -0.071761034 -0.101288356 0.09282427 -0.11494497 -0.333278 -0.12713474 0.048029833 -0.14227498 0.16830693 -0.1279554 0.2825243 0.3347137 -0.11697605 -0.062811054 -0.4807912 -0.35614148 0.27288488 -0.6685467 0.021325061 -0.02845237 -0.054770894 0.03932805 0.32221645 0.13779196 0.2832868 -0.13238576 -0.017656514 -0.21827851 -0.09413299 -0.42788127 0.028787578 0.0052072746 0.19812573 -0.3011724 -0.32093975 0.06498084 0.4187389 0.1442234 -0.25602916 -0.2662042 -0.18870747 -0.3718698 0.1770522 -0.09988978 -0.09006478 -0.5732885 -0.4716277 0.12924181 0.106946096 -0.13425227 -0.32484934 0.16503216 -0.06104045 -0.02221757 -0.098587714 0.03825242 -0.00544643 0.43304756 0.062964454 0.08997059 0.47617963 0.22292528 0.11439264 0.48220628 -0.16385083 -0.0814097 0.17238544 0.046376947 -0.20945287 0.09501907 0.021359116 0.42390233 -0.46743426 0.31702158 -0.3676111 -0.041257143 0.24571052 0.35231254 -0.24442878 -0.10771665 -0.053167228 0.80664665 0.43019775 -0.25098416 -0.09372255 -0.17973731 0.056747284 -0.19499297 -0.105530076 0.33659935 -0.19945735 0.021080596 -0.022258105 -0.14917655 -0.21665019 0.12823002 0.30660006 0.07055946 0.39703253 0.13114053 0.25285277 -0.41478005 0.23054491 0.027904633 -0.24677971 0.25045153 -0.19022071 0.1468938 -0.10586485 0.17025548 -0.3844039 0.109258875 -0.26612288 -0.09775191 -0.0877698 0.17081365 0.035943136 -0.3147168 -0.26462683
77 -0.12605672 -0.30126745 0.042135347 -0.19052489 0.31189078 0.09686095 0.0010836223 0.20694388 -0.09814931 0.07160334 0.21559982 0.3550489 -0.15294234 -0.08902554 -0.058053754 -0.34047925 0.12638506 -0.15235515 0.34297884 0.30970424 -0.10691548 -0.27638385 -0.058296893 0.17612605 -0.10048307 0.04374208 -0.41119018 -0.068824865 0.073954456 -0.12816077 -0.16807888 0.21108171 -0.34460133 0.15851745 -0.23174895 -0.038469426 0.43811765 0.1502768 0.074292086 -0.27430207 -0.2018292 0.34852394 0.12929372 -0.19601941 -0.03954779 0.27615473 -0.17514627 0.052980036 0.23955356 -0.15032965 -0.30625543 -0.0005212948 -0.15522487 -0.13851064 -0.31118244 -0.29592967 0.38007167 -0.31312415 -0.43900266 -0.040207036 0.25231734 -0.12608632 -0.050078258 0.002172742 -0.28059164 0.18996702 -0.4501004 -0.11952032 0.035077315 0.06811587 0.1689323 0.16182007 0.28472498 -0.15931533 0.43751004 -0.038176414 0.4388271 -0.16150929 -0.056244276 0.15531927 0.097578704 -0.11879006 -0.28500265 -0.13265184 -0.16312774 -0.16233574 -0.1728556 -0.29969308 0.32180357 0.14905813 0.15858176 0.15157014 0.047396485 -0.021235336 -0.21203044 0.3660701 0.0028590204 -0.054394368 0.33099508 -0.29733568 -0.5525533 -0.08921835 -0.046359524 0.088319436 0.4248083 0.22855179 -0.15959503 -0.070429556 -0.114607066 0.08955225 -0.2624668 0.0013401216 -0.41328013 -0.29531714 -0.33202615 0.19284202 -0.19810195 0.14815001 -0.20939036 0.26495105 -0.48536298 -0.17972966 -0.069655895 -0.020019168 0.08326366 0.16735089 0.35125077 -0.15845783
64 -0.043765195 -0.3729735 0.16066276 0.103911385 0.03439816 0.276523 -0.1888534 0.24888194 -0.0058755255 -0.20993057 -0.07596713 0.38747898 -0.04454278 -0.13685274 -0.24632286 -0.26340735 -0.29959315 -0.23710288 0.36210626 0.5624808 0.105164565 -0.3640065 -0.05281889 0.07094864 -0.18741916 0.2907716 -0.65338415 -0.15909776 0.061300155 -0.29458416 -0.0024968744 0.1812773 -0.070238404 0.038204357 -0.20826718 -0.3254691 0.19201556 0.11922263 -0.17592148 0.101163164 -0.2681458 0.042386033 -0.07346684 0.009595754 0.13517816 0.39406812 -0.20317563 0.06244936 -0.19438921 -0.0042884424 -0.35898846 -0.023168255 -0.18837176 -0.15458457 -0.22371994 -0.25493845 0.092480056 -0.08696359 -0.17346473 -0.38631183 -0.0882336 -0.105277106 0.17434224 -0.06068871 -0.12845151 0.25384602 -0.03822395 0.081833415 0.31539202 0.1839008 -0.008307272 0.1358468 0.14869489 -0.25921512 0.35530746 0.22435439 0.3574077 0.18251005 0.3223291 -0.09558577 0.29208118 0.02081776 0.12067564 -0.36589596 -0.1262539 -0.1915491 0.21414997 -0.22845182 0.12937239 0.21687776 0.40963694 0.23735775 -0.2087651 -0.07030618 -0.21967994 0.19076706 -0.16921821 -0.014688735 0.25766355 -0.23542716 -0.4074479 -0.14073953 -0.03643935 -0.18502513 0.17835535 0.31662694 -0.37432364 0.10461207 -0.21496947 0.008426641 -0.49705243 0.120616615 -0.08820877 -0.10607362 -0.4296713 -0.1552178 -0.019512376 0.14854781 -0.29765195 0.13771814 -0.31823957 -0.21859044 0.054935902 0.01736538 0.15341395 -0.06445068 0.09504193 -0.26739404
