131 128
121 0.021088343 -0.16842562 0.08605145 0.24711283 -0.0049108276 -0.28042582 -0.14457163 0.050263137 -0.14715387 -0.47000912 0.1411214 -0.4515225 -0.1082544 -0.008799927 0.09693766 -0.24806516 0.11474613 -0.14036849 -0.32039872 -0.16721177 0.22788665 -0.27095246 -0.07368438 0.20371005 -0.35917142 0.58269805 -0.15831482 -0.11511655 -0.32110527 0.06363095 0.079610534 0.30111432 0.36824274 0.1632883 0.19880044 0.15290315 -0.109493695 -0.34545025 -0.25119475 -0.4999733 0.38731644 -0.38456145 -0.15475303 0.03708329 -0.14357212 -0.3667381 -0.066374674 0.19143541 -0.3781647 0.06503821 0.17859732 0.6504551 -0.37870762 -0.08896965 -0.08563561 -0.58652705 -0.010056276 0.046917323 0.043763865 -0.5714507 0.100889914 -0.08671499 -0.28600127 -0.049243193 0.10540831 -0.08456426 -0.01416468 0.3285932 -0.13174076 0.16825843 -0.027436813 -0.06958311 0.17131363 0.20509423 0.42885473 0.046600904 -0.09458367 -0.04433442 -0.13015321 0.29202574 0.20413792 0.15218775 -0.14367357 0.118312694 -0.3638099 0.2060269 -0.21195963 0.09651968 0.18067655 -0.20093112 -0.19214159 0.27970687 -0.06581453 -0.44074947 0.25274843 -0.22188945 -0.27936044 0.14502123 0.30299875 0.3441455 -0.28497335 0.07010399 0.04229562 0.09118903 -0.50546545 0.29069516 0.08352943 0.28711846 -0.32274723 -0.10466056 0.052945103 0.26044378 0.24843638 -0.20253481 0.16818427 -0.21999173 -0.41098553 -0.0027275267 -0.058915302 -0.64460284 0.09474751 0.00055899436 -0.0038554287 0.13699694 -0.110005334 -0.20456654 0.10789977 0.16045523
103 0.04919062 -0.12477486 0.17145716 0.24059324 0.05817031 -0.327652 -0.15204938 0.052328885 -0.12921892 -0.56635445 0.14047705 -0.4312778 -0.08487894 -0.030255755 0.09125972 -0.23992191 0.16752458 -0.04955438 -0.31289518 -0.24178657 0.26062834 -0.26776677 -0.11956289 0.21373667 -0.3412282 0.5694227 -0.16278526 -0.0819985 -0.3479539 0.054799166 0.080454245 0.3370582 0.41375485 0.16220114 0.22233489 0.17167495 -0.071397744 -0.30163276 -0.28424826 -0.47185165 0.36724448 -0.32702845 -0.1725195 -0.07677654 -0.08407758 -0.335819 -0.032756586 0.21676879 -0.34900022 0.031107685 0.1861376 0.5850314 -0.34413698 -0.13059753 -0.09532139 -0.5474689 0.0070428886 0.042481214 0.020963663 -0.4906555 0.12664622 -0.08779548 -0.2928634 -0.04744111 0.09070654 -0.065382384 -0.07223813 0.34759566 -0.1374794 0.15164578 -0.0036702445 -0.080579534 0.099113815 0.20519187 0.40235916 0.058374923 -0.11830531 -0.09455664 -0.15671991 0.26370484 0.20390414 0.12352043 -0.15253586 0.094768494 -0.35029867 0.2391798 -0.17379436 0.15457806 0.22941738 -0.20222129 -0.1916777 0.30318114 -0.026633935 -0.43234983 0.25916937 -0.2861608 -0.277928 0.13416593 0.30488688 0.41362005 -0.31120303 0.02492102 0.122774854 0.09072613 -0.47813487 0.28662708 0.12548494 0.31239653 -0.32784504 -0.10923718 0.036389284 0.23322715 0.27072766 -0.21765009 0.15875672 -0.20396507 -0.3178887 0.020278528 -0.022284364 -0.6649614 0.11445267 -0.029090563 0.0032183672 0.16255617 -0.16226529 -0.21537668 0.060173128 0.17250969
126 0.063181736 -0.10027584 0.14468142 0.22919418 0.04772359 -0.35696477 -0.13262658 0.022110816 -0.14445609 -0.56278914 0.17051305 -0.39049676 -0.09833487 -0.07059342 0.024128791 -0.22506492 0.16068207 -0.055096038 -0.28660044 -0.33140656 0.2611073 -0.2638524 -0.07862648 0.22483629 -0.35368532 0.60230064 -0.15331313 -0.056806378 -0.33325604 0.06907493 0.06963818 0.3632507 0.46165138 0.16527443 0.27677026 0.22036815 -0.07647479 -0.2593894 -0.2848436 -0.48715755 0.38415676 -0.35507575 -0.12642942 -0.08274799 -0.117067784 -0.31509975 -0.054298125 0.22387338 -0.3668786 0.10837889 0.227254 0.5520749 -0.33896747 -0.131537 -0.118898444 -0.53775936 0.021606479 0.07843797 0.019668467 -0.50284916 0.12303189 -0.08762352 -0.25411183 -0.060201693 0.08411788 -0.086109385 -0.073964015 0.35336095 -0.13623804 0.1857363 -0.012055442 -0.087373346 0.10439844 0.2356431 0.36829722 0.056836236 -0.10836436 -0.08068864 -0.17646305 0.27515998 0.19583197 0.09593083 -0.16870229 0.17175426 -0.43489042 0.25558746 -0.18080492 0.15708977 0.21996628 -0.20223837 -0.21731898 0.3401261 -0.0008868346 -0.43805808 0.24286456 -0.28997657 -0.2581689 0.12829028 0.3078489 0.41168272 -0.3043313 0.030088838 0.13659352 0.08458592 -0.52772814 0.2935764 0.10405309 0.33305067 -0.31522572 -0.11662418 0.08244127 0.19878207 0.25150883 -0.24364176 0.091566786 -0.18139793 -0.3584733 0.014047696 0.028547592 -0.67983186 0.07405446 -0.046057735 0.007980624 0.15385889 -0.15070151 -0.21700917 0.028277703 0.11390408
85 0.04089068 -0.13474189 0.17021166 0.26985 0.07544169 -0.3149375 -0.14696442 0.07179085 -0.10626323 -0.5805692 0.16877316 -0.44999832 -0.109947905 0.013368967 0.12047534 -0.2655733 0.15512711 -0.052689295 -0.33580384 -0.2499041 0.28371477 -0.27375662 -0.14104947 0.27226862 -0.35291418 0.61197406 -0.18201406 -0.083031274 -0.34793794 0.04750774 0.097377844 0.33202237 0.44659233 0.15102372 0.20588964 0.18286961 -0.04136169 -0.36508137 -0.30330938 -0.49883988 0.4349899 -0.3363136 -0.17191736 -0.07524919 -0.107323736 -0.32962477 -0.025063995 0.22088021 -0.36224484 0.026169019 0.20053026 0.6207694 -0.3522856 -0.112904765 -0.095349416 -0.5979282 -0.008339183 0.04663216 0.0057950146 -0.4986783 0.1247394 -0.09443789 -0.32738215 -0.07046584 0.09575547 -0.10291965 -0.06329354 0.37634748 -0.12867518 0.15280133 -0.0021017895 -0.10384045 0.15209137 0.22464313 0.4576958 0.05669033 -0.13063268 -0.080419615 -0.18875563 0.24470167 0.181696 0.09641977 -0.15408833 0.080394074 -0.34005025 0.26354998 -0.17929612 0.14557979 0.22320814 -0.211046 -0.19140726 0.31641862 -0.017722072 -0.40078953 0.25829893 -0.31584713 -0.28341016 0.15721351 0.29362944 0.44789913 -0.34590366 0.019138742 0.108302236 0.13423568 -0.49769723 0.3140949 0.10389297 0.30500668 -0.3489349 -0.10174352 0.048074823 0.26174095 0.32706016 -0.22104643 0.13618243 -0.25217113 -0.33459342 0.006054421 -0.05432562 -0.6926347 0.112941176 -0.038249087 -0.007946835 0.19104232 -0.17444205 -0.25212052 0.09279636 0.16073732
122 0.30828217 0.12610334 0.05728786 0.06390062 0.14957057 -0.5656041 -0.13863601 -0.003301625 -0.035573058 -0.45627266 0.22600563 0.021079434 0.008885188 -0.20915632 -0.05002647 -0.12762496 0.38734183 0.13130525 -0.4195028 -0.7291299 0.13120475 -0.04707993 0.023206972 0.27062598 -0.40762177 0.36890647 0.0729255 -0.075856775 -0.078984894 0.14676571 -0.07876001 0.43072996 0.3773985 0.093813516 0.5573494 0.26004848 -0.091634884 -0.038710173 -0.3042349 -0.0486821 0.17522126 -0.07319518 0.04954531 -0.30792698 -0.10823924 -0.19750181 0.23756835 0.38780367 -0.14261459 0.34328917 0.3048692 0.31000668 -0.23360854 -0.30397007 -0.1585915 -0.24350365 0.43219352 -0.0062999274 -0.19838394 -0.51983577 0.4187242 0.19865897 0.032755386 -0.032709062 0.006750118 0.032359805 -0.36898145 0.46646938 -0.18129073 0.20034218 -0.16735071 0.1963718 -0.13097571 0.19612715 -0.024904143 0.034319565 -0.21528424 -0.17551991 -0.4449124 0.246593 0.22101797 -0.0414127 -0.07592616 0.34220684 -0.51719326 0.2159319 -0.01905966 0.33027098 0.30601838 -0.05369136 -0.3689955 0.1304474 0.3099709 -0.19838151 0.34740895 -0.14453109 -0.21694003 0.06578722 0.38059562 0.27639997 -0.34163022 -0.06438972 0.114327915 0.047317084 -0.43036696 -0.051357795 0.2609266 0.1954243 -0.21614231 -0.06871273 0.044363014 0.22899015 -0.058484882 -0.2485962 -0.026099702 -0.13026184 -0.24564421 0.12822953 0.21825424 -0.58210605 -0.13539407 -0.27087143 0.11073456 -0.021763103 -0.20558248 -0.12006656 -0.15203783 0.25985768
118 0.07234399 0.043920834 -0.22126243 0.060264416 0.07824057 -0.22943626 -0.4979705 -0.03220957 -0.5964417 0.11340037 -0.02448066 -1.090658 0.18989989 0.20163475 0.15640695 -0.3184085 -0.20037884 -0.3333002 -0.764398 0.32530805 -0.537584 0.09923159 -0.15091373 0.13069534 -0.424304 0.46631208 -0.0021694186 -0.36771768 -0.39613435 0.11903474 0.062336385 -0.23023085 -0.33960864 0.025624929 0.23377684 0.18148813 -0.25662875 -0.8098614 0.17596176 -0.1529271 0.077687375 -0.49820712 -0.4734171 0.35217178 -0.1238995 -0.19523896 -0.16254345 0.14856732 -0.18017747 -0.123502485 0.02623124 0.65768325 -0.5815039 -0.28271216 0.069265634 -0.16672555 0.3675156 0.28444555 0.39790124 -0.74894595 0.2173657 0.28243873 0.039391387 0.08999273 -0.23474258 0.2347528 0.06778602 -0.2814949 0.011458419 0.15334368 -0.31177086 -0.16362715 -0.47896832 0.45467696 0.2839375 -0.010144377 0.2488046 0.16563731 -0.47501814 0.3399586 0.41455808 0.38496748 0.1170936 0.14462325 -0.22727549 0.10390377 -0.22435662 0.4341632 -0.3467773 -0.114127554 -0.32839623 0.039537497 -0.3747078 -0.12538612 0.47283804 0.18731321 -0.34301862 0.13454777 0.5756794 0.040969897 -0.116094135 0.06491127 -0.2545607 -0.35011423 -0.0530158 -0.16762973 0.4056052 0.3685345 -0.37187517 -0.045548875 -0.116112605 0.5652048 -0.18186334 0.0030688078 0.6135034 0.10531227 -0.029910913 -0.30059946 0.036363576 -0.6282315 0.1584138 -0.13191587 -0.08009581 0.1311485 0.35513172 -0.27517217 0.04301559 0.559002
125 0.31507257 0.14351548 0.07370144 0.120557696 0.18736029 -0.59178925 -0.14629519 0.036323626 -0.013259991 -0.47503367 0.2344541 0.1404944 0.007588602 -0.25566632 -0.06279161 -0.14724863 0.40936187 0.2001053 -0.40281028 -0.8160057 0.18859422 -0.06345266 0.04766964 0.3043037 -0.4352183 0.37300566 0.06568816 -0.03601772 -0.03781051 0.15922354 -0.085528776 0.47541755 0.4166773 0.14488873 0.5701125 0.3036691 -0.038253475 0.011624559 -0.29627544 -0.05419271 0.20743953 -0.03739674 0.12167923 -0.38643637 -0.11908857 -0.18783626 0.27351195 0.402438 -0.15081082 0.36849558 0.3195807 0.2800549 -0.19788401 -0.32370418 -0.17191459 -0.23445402 0.45720127 -0.05091787 -0.2571959 -0.49295363 0.4503338 0.19413999 0.020911539 -0.057633374 0.014612646 -0.0028325988 -0.38135663 0.51025474 -0.21174425 0.23017725 -0.11751724 0.21350323 -0.09304562 0.17007154 -0.054644857 0.04111358 -0.25970072 -0.18109763 -0.4854142 0.2462925 0.25260243 -0.057140417 -0.079248495 0.3576367 -0.5357893 0.19174005 -0.02942544 0.33116347 0.3370155 -0.051789023 -0.40726537 0.15905133 0.32765985 -0.17539538 0.36734292 -0.165902 -0.19417447 0.07765407 0.35527086 0.31966904 -0.38377872 -0.08133997 0.1564303 0.037998695 -0.47780356 -0.04684966 0.24706984 0.1724887 -0.20996831 -0.07311413 0.04744873 0.170142 -0.067670025 -0.2225574 -0.054039575 -0.09666853 -0.23724732 0.14613704 0.2747758 -0.57889545 -0.1504183 -0.28222182 0.114510566 -0.024632778 -0.25092152 -0.11733733 -0.15286227 0.21213542
123 0.34145623 0.1629869 0.0692094 0.057237487 0.19487445 -0.5632689 -0.139056 0.006904766 -0.009325816 -0.44765165 0.2199813 0.1699168 0.014713929 -0.26264417 -0.1069103 -0.10330623 0.38857958 0.2026735 -0.3897629 -0.8335656 0.13028656 -0.008057219 0.03910786 0.2754418 -0.36581734 0.32998943 0.08853678 0.00264171 -0.030543298 0.14102541 -0.115521766 0.44249108 0.4119321 0.08860837 0.60057604 0.33406857 -0.039405305 0.04376202 -0.2851192 0.027542781 0.1653621 0.0010171207 0.10749086 -0.40249068 -0.104254425 -0.13846695 0.28214908 0.3896467 -0.10122092 0.38725072 0.31660444 0.1693466 -0.16192947 -0.36394417 -0.1318191 -0.14316753 0.5175324 -0.010969049 -0.22660536 -0.43654242 0.4491958 0.2183075 0.07942543 -0.054045286 -0.036592115 0.032379355 -0.40591055 0.42915493 -0.15667863 0.20042175 -0.15049782 0.19940083 -0.17550224 0.1773814 -0.15072949 0.039379045 -0.22529396 -0.16627151 -0.50877273 0.2383037 0.23016134 -0.07292974 -0.038011245 0.34568098 -0.57153857 0.21407007 0.0068931393 0.35845187 0.3131743 -0.015934614 -0.40532762 0.14920974 0.35133496 -0.106993616 0.33135542 -0.14090192 -0.18179852 0.07675316 0.36621314 0.27972865 -0.31677467 -0.11429502 0.16951221 0.0130701065 -0.38947034 -0.0670586 0.2533546 0.17441496 -0.17282024 -0.057066604 0.046264146 0.15177494 -0.1107259 -0.23202626 -0.07884817 -0.07661781 -0.18694815 0.1350717 0.29573673 -0.5379537 -0.16883226 -0.3154204 0.1263288 -0.01336997 -0.24346916 -0.104658715 -0.2157814 0.20940147
127 0.27792874 0.12049975 0.035512406 0.10768026 0.162953 -0.5971155 -0.1601811 0.04225579 -0.0723995 -0.43575868 0.19850639 0.06024198 0.022276036 -0.27638644 -0.05935995 -0.14282545 0.4077917 0.15363291 -0.40185052 -0.746442 0.13204035 -0.061295997 0.07642827 0.26597828 -0.4456841 0.34903964 0.06875355 -0.07246083 -0.06490873 0.17635766 -0.10670559 0.4516802 0.34244493 0.18816352 0.5413901 0.26258144 -0.09841354 0.036075834 -0.2640316 -0.06542409 0.15595353 -0.07543585 0.090475366 -0.32853332 -0.14057788 -0.18809648 0.25107798 0.38519025 -0.17648107 0.33090365 0.3024868 0.30462635 -0.21998645 -0.3236406 -0.18386595 -0.2248261 0.4311462 -0.053100668 -0.23137833 -0.50570047 0.42835677 0.18408 0.03625979 -0.039527245 0.012204226 0.03865277 -0.34211436 0.48061118 -0.21926446 0.25124615 -0.09625453 0.2086289 -0.12115749 0.16264452 -0.05174719 0.047416322 -0.23221107 -0.1599366 -0.42315617 0.28207552 0.28107524 -0.022434099 -0.07437836 0.3497541 -0.51410645 0.15645553 -0.05718852 0.32975936 0.32764915 -0.040804267 -0.4072475 0.12379813 0.29301694 -0.2510282 0.36994416 -0.14526495 -0.20205331 0.05668875 0.3593964 0.25061554 -0.35922667 -0.039429933 0.10208848 -0.02179733 -0.4552244 -0.04490558 0.25852293 0.19057463 -0.19667324 -0.08699861 0.043596204 0.17949717 -0.075961106 -0.19978914 0.02743842 -0.051290926 -0.24161807 0.13073827 0.25200143 -0.54323214 -0.11938757 -0.2322531 0.12316345 -0.063261725 -0.22679077 -0.11184543 -0.13371834 0.22139058
115 0.059096564 -0.036359884 -0.27127185 0.10788864 0.06549442 -0.18189286 -0.48273674 -0.0038599207 -0.6405454 0.13602065 -0.03184422 -1.1123221 0.1714754 0.14928766 0.10994735 -0.35232952 -0.23556942 -0.37640384 -0.73362225 0.34364998 -0.55957985 0.092665136 -0.12416269 0.1173082 -0.38117394 0.49287233 -0.038861766 -0.35020393 -0.40338984 0.11691738 0.017574254 -0.23855668 -0.32692584 0.07730387 0.1706089 0.18284564 -0.28588146 -0.7958886 0.18493766 -0.20420828 0.1183121 -0.5382445 -0.4520378 0.36816347 -0.18040419 -0.16182965 -0.196255 0.07894088 -0.2588414 -0.1402806 0.012963882 0.63275623 -0.57969105 -0.27691713 0.1104292 -0.1457972 0.34323397 0.29184255 0.45625374 -0.7548936 0.1704998 0.21684776 0.089104995 0.091995 -0.27599567 0.24178456 0.13335298 -0.30831695 0.023778379 0.2213371 -0.26957586 -0.21493292 -0.4270415 0.44950888 0.23581038 -0.034663446 0.23318313 0.19883724 -0.41708773 0.37683102 0.40420058 0.41580135 0.14310248 0.14364545 -0.3009293 0.10816335 -0.2686323 0.41125715 -0.3474659 -0.08444375 -0.35343784 0.07162931 -0.39522433 -0.16991945 0.4313314 0.17656785 -0.34413218 0.16035613 0.56373703 0.013168674 -0.07899794 0.077936545 -0.2505183 -0.37570143 -0.06314312 -0.09379906 0.33712986 0.38189825 -0.37114874 -0.061371412 -0.06314576 0.5378562 -0.1466194 0.021819733 0.64758766 0.0943092 -0.08326579 -0.32159492 0.0045714444 -0.5878556 0.19625004 -0.07411877 -0.06475011 0.14785673 0.34112552 -0.27781534 0.04589667 0.47820607
116 0.062963404 0.021128641 -0.2479797 0.11880465 0.09471211 -0.23886596 -0.49717155 0.028753266 -0.62698305 0.12682176 -0.023752742 -1.0652627 0.20130298 0.13255556 0.12185846 -0.33816117 -0.19974886 -0.3127397 -0.7326901 0.3013515 -0.54474086 0.09866404 -0.12830527 0.121186 -0.4364088 0.43792844 -0.004668986 -0.3694884 -0.4031909 0.13412076 0.034961812 -0.23103058 -0.37183854 0.09181275 0.198204 0.15015116 -0.27333996 -0.76142615 0.1726736 -0.1773571 0.07025559 -0.5087781 -0.43808627 0.33058324 -0.12401167 -0.16713706 -0.1579481 0.12407808 -0.22375306 -0.12778506 0.029231034 0.63564616 -0.5628677 -0.27480578 0.058329176 -0.1384318 0.34067458 0.25976685 0.4015818 -0.7365723 0.20818327 0.24688818 0.07489715 0.106829375 -0.22950277 0.23055267 0.10234171 -0.26653814 -0.02170234 0.2016002 -0.24721825 -0.16400671 -0.45642594 0.42102826 0.25988817 -0.03409104 0.20031725 0.15029965 -0.43962246 0.3285528 0.40693513 0.40333408 0.10369419 0.16803624 -0.22073543 0.08093769 -0.23815948 0.41006526 -0.32723564 -0.115410104 -0.33889526 0.05299068 -0.37898475 -0.17985608 0.46488553 0.1798116 -0.32632354 0.104507394 0.5586049 0.014639209 -0.13196018 0.08006746 -0.24306402 -0.3804149 -0.08371169 -0.18500069 0.3922221 0.37441248 -0.3738337 -0.06745763 -0.09800836 0.5096347 -0.16518423 0.026657904 0.6514957 0.13273053 -0.031140683 -0.2922803 0.043079276 -0.58305514 0.17825715 -0.09433815 -0.07127071 0.09893402 0.3623818 -0.25832188 0.030162547 0.49876124
112 0.032813452 -0.05130212 -0.24559064 0.13754243 0.031252097 -0.22527684 -0.44175842 0.032570183 -0.5760068 0.08976727 -0.0017218214 -1.0371972 0.14181934 0.13894242 0.13408732 -0.3448259 -0.18476336 -0.35300547 -0.6990261 0.30091977 -0.46643963 0.048868455 -0.11025055 0.13231541 -0.4350735 0.4789282 -0.029028876 -0.35849297 -0.4061017 0.12649769 0.042432368 -0.18141718 -0.29369563 0.1012151 0.18148983 0.13925491 -0.28787607 -0.74487334 0.12673087 -0.24223956 0.12941287 -0.54524344 -0.41496378 0.37292618 -0.17291787 -0.22545911 -0.16030087 0.12611827 -0.27713466 -0.09894393 0.05258182 0.7044784 -0.57470256 -0.24290778 0.04465686 -0.25348252 0.27981225 0.23594528 0.38114682 -0.7761356 0.17659691 0.20240442 0.015386891 0.07791195 -0.18829821 0.18196145 0.12748273 -0.19119464 -0.03508548 0.20736295 -0.22288725 -0.15280508 -0.3307943 0.39759526 0.31560555 -0.02994253 0.17933093 0.16091828 -0.3708972 0.35979676 0.38906175 0.39473698 0.076483935 0.15695523 -0.24902138 0.07835376 -0.26965418 0.34172443 -0.27729195 -0.13305159 -0.3160973 0.06602479 -0.3703514 -0.23749153 0.44172493 0.15834388 -0.34076703 0.116014406 0.5352398 0.01676072 -0.13511525 0.10409211 -0.2663125 -0.31718206 -0.15046151 -0.10528227 0.342715 0.3602835 -0.37213176 -0.060728382 -0.06532874 0.50780165 -0.09891716 -0.00020370973 0.61997795 0.05059264 -0.15399764 -0.27252415 -0.00834188 -0.59877986 0.16174172 -0.06620471 -0.07270399 0.09653296 0.32312578 -0.24468035 0.07964652 0.44828135
92 0.11525912 -0.030566135 0.08515647 0.110294335 0.07242084 -0.3937113 -0.115356945 -0.026463136 0.014985197 -0.5174196 0.17225228 -0.12839909 -0.12022046 -0.03229277 0.11367025 -0.17674631 0.34058744 0.009349971 -0.38037005 -0.47196218 0.2636912 -0.18634193 0.01172123 0.3298126 -0.3390759 0.5659764 -0.11646953 -0.014258655 -0.13007224 0.09357002 -0.042213667 0.4293437 0.5492442 0.13544363 0.36603758 0.32162946 0.028204335 -0.1486827 -0.21005791 -0.24808222 0.38751283 -0.15386601 -0.005522259 -0.18662922 -0.22770557 -0.23782812 0.0933826 0.3156991 -0.22195213 0.1584065 0.22593814 0.4344633 -0.24850991 -0.24557024 -0.07273595 -0.45349458 0.25745562 0.018014157 -0.18143065 -0.49504355 0.26626536 0.03214414 -0.21590455 -0.1453734 0.0028146133 -0.020056928 -0.2267283 0.4277948 -0.09947094 0.18392229 -0.0941086 0.007531967 0.07549069 0.21923132 0.175294 0.15861902 -0.092501156 -0.043086857 -0.31432942 0.32168156 0.2893203 -0.059309397 -0.013181955 0.12680414 -0.4905758 0.2189186 -0.1423068 0.2303882 0.26154774 -0.08245454 -0.33187273 0.17142013 0.18050231 -0.1811168 0.28075415 -0.29281968 -0.2595894 0.23443164 0.29181954 0.3870179 -0.2719794 -0.036188066 0.053916417 0.10248226 -0.40645286 0.3481494 0.0680126 0.16514567 -0.2027471 -0.064104415 0.11879515 0.32543048 0.1553074 -0.18825525 0.018665444 -0.19306397 -0.3503787 0.058770813 0.04905971 -0.6295286 -0.008752898 -0.15136077 0.076610096 0.14679359 -0.3399432 -0.23422834 0.07554542 0.19081366
86 0.06799378 -0.014219364 -0.2801958 0.12012951 0.08014703 -0.19050595 -0.4964761 0.045351982 -0.63053036 0.1757502 -0.026578873 -1.0992745 0.19221601 0.1565338 0.14233051 -0.36803707 -0.24216802 -0.36269456 -0.7599601 0.36987048 -0.5802657 0.11462781 -0.13951974 0.13311869 -0.42295256 0.44480738 -0.012075478 -0.39267194 -0.40108472 0.11905531 0.04044584 -0.27190876 -0.40325037 0.0653498 0.15280494 0.1369466 -0.28641152 -0.830034 0.18690568 -0.17105776 0.10952978 -0.5271787 -0.46617287 0.38633788 -0.16077904 -0.16671313 -0.15221399 0.104297966 -0.22830983 -0.1450068 0.014622484 0.662141 -0.5920731 -0.26096117 0.08939071 -0.15067768 0.34181798 0.26284382 0.42793134 -0.77575177 0.19900976 0.25264654 0.07116479 0.10370158 -0.25190058 0.21936232 0.14287847 -0.29932788 0.0028035245 0.20141841 -0.26697046 -0.17068832 -0.41604435 0.4234746 0.28288585 -0.0533581 0.20569488 0.18528876 -0.43442693 0.33960497 0.39711508 0.41619363 0.12760964 0.14599043 -0.21944669 0.0795527 -0.25769812 0.39081526 -0.36073267 -0.099195 -0.3371964 0.028038858 -0.41145626 -0.14650492 0.4538299 0.21749346 -0.33595967 0.1277946 0.5610994 -0.008346105 -0.11188745 0.087150514 -0.28983006 -0.3691056 -0.06931106 -0.18300386 0.38184842 0.35914466 -0.38498074 -0.04882404 -0.098775595 0.5500412 -0.15155596 0.038386017 0.66854894 0.081183344 -0.059189327 -0.31015095 0.0027310506 -0.567494 0.18079056 -0.08122034 -0.08221351 0.10970954 0.3791085 -0.2700439 0.06450046 0.5013628
49 -0.0018685114 -0.47951496 -0.1281971 0.7091848 0.37257382 0.28224528 -0.22102661 0.6999527 0.08685036 0.20537096 0.11847235 0.4322883 -0.2674513 -0.14475338 -0.2336879 -0.3064637 -0.5036873 0.005364456 -0.19027998 -0.29166156 -0.100273356 0.16543998 -0.1832952 0.2518556 0.07762722 0.20369565 -0.1406184 0.41966745 -0.0042096972 -0.12542632 -0.25004613 -0.09607124 0.13782819 0.07751631 -0.058452025 0.4880291 0.11643476 -0.24121659 -0.16777658 0.009551495 0.7165176 -0.13977411 0.14829975 -0.23094577 -0.22475004 0.117328905 0.29697254 -0.110006005 -0.29478723 0.22840545 0.19409229 -0.28596628 0.09146646 -0.39418027 0.5014502 -0.02622966 0.50697523 -0.15063784 0.16474666 0.012721216 0.048102796 -0.14154206 0.17482246 -0.12651758 -0.2948515 -0.20713198 0.16577637 -0.20216925 0.2243292 0.19976005 0.2810057 -0.24873975 0.21673508 -0.25078905 -0.37103552 -0.23257923 -0.46725404 0.2502619 -0.56601286 0.14878003 -0.003506618 0.27361882 0.3671659 -0.18306667 -0.4717876 0.060971342 -0.16251504 -0.13407226 0.007594059 0.030745288 -0.34093982 0.27029592 -0.1295303 0.4299325 -0.040418733 0.2051332 0.011596728 0.21900201 0.118366785 0.009073976 -0.0059084287 -0.2491541 0.11851339 0.01176884 -0.07320196 -0.04814401 -0.3088206 -0.12828925 0.010862575 0.01824493 0.10105578 -0.30269572 0.06630793 0.10244607 0.09867048 -0.34611055 -0.08427623 -0.13317719 0.117646486 -0.12955694 -0.10391484 -0.25177267 -0.09834403 0.32132792 -0.111828506 -0.009420017 -0.17792517 -0.4393787
23 0.026807785 -0.48555198 -0.11352197 0.69275516 0.37818837 0.29956093 -0.213218 0.67077124 0.10300558 0.20331547 0.1404534 0.43991223 -0.28976628 -0.1256309 -0.2764974 -0.2970972 -0.54035974 -0.012324346 -0.2048884 -0.32918927 -0.11267429 0.19760384 -0.20943975 0.2584697 0.121016465 0.22424424 -0.13466817 0.4670877 -0.00569701 -0.13755468 -0.26548937 -0.10865548 0.18671475 0.018828375 -0.014041161 0.55345285 0.12878416 -0.2650788 -0.19997036 0.040948886 0.7373727 -0.15085272 0.13294159 -0.24729975 -0.22693253 0.11801109 0.30997813 -0.11324591 -0.28764376 0.27544937 0.22210297 -0.32936972 0.09824673 -0.43207777 0.5516808 -0.008244468 0.5817458 -0.11437644 0.21352004 0.01576902 0.039998125 -0.12539321 0.20931658 -0.12857094 -0.34071913 -0.20463479 0.13790028 -0.24107227 0.2665847 0.19091636 0.2442146 -0.26737902 0.18529251 -0.21934399 -0.43261266 -0.25365278 -0.466835 0.2622022 -0.6262764 0.16023079 -0.03953012 0.27505666 0.40421548 -0.17634407 -0.55610627 0.104404755 -0.1411518 -0.103923194 1.8984683e-05 0.037393168 -0.35094976 0.3051511 -0.11295774 0.48984644 -0.05571176 0.22722277 0.010677355 0.23099712 0.14854929 0.01370055 0.022437813 -0.2871252 0.15293287 0.03124005 -0.05278106 -0.046636995 -0.31671566 -0.115159415 0.018473499 0.024052048 0.11850226 -0.30424896 0.048426718 0.058029626 0.05491746 -0.38646048 -0.08922206 -0.14346768 0.1301204 -0.16416687 -0.12684378 -0.30818707 -0.10210578 0.37247828 -0.115717106 -0.008289787 -0.2411955 -0.43670735
124 0.13845365 0.042346757 0.078632705 0.10289544 0.06887231 -0.4678331 -0.15205175 -0.018864535 -0.0012285294 -0.48474264 0.16613111 -0.100520924 -0.05359967 -0.054052345 0.13661323 -0.16891044 0.38451672 0.04688555 -0.41180673 -0.49098238 0.24390507 -0.1774196 0.043370705 0.31722978 -0.43838573 0.5037342 -0.07123829 -0.07620652 -0.109599456 0.12449004 -0.020175874 0.43965393 0.44715855 0.16370334 0.42285696 0.26644826 0.0042827786 -0.13090494 -0.1868603 -0.20887241 0.29545763 -0.12000141 0.02068814 -0.19001415 -0.17965788 -0.27450934 0.12407746 0.3736804 -0.19600467 0.18343776 0.23021716 0.4845312 -0.26493153 -0.24083225 -0.13947204 -0.4430365 0.27710822 -0.030340148 -0.24363627 -0.54215556 0.3401728 0.12072866 -0.21624652 -0.108317725 0.048282586 -0.020938534 -0.25661254 0.4769239 -0.16429767 0.16591321 -0.10765256 0.10012359 0.034937542 0.20438993 0.19459438 0.16719633 -0.09816491 -0.08522472 -0.34126973 0.29646102 0.33841613 -0.047712043 -0.056651786 0.18052961 -0.41412657 0.14904441 -0.11919002 0.25265506 0.26259312 -0.108656414 -0.32983804 0.12799731 0.17521964 -0.2125027 0.34227878 -0.24472362 -0.26420036 0.18287687 0.30428836 0.3538036 -0.316656 -0.011288927 0.020000715 0.06353787 -0.43903655 0.21902531 0.16166824 0.15566027 -0.20294543 -0.066021174 0.053396557 0.3339593 0.06752413 -0.15905692 0.053968865 -0.12390688 -0.32627407 0.07754412 0.105635665 -0.6284579 -0.041115217 -0.16401057 0.082394674 0.04740054 -0.29843044 -0.20395888 0.07728723 0.2561489
1 -0.31699482 0.2031484 0.33644453 0.6192379 0.55377865 0.07280195 -0.59256005 0.3718804 -0.3279448 -0.1297418 -0.2614783 -0.22017789 0.19467857 0.038991857 0.07082108 -0.26205376 -0.33828092 0.38782448 -0.059121806 0.20736359 0.0339838 -0.21690111 -0.2740029 0.05880232 -0.17689541 0.36362535 -0.40090215 0.31124574 -0.35547084 -0.06267145 0.10849392 -0.16454868 -0.06798024 0.35703367 -0.1277988 0.4155975 0.40536168 -0.26011145 0.3812494 -0.28983113 0.24549863 -0.08212475 -0.061944988 -0.4436598 0.29486054 0.16144343 -0.21458873 -0.025764212 -0.1669032 -0.48296574 -0.10840599 -0.13609108 0.10639226 -0.2854193 0.15873586 0.15037268 -0.0002802434 0.05779278 0.16819523 0.41589516 0.04476114 -0.15612762 -0.331766 -0.0647967 -0.16125779 -0.040038243 0.21369724 -0.47659972 0.019202894 -0.026389094 0.40187392 -0.5859526 -0.3938391 -0.018974544 0.123759806 0.23334862 0.12972593 0.12661842 -0.4786945 -0.083267055 0.54078686 0.25557506 0.08850596 -0.264617 0.2626196 -0.089494385 -0.13812013 0.20670031 -0.326812 -0.27675346 -0.20414701 0.4862051 -0.59089816 0.20085025 0.169043 -0.3435063 0.05356894 0.2193385 -0.01387913 0.5871148 -0.13774128 -0.20610426 0.4331251 -0.3861673 0.058910243 0.12566477 0.020647306 0.18318908 -0.070500284 -0.14967188 -0.20557362 -0.35978702 0.004253682 0.42210186 0.43474317 0.6278604 0.7042216 -0.32432908 0.48824215 -0.3492684 0.34878823 -0.113682784 -0.2305848 0.41505635 0.012966429 -0.2673992 -0.109305054 -0.0822364
89 0.33567032 0.1417676 0.03703281 0.055258654 0.2004494 -0.5409039 -0.13782895 0.042881493 -0.006719439 -0.42099923 0.18980934 0.1921782 0.025263112 -0.27816397 -0.03265783 -0.11950227 0.44625407 0.19800547 -0.39971218 -0.78148276 0.118213266 -0.009567999 0.064506754 0.2745631 -0.37316978 0.29575065 0.07126927 -0.03351058 0.02454843 0.16031998 -0.15916525 0.45308062 0.37646532 0.13033533 0.5233529 0.2978939 -0.044827048 0.078142084 -0.23447782 0.064636156 0.16693078 0.04893727 0.11713711 -0.40894958 -0.15919805 -0.11548046 0.31529185 0.361772 -0.09959406 0.31187603 0.2748736 0.17695859 -0.15507846 -0.35423723 -0.11304004 -0.1212942 0.5176636 -0.07563826 -0.27497923 -0.43789274 0.4604134 0.22297019 0.07972357 -0.055000693 -0.04460459 0.071963295 -0.3882799 0.45716867 -0.16741687 0.22829464 -0.12965529 0.22006498 -0.1499148 0.13763753 -0.16521756 0.065169685 -0.23549923 -0.16265807 -0.46854523 0.26208052 0.2849489 -0.10112666 0.0026684683 0.29264066 -0.5413212 0.17960207 -0.0068985783 0.3592609 0.3399167 0.03581964 -0.43252563 0.07147912 0.35986683 -0.08692902 0.34250394 -0.15632176 -0.20093013 0.10980877 0.32732683 0.25236532 -0.31213886 -0.1134211 0.118223436 -0.011503445 -0.34826726 -0.014883061 0.22082758 0.11657079 -0.129635 -0.06516617 0.04758035 0.19662951 -0.1023688 -0.17268352 -0.016073156 -0.086696506 -0.18226814 0.15526552 0.24249907 -0.4735515 -0.1303628 -0.26913527 0.15296404 -0.02379706 -0.32328683 -0.12225238 -0.15084328 0.22498992
70 0.1886329 -0.39509764 -0.13362508 0.60448295 0.45706666 0.18530256 -0.1688537 0.6416578 0.03831762 0.10776922 0.18631059 0.4212297 -0.23264311 -0.24769841 -0.35321176 -0.3186335 -0.42834482 0.06398701 -0.22204578 -0.51405793 -0.16766973 0.2571162 -0.20944612 0.2967802 0.12091066 0.19271366 -0.08572098 0.40174055 -0.010754756 -0.12984587 -0.28403136 -0.0537407 0.22350565 -0.009860167 0.013322946 0.5386521 0.09074928 -0.22143295 -0.2538833 0.09319014 0.70697606 -0.10092988 0.11388945 -0.34826225 -0.2192732 0.2259815 0.3488642 -0.10224571 -0.2326228 0.29096624 0.25038415 -0.40931264 0.076286666 -0.44030374 0.48531368 0.097969875 0.60508436 -0.050802395 0.20401222 -0.007948026 0.10682783 -0.10752037 0.3409025 -0.11852338 -0.37803096 -0.15942612 0.05773122 -0.2093989 0.24859443 0.25770903 0.18662138 -0.24446328 0.09093643 -0.1289094 -0.48131254 -0.2935748 -0.5198163 0.19308157 -0.63674015 0.13841797 -0.10562612 0.1776014 0.3594399 -0.054973908 -0.6411079 0.21303952 -0.07734512 -0.0058301813 0.05035633 0.116484664 -0.38613245 0.30966792 0.012526982 0.45705843 -0.0484789 0.15822296 0.013883134 0.20237513 0.19530247 0.05586078 -0.020179419 -0.29725215 0.20423903 0.025044177 -0.06393426 -0.0955371 -0.22902876 -0.03595646 -0.040057544 0.019027915 0.1630313 -0.27277038 0.060659323 -0.019919202 -0.0149409985 -0.39335144 -0.032061897 -0.12026315 0.15884897 -0.14206107 -0.119913705 -0.31655955 -0.043851152 0.33304343 -0.117917664 -0.046876438 -0.311631 -0.4285428
58 -0.31274143 0.22274171 0.36010137 0.6502323 0.5775899 0.023156773 -0.5635404 0.3785595 -0.31448895 -0.1949061 -0.23609008 -0.2370944 0.19139557 0.033078216 0.0724838 -0.28732657 -0.27628022 0.4476371 -0.049782686 0.15672462 0.095171005 -0.23799749 -0.28933465 0.09489892 -0.18913269 0.37659028 -0.40254772 0.29392374 -0.35586533 -0.043700673 0.121396214 -0.13812418 -0.022368561 0.37874433 -0.13850379 0.3739456 0.4252396 -0.25606278 0.33096644 -0.32117483 0.25795257 -0.08091202 -0.04195495 -0.49940413 0.3125702 0.18177108 -0.1926923 -0.012392703 -0.19069165 -0.49502602 -0.08600809 -0.11948114 0.11924528 -0.26492876 0.12002111 0.13192017 -0.04522224 0.058257658 0.15866382 0.42138034 0.052556 -0.19699672 -0.3365643 -0.073712625 -0.14038765 -0.052085172 0.17632748 -0.39851967 -0.024044052 0.006917139 0.42104393 -0.5878959 -0.36349034 -0.010187709 0.15629102 0.20983517 0.08274642 0.08652757 -0.47651732 -0.11389419 0.49528548 0.2202121 0.05345984 -0.2417613 0.28233933 -0.051021863 -0.1276035 0.21465357 -0.28400904 -0.2831772 -0.19538137 0.49370402 -0.53336036 0.15637225 0.18430074 -0.42118883 0.055764757 0.21486764 -0.023272522 0.65185773 -0.20078017 -0.20422159 0.4708919 -0.3286246 0.012742345 0.12524328 0.01592032 0.20037715 -0.102533095 -0.16920629 -0.18322754 -0.3546399 0.07534709 0.4009297 0.40909767 0.59394026 0.71659714 -0.30205363 0.4721153 -0.36232924 0.37841046 -0.10355298 -0.23108086 0.42924148 -0.0038561483 -0.2774003 -0.10926586 -0.07677946
53 -0.1766451 -0.06492445 -0.04381597 0.78662527 0.53609115 0.118605115 -0.6152644 0.84985125 -0.12768264 0.33767897 -0.16130513 0.17924725 0.13241896 -0.03701592 0.21723017 -0.36373156 -0.3778741 0.2502719 -0.35045707 0.20716451 -0.22258824 0.062094294 -0.18215287 0.18857607 -0.30749586 -0.0020919552 -0.1514071 0.08034325 -0.062892154 0.0074717845 -0.09688197 -0.25831813 -0.5142733 0.33199057 -0.22294742 0.20886123 0.1709603 -0.3146444 0.2639063 0.08290517 0.3531407 0.038940772 0.026883079 -0.2532666 0.018588189 0.084802106 0.31652766 0.04088637 -0.12789418 -0.31902793 -0.05083974 -9.820139e-05 0.039675668 -0.35143563 0.29678413 0.078131534 0.3551008 -0.40961757 -0.07062105 0.15286103 0.24090677 0.12060022 -0.13217692 -0.0049185343 -0.11750317 -0.062263675 0.23801953 -0.26234728 -0.0017766589 0.020933453 0.44358656 -0.12178159 -0.097796544 -0.3638171 -0.034828223 0.02000934 -0.24441765 0.16077642 -0.59326375 0.024150243 0.5349355 0.3489104 0.2630777 -0.363369 0.3723683 -0.33523265 -0.16048898 -0.0063685286 -0.17102939 -0.07927457 -0.3313051 0.010119438 -0.47144368 0.3867618 0.29032737 0.18677855 -0.006087736 0.13782924 0.007829999 0.02244073 -0.22075438 -0.17234679 -0.054450035 -0.38015696 0.08814841 -0.3223721 0.04398573 -0.2479514 0.017714547 -0.037143424 -0.3108786 -0.22141871 -0.112683594 0.5605245 0.6457815 0.2500617 0.44005966 -0.17865288 0.28341913 -0.049951024 0.13228738 -0.095781125 -0.16873726 0.12920257 -0.022634508 -0.11932159 0.06721841 -0.051111426
48 0.17482643 -0.39144266 -0.11961654 0.51607466 0.41370448 0.24291134 -0.15252063 0.53397065 0.045782637 0.09232879 0.17147747 0.31910402 -0.2489329 -0.14948927 -0.3140414 -0.29268706 -0.4395105 0.01807889 -0.22573274 -0.41617516 -0.16712289 0.24562135 -0.2348513 0.28110364 0.1823683 0.23052758 -0.107665144 0.39538163 -0.016013708 -0.16052972 -0.2442605 -0.08636972 0.2551511 -0.07993442 -0.0009671919 0.53327334 0.11105574 -0.2914408 -0.22189146 0.08198814 0.68800145 -0.099210404 0.064610146 -0.29646984 -0.20319013 0.20985588 0.28395867 -0.116969235 -0.19592685 0.24636249 0.20601681 -0.38122836 0.0592488 -0.41378996 0.50034237 0.084791094 0.5779713 0.016212199 0.24778847 -0.010245568 0.067202285 -0.11720913 0.31282258 -0.13385761 -0.40313098 -0.13489996 0.059090354 -0.26097655 0.2854185 0.21788837 0.106557846 -0.28963658 0.07092372 -0.07232662 -0.43934244 -0.26781124 -0.4285674 0.21688448 -0.60663664 0.13656114 -0.12350339 0.16512573 0.38658372 -0.09503067 -0.63449794 0.24791624 -0.06602647 0.018797908 -0.0052803424 0.1132135 -0.3509767 0.2989659 0.012007809 0.4971221 -0.06864961 0.14038408 0.001819696 0.24965571 0.19584727 0.08799501 0.023481917 -0.29897648 0.19743928 0.055634804 0.0036299229 -0.016331349 -0.24674381 -0.022260617 -0.050532687 0.043832097 0.16867569 -0.19582635 0.08101332 -0.033589154 -0.045264877 -0.41236824 -0.030778432 -0.1420448 0.1056668 -0.16747543 -0.10098912 -0.3197727 -0.05072935 0.38422093 -0.10709153 -0.07101928 -0.29025522 -0.36488837
8 0.27073872 -0.3251987 -0.0896937 0.44310546 0.41543522 0.11622172 -0.108644836 0.47575742 0.04793084 -0.025862213 0.2016005 0.347777 -0.2121622 -0.25033963 -0.35481074 -0.27312753 -0.30880207 0.06767982 -0.23388727 -0.574249 -0.13146715 0.23783399 -0.20545381 0.2849723 0.15630521 0.22083919 -0.062084936 0.36120802 -0.011080763 -0.12917966 -0.26098564 0.024363533 0.32970816 -0.082947075 0.0845485 0.5274206 0.07013712 -0.20163924 -0.2945387 0.1069031 0.6343144 -0.057749398 0.06638422 -0.37770912 -0.20265917 0.2038409 0.3279603 -0.07098568 -0.17883512 0.30566517 0.24874346 -0.391499 0.04308692 -0.4163517 0.43058226 0.10752742 0.6046168 0.02480698 0.19603148 -0.042842247 0.11970958 -0.08065851 0.35686952 -0.11229339 -0.38230968 -0.10598609 -0.03909144 -0.15930979 0.24148016 0.24324805 0.06858942 -0.22204232 0.01794056 -0.036127727 -0.47721356 -0.26563907 -0.45886573 0.14000139 -0.5912354 0.14553489 -0.13887182 0.098730095 0.32998806 -0.0064127957 -0.7230674 0.29770792 -0.030156456 0.08733783 0.09163167 0.15148348 -0.3704234 0.30337492 0.12244889 0.40670624 -0.0461131 0.08692436 -0.020478541 0.21132302 0.22607802 0.12253063 -0.014215523 -0.30174515 0.24445432 0.058115315 -0.048962705 -0.028112145 -0.18251653 0.029942647 -0.06928187 0.016564384 0.18361609 -0.18705797 0.0625604 -0.107989 -0.09734982 -0.42031878 -0.044009175 -0.08012598 0.12928149 -0.18612345 -0.11906741 -0.32640278 0.0031591349 0.33630487 -0.16037288 -0.07469644 -0.33774552 -0.3281648
22 -0.013272314 -0.45207506 -0.08386251 0.67030805 0.39540988 0.3440012 -0.23419641 0.6239797 0.07236047 0.19688173 0.101503 0.35841304 -0.2635064 -0.06510054 -0.24573506 -0.29340133 -0.56881195 0.012878743 -0.18128107 -0.22474316 -0.11364977 0.1710512 -0.23969144 0.23227972 0.1516033 0.24336722 -0.17673682 0.4687512 -0.031138599 -0.15908039 -0.21895814 -0.15443744 0.16558485 0.011516992 -0.06917793 0.5400376 0.18031016 -0.31573516 -0.1277808 0.010226927 0.7162354 -0.13931139 0.10046726 -0.24338709 -0.16787098 0.14918067 0.2293163 -0.14237015 -0.25708282 0.18605006 0.16027297 -0.3451252 0.11211997 -0.39348572 0.5542247 0.025537265 0.51123554 -0.06147288 0.24838768 0.07802486 0.005962648 -0.1616558 0.16885096 -0.13584395 -0.35574907 -0.19458385 0.16627382 -0.3181956 0.28604448 0.15293731 0.23634581 -0.34578872 0.1453202 -0.19585441 -0.3807889 -0.21897426 -0.39446455 0.28228027 -0.5994244 0.115366004 -0.037401944 0.27180824 0.40578502 -0.21572626 -0.47800073 0.10995315 -0.13538142 -0.08610613 -0.0748988 0.021668578 -0.31559846 0.32296857 -0.16166285 0.518276 -0.06637163 0.1747933 0.027351625 0.25958169 0.12254399 0.0788693 0.040426053 -0.2862367 0.18315597 0.022297692 0.0032550714 -0.0091712065 -0.32818517 -0.09707358 0.0008221668 0.02904813 0.106508955 -0.2962224 0.06697287 0.099570416 0.06846623 -0.32962748 -0.0019629882 -0.18117742 0.12488639 -0.15931979 -0.07051084 -0.28723785 -0.12914896 0.41369176 -0.0844133 -0.036000617 -0.21386343 -0.41627622
9 -0.30212915 0.23008442 0.3944227 0.55706406 0.56498617 0.0785049 -0.5783804 0.2742638 -0.2628363 -0.21779196 -0.27137992 -0.20853579 0.17803052 0.10909217 0.108963996 -0.2410756 -0.28253135 0.4356749 -0.060236547 0.19457114 0.10623918 -0.2516415 -0.30368084 0.07114854 -0.11402053 0.41631016 -0.4328105 0.34815824 -0.3269395 -0.0922586 0.1150531 -0.13125484 0.04770155 0.30049524 -0.10079856 0.46345127 0.4805892 -0.26482615 0.37536362 -0.27452654 0.25185397 -0.008698564 -0.062395263 -0.5181572 0.32295328 0.15396859 -0.23052602 -0.0073650978 -0.12550214 -0.5151731 -0.14325139 -0.16084099 0.1425225 -0.29663622 0.17943272 0.15483557 0.012572398 0.09788856 0.15836067 0.4648372 0.040720396 -0.17436004 -0.37458494 -0.09988721 -0.18999892 -0.018524015 0.1373056 -0.47425118 0.040358014 -0.06978026 0.34554484 -0.63430744 -0.42004782 0.014910658 0.10737696 0.2897623 0.18506908 0.13005461 -0.5033819 -0.08646307 0.5463568 0.2010634 0.1270179 -0.313064 0.23031636 -0.03399377 -0.10919041 0.2540416 -0.3176461 -0.25658974 -0.20466556 0.48937 -0.5153487 0.27475524 0.16786309 -0.43446335 0.04297396 0.29511276 -0.021805149 0.69834137 -0.12949866 -0.24521896 0.48591372 -0.33535782 0.11757734 0.23254566 -0.01873081 0.16327028 -0.06041143 -0.13226144 -0.19353147 -0.3043174 0.034227483 0.41530284 0.36752614 0.60040164 0.7481718 -0.31497478 0.46616185 -0.40169087 0.35654995 -0.15125358 -0.22035426 0.49955514 -0.072183184 -0.30461082 -0.109510444 -0.017136317
90 0.18857145 0.07016778 0.039213814 0.07712392 0.07474799 -0.46788475 -0.14782122 -0.03203668 -0.0486211 -0.4122008 0.16207734 -0.049944982 -0.03198489 -0.1449417 0.0142229395 -0.13092357 0.3402091 0.04285539 -0.377428 -0.54357314 0.16294755 -0.122464426 0.071056396 0.25160366 -0.38950574 0.43619257 -0.010001038 -0.06646472 -0.08521258 0.12798433 -0.055855773 0.40278393 0.38606864 0.14013588 0.45779383 0.28225932 -0.06016162 -0.06401594 -0.18345995 -0.14977907 0.22229311 -0.12517056 0.033059515 -0.19608676 -0.1645446 -0.23057337 0.12776679 0.33696005 -0.1805451 0.25887048 0.24205355 0.36860558 -0.24824423 -0.26131383 -0.12826799 -0.3187848 0.32898867 0.004107917 -0.18638672 -0.5163382 0.32676715 0.13600737 -0.07251607 -0.06620176 0.013049245 0.011106103 -0.26256475 0.404023 -0.1498507 0.193098 -0.13468505 0.115952395 -0.042507537 0.19772477 0.06461642 0.10412032 -0.11076849 -0.087486394 -0.34680516 0.30227807 0.28964722 -0.022852402 -0.05498376 0.26762217 -0.49098057 0.15558206 -0.096078224 0.26968348 0.23304705 -0.06869574 -0.3469525 0.13719343 0.19872251 -0.21408586 0.31274387 -0.16232932 -0.21776272 0.13075976 0.33052993 0.27362573 -0.26959062 -0.012705078 0.047656678 0.014831433 -0.42252135 0.12353013 0.17157258 0.18367966 -0.18029207 -0.079172626 0.07471662 0.2513275 -0.021375488 -0.19357312 0.022872968 -0.08306607 -0.30171636 0.077445425 0.17017181 -0.56557876 -0.07499626 -0.1913459 0.0971332 0.009068947 -0.23144807 -0.16311508 -0.024056658 0.2233535
94 0.17683801 -0.41305333 -0.09966125 0.5930038 0.445254 0.22163157 -0.17947209 0.5952135 0.04108472 0.08053738 0.17044748 0.3844032 -0.25193876 -0.21892405 -0.3693872 -0.30776736 -0.47512037 0.032080676 -0.21091706 -0.48784053 -0.15361607 0.23775735 -0.22780783 0.2802963 0.16962908 0.24162236 -0.114171945 0.44525442 -0.0366879 -0.15974092 -0.26774842 -0.053852394 0.2756391 -0.03904227 0.027885024 0.5949025 0.0995348 -0.24723515 -0.24804129 0.062691495 0.7250343 -0.12632366 0.08861859 -0.3456612 -0.20918514 0.20658562 0.30050358 -0.11931758 -0.23792504 0.2888159 0.24243402 -0.42859173 0.07424906 -0.45087054 0.5209021 0.093432926 0.61124337 -0.006731162 0.2549586 0.012412568 0.06642494 -0.13252163 0.32549348 -0.123468645 -0.4028192 -0.1518205 0.07067246 -0.26889923 0.28299338 0.24129263 0.1614441 -0.2989366 0.06960213 -0.105858035 -0.4853419 -0.2833781 -0.47248092 0.21723345 -0.6329351 0.1634509 -0.09874009 0.19794343 0.37973925 -0.07583106 -0.70002335 0.2401009 -0.08725318 0.01225195 0.020597126 0.10681359 -0.3793931 0.36169383 -0.016799783 0.4619923 -0.074093334 0.14447461 0.010220404 0.23081066 0.20309253 0.09392967 0.025016937 -0.31145513 0.23950025 0.02364099 -0.047652293 -0.030319745 -0.25712833 -0.0014830683 -0.040022448 0.020159367 0.174646 -0.28272912 0.06299821 -0.037285738 -0.02879695 -0.39713356 -0.04124243 -0.14234416 0.1654284 -0.1839167 -0.113743715 -0.3253165 -0.056852635 0.38294736 -0.12356039 -0.056507315 -0.33306918 -0.42545688
24 -0.26208267 0.18926567 0.28480205 0.65516245 0.6049533 0.060521867 -0.5997559 0.4817441 -0.2387017 -0.08132591 -0.25167614 -0.05598658 0.20066036 0.008783715 0.14449023 -0.2949256 -0.24096903 0.45258635 -0.114716634 0.15745243 0.035924535 -0.1813111 -0.25245053 0.1037276 -0.2014187 0.25523543 -0.3561001 0.25957304 -0.24917604 -0.05045521 0.05125312 -0.15103114 -0.12564287 0.37709633 -0.1573594 0.35689637 0.41390204 -0.21833652 0.3532182 -0.16578944 0.24971482 0.049320295 0.0045450456 -0.51329744 0.2622744 0.16723417 -0.04617941 -0.00360196 -0.12543358 -0.48917088 -0.13208087 -0.1395324 0.15406503 -0.30757874 0.1758313 0.18536915 0.08327917 -0.0764794 0.057342645 0.40353033 0.14352968 -0.106401056 -0.2984809 -0.07558253 -0.14323574 -0.025835928 0.14887047 -0.37098578 -0.020393586 -0.008105673 0.42448682 -0.47474846 -0.3400713 -0.12315904 0.055733137 0.21645288 0.022013968 0.10150954 -0.52337736 -0.097891375 0.56566894 0.22346681 0.13466641 -0.32063985 0.3215268 -0.14778592 -0.11430234 0.19858608 -0.25051293 -0.20973168 -0.26158386 0.34173784 -0.49557576 0.28678584 0.2264743 -0.3074777 0.04406828 0.23122764 -0.03914205 0.53835565 -0.19908373 -0.22631969 0.3745258 -0.36635697 0.0881021 0.042494316 0.014178925 0.0452241 -0.04896441 -0.13145371 -0.24316144 -0.31139624 -0.007998063 0.49368635 0.47231543 0.5610397 0.7186241 -0.2574288 0.45008394 -0.26590654 0.33198753 -0.12613127 -0.19679467 0.36117098 -0.0764484 -0.24747762 -0.06343978 -0.031276003
87 0.028680304 -0.39122912 -0.09372898 0.61753386 0.3889786 0.26732478 -0.22465058 0.61722857 0.09300031 0.18026373 0.10899643 0.40417305 -0.22854261 -0.09315648 -0.19243023 -0.27910078 -0.45851362 0.046381872 -0.2146219 -0.2726021 -0.11124276 0.17842871 -0.20718694 0.24917164 0.094333455 0.18235052 -0.12690374 0.39970073 0.020581348 -0.12638712 -0.22762565 -0.10741387 0.12668681 0.019636633 -0.03841714 0.4875947 0.15315811 -0.26182622 -0.1313278 0.06905725 0.6526185 -0.07153594 0.118888594 -0.26470184 -0.17836325 0.13716748 0.29637995 -0.08308076 -0.21210197 0.18714176 0.16054636 -0.30437994 0.097102135 -0.39317885 0.49613065 0.01993605 0.52758604 -0.117931254 0.15103662 0.048916414 0.06891894 -0.086562395 0.17256798 -0.12626289 -0.31476218 -0.16941127 0.11430062 -0.22234255 0.23567002 0.146342 0.22011372 -0.2459145 0.13781394 -0.20540713 -0.36650363 -0.19430837 -0.4064124 0.22842926 -0.5939189 0.12112356 0.0075304625 0.21395232 0.37821314 -0.19532387 -0.41961032 0.083246246 -0.11091281 -0.06676399 -0.019374693 0.04601523 -0.3256038 0.24202833 -0.10080396 0.49964067 -0.025330279 0.17640108 0.012015233 0.23700647 0.12010337 0.049303982 -0.0004910772 -0.27729136 0.1302898 0.016137253 -0.0011358256 -0.050815683 -0.26488724 -0.132943 0.0144429365 0.03167019 0.07219214 -0.24528722 0.04293538 0.11133806 0.0729388 -0.31480888 0.000390659 -0.13444522 0.12553187 -0.1307787 -0.095354766 -0.27338403 -0.0928332 0.34619775 -0.12278976 -0.033988267 -0.185174 -0.35144037
69 -0.14995629 -0.1477221 -0.10565095 0.86615247 0.57008845 0.13965343 -0.6589248 0.9585325 -0.12699275 0.426946 -0.15627275 0.25958127 0.1114007 -0.07757032 0.19898069 -0.3948481 -0.43405107 0.21961953 -0.4217542 0.17229483 -0.28842425 0.11594303 -0.17140506 0.21677871 -0.31055444 -0.004837938 -0.13789237 0.11288937 -0.031372428 0.012534761 -0.1769634 -0.27182394 -0.5451853 0.3490375 -0.21792832 0.27646556 0.15292858 -0.33551505 0.26714763 0.13744107 0.4272719 0.03373162 0.046936203 -0.26238236 -0.0526309 0.09667416 0.393984 0.03367824 -0.16036913 -0.2719537 -0.03271511 -0.036518246 0.03989542 -0.43005878 0.38738725 0.09121719 0.48900297 -0.45732963 -0.06374434 0.11162501 0.27048373 0.14810301 -0.070647 -0.012303376 -0.18181947 -0.060741335 0.26190868 -0.28758007 0.027709313 0.06153001 0.463368 -0.10951573 -0.087056756 -0.4109999 -0.13774231 -0.012491229 -0.306286 0.20955113 -0.68256253 0.09098762 0.5686386 0.39215845 0.3497033 -0.39025676 0.278195 -0.35431886 -0.19153208 -0.0042627496 -0.15794845 -0.030338075 -0.4199377 -0.00848613 -0.4840107 0.45451578 0.30704075 0.2684639 -0.020181399 0.16996221 0.039641593 -0.04735311 -0.19979577 -0.19778545 -0.09679663 -0.42039943 0.10215881 -0.35197976 0.015949134 -0.29721618 0.047463153 -0.024368603 -0.30277053 -0.23590015 -0.15124616 0.5923242 0.70221996 0.19852647 0.40127963 -0.19378541 0.29109627 -0.037186258 0.098719284 -0.1309778 -0.15852176 0.14035395 -0.057205345 -0.10584312 0.05728935 -0.07597641
21 -0.19840612 0.037481233 0.03931976 0.79845864 0.6098331 0.123318024 -0.6609656 0.8058958 -0.17979173 0.25299907 -0.19301572 0.048363116 0.18994679 0.030828409 0.26153547 -0.39896706 -0.36699748 0.33145657 -0.34914413 0.27241895 -0.18584208 0.013860947 -0.25269228 0.20000076 -0.30632052 0.06513681 -0.21815924 0.088682674 -0.122519016 -0.01331569 -0.026093675 -0.29630905 -0.47556958 0.33596608 -0.258911 0.22965507 0.27953988 -0.4122777 0.3249462 0.025604196 0.35031435 0.054190584 -0.01767106 -0.32366672 0.10789597 0.1312076 0.23707801 0.024008173 -0.11146844 -0.4460351 -0.11262989 -0.0021276046 0.053372454 -0.33466917 0.28565907 0.11994563 0.29042533 -0.32840797 -0.019294616 0.22475854 0.24102816 0.08483413 -0.20499077 -0.018662468 -0.14197025 -0.054428823 0.23179522 -0.32960445 -0.009528992 -0.01041089 0.44260082 -0.2371858 -0.18536891 -0.29185537 0.040919814 0.07551327 -0.16182102 0.15538272 -0.6410317 -0.055760834 0.5724126 0.3261829 0.23981681 -0.39704877 0.4538205 -0.2881571 -0.14645712 0.07538115 -0.24633859 -0.12718783 -0.31426263 0.08307755 -0.5253221 0.4325366 0.31649905 0.05410775 -0.005206299 0.1979389 -0.0047598532 0.21372637 -0.26170182 -0.2181458 0.052954808 -0.3750597 0.1280181 -0.2666625 0.06836367 -0.18607327 -0.042660445 -0.053904843 -0.34684366 -0.20845695 -0.07026349 0.6027191 0.6672869 0.34448797 0.59082973 -0.2250521 0.3129593 -0.11797763 0.22567877 -0.10549588 -0.21027194 0.22879298 -0.017896408 -0.18931742 0.06819233 0.009294885
120 0.27262762 -0.30125698 -0.07920658 0.48872602 0.47154772 0.1337685 -0.15234889 0.5177655 0.019501638 0.015437093 0.17740823 0.37793437 -0.17773832 -0.26580095 -0.3663332 -0.28469703 -0.35846117 0.10298808 -0.23357795 -0.5573523 -0.1764651 0.2635432 -0.2288353 0.26995495 0.16864727 0.1830826 -0.06101745 0.38129023 -0.011004359 -0.13960406 -0.2662572 -0.027204204 0.26386085 -0.08415695 0.06992133 0.54937524 0.08907039 -0.21265247 -0.2603563 0.14030871 0.62102455 -0.03525355 0.07201038 -0.42126754 -0.16664287 0.23767285 0.3411358 -0.08569364 -0.15869057 0.2766161 0.2306042 -0.46005812 0.06661824 -0.45112208 0.46748868 0.18235888 0.64146477 0.012042099 0.21801993 0.018872125 0.12895988 -0.069249846 0.38406605 -0.09351447 -0.41150388 -0.09743446 -0.028168479 -0.2225434 0.25554672 0.23100837 0.095579155 -0.23259488 -0.03657643 -0.056618933 -0.52040076 -0.26967052 -0.4589663 0.14766398 -0.6409816 0.12661819 -0.11288762 0.12554553 0.35234213 -0.021018406 -0.6887608 0.2835317 -0.013581989 0.10706074 0.04807614 0.14921746 -0.38893652 0.31904742 0.07804776 0.46854725 -0.042442728 0.11105108 0.0056641474 0.21369047 0.21909894 0.12333068 -0.0033975479 -0.3366441 0.27857575 0.016333334 -0.0020159795 -0.08592916 -0.16500299 0.01777755 -0.05691093 0.017674861 0.14720227 -0.2418451 0.020404793 -0.060806017 -0.06425131 -0.36935034 0.037916966 -0.09765773 0.18001215 -0.16659713 -0.10499585 -0.34431583 -0.018508222 0.3497285 -0.13831744 -0.07276398 -0.37830552 -0.33862597
67 -0.16681454 -0.022488605 -0.00044747797 0.7793237 0.56413233 0.07879085 -0.61966026 0.82146376 -0.17288853 0.26858896 -0.18509872 0.16279213 0.16134538 -0.08502802 0.18785015 -0.3637614 -0.33386114 0.2955605 -0.3092819 0.161494 -0.19580534 0.02814213 -0.17347454 0.17759164 -0.3180911 0.01699159 -0.17949727 0.086057186 -0.093079165 0.007886937 -0.095361665 -0.22774138 -0.47303 0.3792727 -0.22956315 0.22102825 0.18465343 -0.2673153 0.2856074 0.045866676 0.3319256 0.05033691 0.033753965 -0.30746147 0.039957657 0.11371901 0.2768419 0.028476194 -0.14089967 -0.3543561 -0.058621604 -0.045097906 0.06287979 -0.34394792 0.2587483 0.10949507 0.31258106 -0.3850625 -0.06977958 0.18636581 0.23534083 0.08723676 -0.13964362 0.0020892615 -0.11850546 -0.048193265 0.23210417 -0.25923905 -0.02238883 0.042793933 0.46708503 -0.15981443 -0.14196448 -0.33536968 -0.041427467 0.04267927 -0.23370613 0.13849115 -0.5707928 0.011403836 0.5572493 0.3219307 0.22457798 -0.3350779 0.3565097 -0.30949914 -0.16170074 0.029250193 -0.15531741 -0.0722087 -0.3372395 0.06211623 -0.47906566 0.3346287 0.2808388 0.103097714 0.010161057 0.13106744 -0.006434853 0.08895486 -0.23194039 -0.16409926 0.0067752427 -0.40589184 0.06741256 -0.27921534 0.05362394 -0.19704431 0.017362041 -0.061792176 -0.29628462 -0.2554597 -0.09823443 0.55547285 0.6432686 0.318881 0.48679617 -0.18630576 0.3245717 -0.04626307 0.17162 -0.07555828 -0.15815936 0.12409304 -0.05083954 -0.1410562 0.046143316 -0.06727703
18 0.032917563 -0.43609974 -0.0586082 0.6804243 0.42049995 0.2828308 -0.19910067 0.6373521 0.056120176 0.11567792 0.1251885 0.35464153 -0.2519428 -0.14752705 -0.2883895 -0.30141312 -0.5127874 0.055222917 -0.15064062 -0.31978175 -0.08693708 0.15716974 -0.24978805 0.23252188 0.15518019 0.23014805 -0.16394454 0.44537935 -0.060266975 -0.15781946 -0.22785424 -0.10050981 0.2070126 0.030965053 -0.07041729 0.5139502 0.14840265 -0.25596794 -0.20480077 -0.020255772 0.69648176 -0.13963072 0.1012487 -0.3125456 -0.14911313 0.16580822 0.24751562 -0.14324257 -0.283282 0.19693644 0.18641256 -0.3555634 0.109798975 -0.38411734 0.50407934 0.034572516 0.4719672 -0.06578935 0.252404 0.10305863 0.0029259415 -0.20025803 0.21314771 -0.12060113 -0.32731763 -0.1926234 0.142946 -0.2653468 0.247506 0.19087873 0.2614506 -0.3380974 0.13839772 -0.18645322 -0.37684503 -0.25562963 -0.4476714 0.2255392 -0.56055313 0.10911143 -0.07302113 0.25173187 0.3495235 -0.17449214 -0.50350356 0.16237697 -0.11877727 -0.076202825 -0.0030297737 0.034623407 -0.31093314 0.35785288 -0.11121044 0.41594097 -0.07126219 0.123155005 0.029730245 0.22505292 0.123264946 0.10853552 0.002295011 -0.28091693 0.23466186 0.033507224 -0.04514679 -0.018387916 -0.30302912 -0.052802242 -0.020827478 0.0030286005 0.12022228 -0.33419567 0.10440935 0.05524288 0.03985137 -0.33828607 0.008632917 -0.14633568 0.13264476 -0.1562434 -0.062029842 -0.26329985 -0.104900345 0.40272924 -0.09981147 -0.040048175 -0.26319727 -0.43923762
63 -0.13965452 -0.13677998 -0.08091819 0.8428528 0.5811581 0.16555135 -0.6233396 0.9398542 -0.051190518 0.41126418 -0.11078471 0.30295196 0.07366058 -0.0031184615 0.21041961 -0.3879807 -0.44610947 0.2365738 -0.42459205 0.1409893 -0.2603779 0.14130674 -0.20852184 0.2626461 -0.2876029 -0.008842221 -0.12349702 0.14228927 -0.003163279 -0.010749634 -0.15325221 -0.2860761 -0.49916336 0.27792266 -0.20247662 0.2915772 0.20471616 -0.3808115 0.22409244 0.17024972 0.46540532 0.054468863 0.05373756 -0.26825246 -0.036932126 0.11116037 0.42510492 0.050741736 -0.11595709 -0.2406743 -0.0040417006 -0.06425745 0.064823516 -0.42787918 0.40050548 0.072128065 0.50987285 -0.44958523 -0.082397394 0.13146539 0.27756968 0.16770756 -0.094010934 -0.031209929 -0.17812988 -0.09602671 0.2201825 -0.27699414 0.0612307 0.009774602 0.4351101 -0.0963042 -0.054639444 -0.3966378 -0.1265589 -0.021065094 -0.32670054 0.20735683 -0.7356669 0.03501866 0.49477777 0.3488242 0.3531327 -0.40318528 0.30037478 -0.31691405 -0.14842507 -0.013531328 -0.15860382 -0.047562823 -0.3781119 -0.014596663 -0.43892708 0.5553429 0.28836718 0.2710036 -0.007342509 0.17093094 0.036048133 -0.017332422 -0.21452579 -0.23898277 -0.08155506 -0.32534856 0.11994081 -0.37170652 0.0056567774 -0.3206022 0.045744065 0.006227036 -0.30852038 -0.21378183 -0.13113578 0.5588851 0.6164556 0.13390642 0.40894517 -0.18879469 0.2795871 -0.05292177 0.06034873 -0.18436264 -0.18422528 0.1718381 -0.058010034 -0.09810372 0.048121367 -0.074611485
30 -0.21845098 0.12897609 0.14386196 0.7203282 0.60384655 0.114553854 -0.6215366 0.6221335 -0.2633895 0.10366857 -0.22775404 -0.07230374 0.19778661 -0.0009246414 0.14615685 -0.35685375 -0.34844196 0.37688544 -0.20771155 0.22888133 -0.11064965 -0.062846355 -0.26206672 0.13580112 -0.22237332 0.16205339 -0.28321323 0.162822 -0.20538075 -0.036143713 0.027132666 -0.26828644 -0.3228996 0.34229067 -0.23460014 0.27679062 0.32357556 -0.3451425 0.34674636 -0.09164517 0.29283607 0.011325794 -0.026807558 -0.39226365 0.19021958 0.18961291 0.045595583 -0.029278021 -0.13151978 -0.46767938 -0.11764203 -0.11470762 0.093991145 -0.29410005 0.22559482 0.20241126 0.15147406 -0.1475685 0.0881916 0.32735184 0.15666354 -0.036921795 -0.19470674 -0.02513642 -0.16788296 -0.04029742 0.21837787 -0.4054915 -0.0024897421 0.019388184 0.4254242 -0.3976916 -0.28119576 -0.166945 0.035549026 0.10138695 -0.056400947 0.14103208 -0.566904 -0.09619054 0.5140334 0.28393173 0.16851331 -0.30704322 0.37413403 -0.18307814 -0.13346528 0.13492486 -0.29199585 -0.16543378 -0.26253083 0.24849959 -0.5298531 0.3387231 0.2440606 -0.119999506 0.04733468 0.1948804 -0.012383914 0.37263063 -0.20566791 -0.20634934 0.23162095 -0.38273782 0.10645729 -0.14119828 0.040793672 -0.02059767 -0.065109424 -0.09959174 -0.26130027 -0.28350902 -0.029713254 0.52433753 0.5531237 0.45922145 0.67124236 -0.27427638 0.3908229 -0.16249058 0.29833102 -0.094719864 -0.21323738 0.29959327 0.015249019 -0.221038 -0.03571096 -0.04547103
128 0.095532395 0.024870073 -0.2088756 0.057807922 0.060567036 -0.17853288 -0.42615855 -0.038574047 -0.53263426 0.10686823 -0.021809971 -0.916756 0.17311299 0.1318166 0.10143527 -0.28170145 -0.18973081 -0.29461938 -0.6450951 0.271881 -0.47285122 0.07613347 -0.109286994 0.09256634 -0.34913027 0.4113771 -0.014695495 -0.30692557 -0.32954627 0.09375689 0.051559903 -0.19426034 -0.2847234 0.026192157 0.20105715 0.17515546 -0.22402838 -0.69419205 0.1688803 -0.1478089 0.08091886 -0.42091265 -0.3919342 0.3051855 -0.122109056 -0.16948748 -0.17052278 0.1018157 -0.1668774 -0.08760299 0.008462228 0.5401227 -0.5066824 -0.23534541 0.07238444 -0.11522203 0.3250532 0.2616601 0.36389327 -0.6697728 0.17906372 0.23867607 0.05484065 0.08786393 -0.2172403 0.19371831 0.07734813 -0.27059454 0.012126215 0.15065259 -0.2860143 -0.15312672 -0.39956287 0.40212038 0.21576259 -0.011957886 0.22610068 0.15413143 -0.40090537 0.30882177 0.3643897 0.33582476 0.10473514 0.15997979 -0.2534235 0.099115565 -0.20412757 0.3733834 -0.31913146 -0.082352325 -0.3023781 0.06254762 -0.32632974 -0.116073176 0.3932693 0.16594486 -0.29427537 0.13638721 0.49888194 0.03940379 -0.0746316 0.059273317 -0.20350802 -0.32237968 -0.06351068 -0.1232643 0.33206275 0.32793373 -0.3253509 -0.045486726 -0.08371133 0.4663383 -0.18083179 0.007216023 0.5157807 0.10523437 -0.051934864 -0.26479882 0.050686553 -0.52565813 0.13280934 -0.10531601 -0.05126374 0.10742759 0.3025729 -0.24043122 0.027670195 0.46119383
39 -0.017186264 -0.45114964 -0.10426836 0.6634547 0.37715292 0.3215026 -0.2243708 0.6316552 0.085520804 0.21153726 0.10072591 0.38573313 -0.26074484 -0.07840281 -0.22144727 -0.29569134 -0.52671736 0.0016724792 -0.17995661 -0.23131306 -0.10907228 0.16630796 -0.20565861 0.24143071 0.12354689 0.2157559 -0.16249007 0.4320417 -0.006325102 -0.14969252 -0.22954288 -0.13944481 0.1409902 0.032751486 -0.07571777 0.5040985 0.16265479 -0.2792535 -0.1301742 0.013692234 0.7019428 -0.12730432 0.12139294 -0.2270744 -0.18702875 0.13292508 0.25560677 -0.12310109 -0.2586778 0.18823552 0.16103698 -0.3055761 0.10473314 -0.38104093 0.5273594 0.0031934422 0.5009713 -0.10214552 0.205617 0.050555803 0.027854815 -0.13838966 0.15775661 -0.13150947 -0.32661885 -0.19510137 0.16839501 -0.26971817 0.25617903 0.16590142 0.2494632 -0.29997262 0.17237426 -0.21452193 -0.3617653 -0.20780653 -0.40452367 0.27052283 -0.57152236 0.12559219 -0.015259166 0.26204234 0.39359808 -0.21555915 -0.44846046 0.078733884 -0.14561124 -0.1053209 -0.046794496 0.03130561 -0.31541032 0.27410278 -0.14917867 0.49358332 -0.05347521 0.18861324 0.020631135 0.24072689 0.110596664 0.04084754 0.023127092 -0.25978357 0.13472259 0.018080574 -0.013490918 -0.014665083 -0.31325653 -0.12442106 0.013492173 0.030490266 0.1022176 -0.27292112 0.062602274 0.1091505 0.08049596 -0.32517174 -0.030648043 -0.16339234 0.10927116 -0.13533476 -0.083137766 -0.2694651 -0.112148516 0.36889613 -0.09753799 -0.026484068 -0.18326321 -0.4104887
61 -0.17294426 -0.17710187 -0.081069045 0.7801067 0.48930207 0.16602278 -0.56153303 0.86682117 -0.021785565 0.3845043 -0.11657743 0.33698383 0.034501117 -0.025890527 0.19395329 -0.33368564 -0.38982987 0.19163226 -0.3492028 0.12924886 -0.19879755 0.0948143 -0.1484608 0.22199199 -0.25711286 0.014669964 -0.1392097 0.15641154 0.016063878 -0.0051819705 -0.16478394 -0.22403558 -0.4234358 0.29856482 -0.18403937 0.27579847 0.18123758 -0.27421018 0.21512924 0.13177516 0.438374 0.047706146 0.09294514 -0.23288344 -0.07217858 0.06625558 0.37425244 0.04573763 -0.14023052 -0.19618826 -0.009828042 -0.046114653 0.0785347 -0.39036012 0.37113154 0.027034119 0.45452943 -0.4458176 -0.107432604 0.12126202 0.23042506 0.11223148 -0.11506199 -0.04228667 -0.14637804 -0.09401259 0.22634166 -0.22279519 0.04747157 0.027372349 0.43720847 -0.090915844 0.0020722174 -0.40670758 -0.13516305 0.009822746 -0.29229143 0.20707949 -0.6179874 0.08132062 0.4924886 0.3373291 0.34119105 -0.39068258 0.23890337 -0.32968792 -0.17875582 -0.05949259 -0.11022165 -0.04273079 -0.36189955 -0.015425477 -0.4019343 0.46226004 0.24500488 0.24508262 -0.011561729 0.16655217 0.007849384 -0.046189494 -0.17373599 -0.18945846 -0.100165166 -0.31251547 0.08579559 -0.265601 -0.045318916 -0.3185134 0.08085397 0.0013529263 -0.2570895 -0.21061896 -0.11623425 0.526146 0.57421327 0.123846985 0.31353045 -0.15226378 0.240821 -0.036222536 0.045760952 -0.14363337 -0.15107489 0.13923475 -0.09947812 -0.07249861 0.073417865 -0.11465858
74 -0.1664304 -0.07353462 -0.05175299 0.8258033 0.5674164 0.12196163 -0.6368674 0.90115696 -0.12720826 0.3416139 -0.1476453 0.17851427 0.12888089 -0.026038172 0.22996648 -0.39049268 -0.392394 0.25382593 -0.38723907 0.19488853 -0.23489648 0.082383126 -0.19430268 0.22241837 -0.33125183 0.0034593607 -0.15393277 0.08164878 -0.059929866 0.006617121 -0.103028834 -0.2700059 -0.51725096 0.33656338 -0.23634699 0.22482745 0.18736263 -0.36740518 0.26032838 0.09448278 0.39444253 0.037825305 0.02241945 -0.2664069 0.008830224 0.100730054 0.3483262 0.04372917 -0.13701168 -0.32310256 -0.038801998 0.0018856365 0.03247065 -0.3723741 0.31356257 0.07084546 0.38194594 -0.42339706 -0.07391902 0.13721098 0.26340482 0.13373101 -0.13823733 -0.006244327 -0.13454185 -0.077286616 0.23870486 -0.2580723 0.0014642392 0.02998509 0.45099354 -0.11941929 -0.09115366 -0.36171198 -0.03240787 0.008874357 -0.2714053 0.16838993 -0.6481629 0.021052508 0.5377239 0.34760758 0.27457103 -0.37147975 0.37011015 -0.3269001 -0.16603841 0.0059372643 -0.17085825 -0.07575736 -0.3502217 0.012837343 -0.48159155 0.42581743 0.30626658 0.19117475 -0.011528296 0.14968021 0.017645359 0.035462156 -0.24593033 -0.18681408 -0.051966827 -0.3719888 0.07670021 -0.34471136 0.048303273 -0.25590846 0.0026512754 -0.03272231 -0.32293513 -0.21533582 -0.100178614 0.5676098 0.66890675 0.22509836 0.45231754 -0.19083473 0.28755093 -0.056237016 0.13425861 -0.10851313 -0.18097942 0.14443175 -0.03257552 -0.12947838 0.075898126 -0.04500125
77 -0.12624158 -0.1038907 -0.042165276 0.743153 0.54007477 0.17392318 -0.5391959 0.81438273 -0.059636515 0.32122713 -0.10480113 0.2441764 0.06599431 -0.01157086 0.15900737 -0.3487803 -0.4059495 0.23146172 -0.32455182 0.12501341 -0.20813864 0.11036633 -0.21140577 0.21606447 -0.20473947 0.008923058 -0.14651711 0.15550077 -0.026265914 -0.040933732 -0.11799757 -0.25788218 -0.39459333 0.23653568 -0.21617039 0.265001 0.20851484 -0.33174905 0.19702509 0.11647695 0.42204258 0.051781163 0.043746073 -0.27746832 0.0040566083 0.12913948 0.3306416 0.011517904 -0.10448773 -0.24336432 -0.02884368 -0.10489041 0.07786609 -0.3621646 0.3589005 0.10012648 0.39951432 -0.35052818 -0.031887002 0.18318301 0.21451396 0.0902458 -0.07391922 -0.03923664 -0.17551222 -0.08645822 0.20438033 -0.28090104 0.06269264 0.020860614 0.39659134 -0.15694475 -0.068230584 -0.33639917 -0.11201164 -0.015737146 -0.2769305 0.1793074 -0.62123513 0.00021228369 0.41067195 0.29429138 0.30450696 -0.36088097 0.25393108 -0.24830677 -0.1257262 -0.012219845 -0.15621668 -0.04774021 -0.31895983 0.04065346 -0.3916083 0.48275793 0.2202022 0.18030806 0.01680533 0.16808143 0.007324042 0.04484395 -0.17806485 -0.22493394 -0.0058656475 -0.27979103 0.12083218 -0.28323033 -0.018616412 -0.25006863 0.025947008 -0.0029994647 -0.25361922 -0.2236199 -0.079181455 0.49263418 0.51785356 0.1309249 0.41008914 -0.18372522 0.24879867 -0.04669099 0.089042276 -0.15317395 -0.16906081 0.19500017 -0.048670072 -0.10588092 0.016279148 -0.10227651
41 -0.1588197 -0.15373623 -0.07322277 0.73196673 0.47609758 0.16358481 -0.54097396 0.77884156 -0.04803102 0.34512275 -0.12176373 0.29979503 0.031226711 -0.021725174 0.15277922 -0.31739154 -0.39077595 0.18677606 -0.32492453 0.116638444 -0.18759127 0.07940677 -0.13592969 0.20904566 -0.22548062 0.041662753 -0.15952525 0.18199436 -0.004385597 -0.016894026 -0.15056512 -0.20771849 -0.36103627 0.28389555 -0.16625796 0.31245577 0.19687542 -0.2632065 0.2316205 0.10243018 0.43292335 0.03367679 0.08319682 -0.233021 -0.059599143 0.08138589 0.3055862 0.031155344 -0.1322256 -0.19606474 -0.012207872 -0.077733226 0.07313393 -0.37596926 0.36144873 0.04363144 0.42643762 -0.36856169 -0.07249627 0.12663007 0.20139131 0.09409335 -0.09731713 -0.057010006 -0.16891536 -0.08599723 0.2199033 -0.25854984 0.066584885 0.028325984 0.39749512 -0.13957784 -0.026634023 -0.34954983 -0.13182575 0.019250624 -0.24450123 0.2185951 -0.5967692 0.08008458 0.47490326 0.30872884 0.32466313 -0.35445642 0.19117823 -0.28886637 -0.17130047 -0.032126874 -0.14308886 -0.03950127 -0.34841263 0.030120058 -0.40304866 0.45321786 0.21609078 0.19802341 0.0007282578 0.18324031 0.016498039 -0.001624025 -0.14351934 -0.18171494 -0.05413675 -0.3127501 0.087636136 -0.21929795 -0.050311066 -0.2742311 0.073904425 -0.004464854 -0.22204882 -0.21573828 -0.11835097 0.49372935 0.5176026 0.15527518 0.317512 -0.18133096 0.26252323 -0.06008914 0.054726873 -0.14227672 -0.14144754 0.1658938 -0.08561701 -0.09069973 0.053112045 -0.1179321
46 0.08713074 -0.48651063 -0.11236111 0.6633475 0.4109211 0.28609774 -0.19964954 0.6604945 0.06390324 0.14539658 0.16394947 0.3528785 -0.28672326 -0.14935352 -0.3101284 -0.32126126 -0.5413038 -0.018696388 -0.22118028 -0.36776388 -0.14733833 0.21345834 -0.24838221 0.26907286 0.15159811 0.24244308 -0.13167427 0.43928847 -0.05016425 -0.16453736 -0.2577891 -0.10866806 0.21430174 -0.021169938 -0.026749855 0.55053955 0.09683607 -0.30953625 -0.24462621 0.021569941 0.75719094 -0.17229505 0.07294299 -0.26177365 -0.21552001 0.15010214 0.29530892 -0.1301169 -0.28035966 0.2592999 0.23107629 -0.33737415 0.05989992 -0.42772886 0.546504 0.006974656 0.5676301 -0.066382244 0.2652472 -0.0027011414 0.02987684 -0.1498699 0.25028452 -0.120512545 -0.36608934 -0.19062455 0.13444987 -0.2646453 0.28241217 0.21016245 0.21367967 -0.3003101 0.15155444 -0.16434021 -0.40627694 -0.2876164 -0.48521003 0.24263197 -0.6145229 0.16425997 -0.09195799 0.26369062 0.3868945 -0.1519442 -0.60739183 0.18356664 -0.1253944 -0.06897755 0.005629615 0.058737844 -0.34890643 0.3345591 -0.08829303 0.46135333 -0.065742 0.20072427 0.0027575428 0.22660524 0.18685143 0.042948667 0.017740777 -0.2901345 0.17909935 0.04145207 -0.05188198 -0.04023375 -0.28352797 -0.05209566 -0.031073727 0.026394557 0.13877402 -0.27763698 0.09176934 0.0060987044 0.038813066 -0.42814597 -0.081402756 -0.15213759 0.104554005 -0.18037906 -0.10202046 -0.3029936 -0.089518264 0.3893819 -0.095131546 -0.03851142 -0.27616107 -0.4361538
10 -0.23728786 0.22622702 0.30792812 0.613305 0.6021063 0.06074635 -0.57699686 0.3932201 -0.3284865 -0.1313466 -0.23823678 -0.22666606 0.20488444 0.024034526 0.05959664 -0.29447973 -0.3119335 0.4294822 -0.09327121 0.16114552 0.0027200158 -0.16562018 -0.29870752 0.097206794 -0.15196295 0.3173819 -0.3626885 0.2616934 -0.32643762 -0.06752573 0.09796128 -0.1876031 -0.084107354 0.31880376 -0.14724232 0.3759974 0.39449996 -0.29578063 0.33409318 -0.22878999 0.24059686 -0.041373268 -0.07381603 -0.48754537 0.30405486 0.21105488 -0.1483287 -0.041483596 -0.13670969 -0.48399204 -0.106048025 -0.17767945 0.117576554 -0.2812002 0.16313879 0.20965567 0.02787725 0.06287239 0.1836718 0.42304927 0.07577969 -0.15002503 -0.25141254 -0.05203338 -0.18831708 -0.023311589 0.16590005 -0.4598172 0.019902112 -0.00089069275 0.3752141 -0.5664676 -0.41855395 -0.003262097 0.08405194 0.16778511 0.07512697 0.10669256 -0.5156411 -0.123727754 0.4734976 0.22915155 0.08981092 -0.24807268 0.26743063 -0.036871884 -0.10657326 0.23574114 -0.31377304 -0.22502454 -0.21147957 0.44716445 -0.52264297 0.23800142 0.17887484 -0.34296745 0.055250946 0.21053042 3.644952e-05 0.60012776 -0.17370974 -0.22725078 0.4386917 -0.35596323 0.08015474 0.04409235 0.039165273 0.17608677 -0.10251483 -0.13916951 -0.20218424 -0.33127663 0.021449944 0.41176292 0.4169513 0.567864 0.74827653 -0.30957344 0.46440277 -0.30588454 0.3567325 -0.123747446 -0.21889892 0.4174639 0.018428892 -0.27883562 -0.1381639 -0.05507581
64 -0.03265332 -0.44852558 -0.090882674 0.67343867 0.37543347 0.32578006 -0.24206544 0.6403139 0.10378527 0.24084194 0.0986461 0.41196713 -0.2672096 -0.051927652 -0.20951986 -0.27945223 -0.5488082 0.0076052356 -0.19723102 -0.22151288 -0.11037619 0.17524545 -0.22125924 0.23674758 0.11810554 0.20563161 -0.1432465 0.45449558 0.0016958734 -0.13976921 -0.23944123 -0.15250577 0.12938686 0.013977842 -0.04727962 0.52467495 0.16752559 -0.28817922 -0.12850846 0.04591931 0.68635464 -0.121554546 0.12065665 -0.22955205 -0.1760558 0.119367 0.27870053 -0.103307776 -0.24636611 0.20071828 0.17168243 -0.31579232 0.11746332 -0.407531 0.5500249 0.002018971 0.54563886 -0.116731934 0.19897164 0.06030384 0.035574965 -0.11683849 0.15643056 -0.13237837 -0.32449844 -0.19322829 0.15412287 -0.27673605 0.27252796 0.13909537 0.24940625 -0.2830969 0.15231122 -0.23104282 -0.38711134 -0.20938663 -0.40560395 0.2698892 -0.6161607 0.12747099 -0.007420779 0.2785948 0.41757903 -0.23240635 -0.43064207 0.06260773 -0.13128853 -0.107441545 -0.05024104 0.020057485 -0.3165133 0.26872796 -0.16121018 0.53086275 -0.038350172 0.21677949 0.020713879 0.23657468 0.11344311 0.027135352 0.032837592 -0.28298676 0.13183089 0.024110675 0.004883998 -0.050737362 -0.31278342 -0.1525145 0.037835997 0.033265755 0.07472212 -0.278405 0.034502216 0.12158758 0.093244344 -0.32558477 -0.016689088 -0.16106603 0.13010138 -0.15331161 -0.10008573 -0.2972169 -0.12568943 0.37602335 -0.09407228 -0.008619422 -0.19765757 -0.387423
79 -0.16932811 0.069742315 0.04646767 0.7616292 0.6117334 0.104095 -0.6393947 0.77462006 -0.2047155 0.2222486 -0.20253651 0.09235096 0.19548805 -0.04276537 0.18397295 -0.37054908 -0.35289028 0.35463434 -0.2842708 0.18757564 -0.1905018 0.016961003 -0.21204828 0.18900527 -0.29244065 0.048462875 -0.21139404 0.11520913 -0.120056964 -0.019196386 -0.034835547 -0.27032286 -0.44588807 0.34807894 -0.23996586 0.24946614 0.26624718 -0.32437488 0.33188814 0.032609332 0.32517222 0.069480106 0.014966862 -0.35597613 0.10826351 0.17393428 0.20850827 0.008055424 -0.10260378 -0.41291365 -0.08981473 -0.09922619 0.08715524 -0.32843536 0.24751982 0.18082899 0.27387032 -0.29630882 -0.026874162 0.25906438 0.23326355 0.07362455 -0.15251206 -0.01886682 -0.15544866 -0.052067667 0.22669022 -0.3384402 -0.003722685 0.020424064 0.4434885 -0.23900935 -0.21898086 -0.26554275 -0.011579013 0.068819545 -0.16096708 0.1408333 -0.60936683 -0.059809364 0.5537203 0.2953209 0.20896691 -0.32155418 0.39901164 -0.2686508 -0.1327854 0.08727596 -0.23563625 -0.1036199 -0.31221732 0.12570298 -0.50076014 0.40322593 0.27037904 0.029699724 0.02952646 0.1617962 -0.016714368 0.20079437 -0.22473729 -0.20402834 0.09540358 -0.4081214 0.1049873 -0.261665 0.067059375 -0.1367155 -0.023115793 -0.06305178 -0.3022834 -0.2661691 -0.089532584 0.5697676 0.6119732 0.38988164 0.6044927 -0.22728683 0.37498185 -0.07435011 0.2165231 -0.099072464 -0.18975537 0.19283728 -0.013254855 -0.18132475 0.013322969 -0.05376238
97 -0.013209862 -0.4103729 -0.139954 0.6498204 0.3466273 0.24253823 -0.2525793 0.6634762 0.07294051 0.24840999 0.08160229 0.39782795 -0.21244915 -0.105744064 -0.14904566 -0.2816551 -0.4459901 0.008207683 -0.23157573 -0.20864569 -0.1305766 0.16483442 -0.15040201 0.23336804 0.021033283 0.14627126 -0.11032954 0.33989933 0.027704665 -0.08988355 -0.2386522 -0.115444705 0.031917937 0.08745823 -0.055916145 0.42285475 0.10141631 -0.23346217 -0.10015285 0.05858153 0.61532176 -0.10426819 0.131559 -0.19416578 -0.21228065 0.08904501 0.31020615 -0.063713856 -0.24647966 0.17589799 0.15782253 -0.22129762 0.07150029 -0.37777382 0.46459052 -0.017472891 0.51117885 -0.19100142 0.11475797 -0.00462265 0.07823823 -0.06265101 0.14406353 -0.09903762 -0.26146 -0.1656178 0.1539707 -0.18515664 0.19482507 0.16067325 0.2584853 -0.17376849 0.17396303 -0.25592908 -0.3402141 -0.19017075 -0.41357684 0.23749521 -0.5505504 0.15144469 0.06626561 0.26577094 0.36580667 -0.19494006 -0.3550222 -0.0066758273 -0.15041268 -0.10935362 -0.006303791 0.03695862 -0.3296634 0.18115208 -0.14322343 0.42185906 0.015905721 0.23794776 -0.0007723882 0.19805178 0.107840165 -0.04748144 -0.017524052 -0.21948577 0.043019745 -0.036891457 -0.035126425 -0.095821135 -0.24713606 -0.17110975 0.036522195 0.02092797 0.041962374 -0.24025287 0.008994783 0.15342411 0.1642686 -0.2792221 -0.048291296 -0.11982048 0.11686577 -0.100353174 -0.09379388 -0.22767942 -0.08912422 0.26510358 -0.10175087 -0.012020943 -0.13044184 -0.33956674
80 0.3568289 -0.20140225 -0.07728567 0.32690826 0.43777514 0.031700246 -0.11738447 0.39845502 -0.013062709 -0.056844514 0.19020574 0.3013687 -0.12896915 -0.28945002 -0.3565715 -0.24574557 -0.23516943 0.100825 -0.26721555 -0.6290638 -0.19753307 0.28810173 -0.19812647 0.26299348 0.14136885 0.17266744 -0.014175006 0.30784625 -0.0048721437 -0.11179721 -0.26033032 0.03360946 0.28479105 -0.11771043 0.14285108 0.5225992 0.043270048 -0.170896 -0.26505807 0.18989025 0.5244224 -0.012673057 0.027693909 -0.41859114 -0.16834936 0.24609786 0.3361022 -0.03866083 -0.09627417 0.28021362 0.24392827 -0.43738136 0.021859474 -0.44389352 0.39119688 0.21579462 0.6483624 0.0619646 0.18599449 -0.054335147 0.17517178 -0.00032070884 0.41133678 -0.079126604 -0.40712854 -0.028776435 -0.107634924 -0.18486297 0.23179701 0.24062188 -0.0045191487 -0.17812069 -0.13258506 0.040005427 -0.51537883 -0.24562456 -0.40939978 0.096887335 -0.6142601 0.1459003 -0.103105806 0.047949836 0.31724027 0.06523094 -0.7368494 0.3227931 0.021379232 0.19142988 0.082010694 0.18897665 -0.39196506 0.27324077 0.16083711 0.41901997 -0.00900641 0.07715528 -0.03083201 0.1886929 0.25825265 0.12083091 -0.010365715 -0.3191233 0.269531 -0.004450579 -0.0052686865 -0.08146971 -0.074993916 0.07878585 -0.06994952 0.014806483 0.15933001 -0.14456679 -0.010232955 -0.13120523 -0.09627225 -0.34438685 0.035692707 -0.072369926 0.18648799 -0.18239474 -0.111288995 -0.3454878 0.031034682 0.29992676 -0.15087982 -0.09642982 -0.39512926 -0.24195997
129 -0.05659273 -0.18245754 0.07454411 0.27557412 0.029815262 -0.29982224 -0.18895358 0.089897305 -0.23294008 -0.39976668 0.10694931 -0.6621497 -0.07899616 0.035546858 0.1056319 -0.2628339 0.07683971 -0.14569224 -0.3653009 -0.062794834 0.12006508 -0.22153181 -0.13007535 0.18959412 -0.3383527 0.56254125 -0.13811666 -0.16323334 -0.40442914 0.07924891 0.047806613 0.19656612 0.23060502 0.21014178 0.14436287 0.0929308 -0.1575632 -0.3823136 -0.25327834 -0.47998354 0.31100148 -0.45724598 -0.24199915 0.075884275 -0.10412805 -0.31638142 -0.07252612 0.17868379 -0.4088703 -0.021222278 0.18280473 0.65925604 -0.3862524 -0.122238725 -0.07199326 -0.5461298 -0.031700928 0.059650447 0.132596 -0.50798154 0.06396106 -0.1162951 -0.23099086 -0.019093 0.062167834 -0.007969048 0.02106019 0.2645746 -0.12565237 0.18900424 0.03891942 -0.13144241 0.061287068 0.20811722 0.43950468 -0.0066938936 -0.09025321 -0.03200978 -0.11346241 0.28246644 0.17716199 0.22341013 -0.1209365 0.045016866 -0.25705588 0.19311348 -0.22918306 0.13812105 0.15390463 -0.20074576 -0.17731892 0.2330842 -0.11357605 -0.505087 0.2804131 -0.20574915 -0.28249484 0.08523357 0.3364891 0.27476853 -0.2951123 0.08845573 -0.006496501 0.033217885 -0.41539568 0.20903936 0.12610868 0.3278778 -0.34217808 -0.11822076 0.033597026 0.27559832 0.2904634 -0.17890199 0.30651653 -0.18094385 -0.31351894 -0.040958323 -0.11154298 -0.6361994 0.15483409 0.018543053 -0.03011398 0.14719939 -0.024067571 -0.20372239 0.09304316 0.18341224
71 -0.19119623 0.1608902 0.15117975 0.68232626 0.629635 0.11373019 -0.6063118 0.62396646 -0.2124812 0.087809764 -0.21144478 -0.011842891 0.20738658 0.047419604 0.20706764 -0.35321683 -0.29869947 0.41349858 -0.2356029 0.21715131 -0.08988978 -0.045956183 -0.26939854 0.1866019 -0.2386297 0.1351307 -0.27540794 0.15477513 -0.1628803 -0.037958547 0.037203882 -0.2578313 -0.31119624 0.31478006 -0.22650793 0.26262948 0.37102357 -0.3621727 0.34575164 -0.037057474 0.29375494 0.08228746 -0.007257178 -0.4204833 0.19421704 0.20086515 0.09903765 0.00036469093 -0.066328704 -0.48737568 -0.12440262 -0.10992086 0.113517985 -0.2919281 0.21903512 0.19754529 0.17913648 -0.16882946 0.016149461 0.33011973 0.2031335 0.010667619 -0.22656886 -0.05319367 -0.1578563 -0.04901158 0.17306003 -0.35822397 0.0014439721 -0.018562354 0.40103927 -0.3520977 -0.27560645 -0.16539165 0.053852033 0.12958786 -0.06714246 0.1174846 -0.60463107 -0.14501868 0.5195883 0.22324431 0.17488915 -0.34141302 0.4357468 -0.18514402 -0.09835444 0.14688975 -0.27615026 -0.1568267 -0.25982833 0.20240226 -0.4909297 0.4221539 0.25651085 -0.13328707 0.036611494 0.21242885 -0.03911359 0.4031033 -0.2339968 -0.24065053 0.22033468 -0.3412105 0.13980408 -0.14877129 0.055486616 -0.06339575 -0.068073615 -0.07019411 -0.28520906 -0.23560621 -0.025960524 0.53645176 0.5234492 0.43839967 0.7003302 -0.2510401 0.3702096 -0.14821236 0.2830289 -0.12082621 -0.21016417 0.30382672 -0.015696073 -0.2327104 -3.9811828e-05 -0.01170895
84 -0.17679048 0.19346318 0.17775877 0.65277934 0.6417891 0.06691443 -0.6068287 0.5823982 -0.23820285 0.01759097 -0.21354471 -0.067459606 0.22885115 0.039727293 0.20402767 -0.35292587 -0.2394754 0.43806112 -0.24656972 0.18429859 -0.07327793 -0.05900274 -0.27624932 0.18209065 -0.24595088 0.15817206 -0.2738088 0.14350982 -0.18340382 -0.026110081 0.0346021 -0.2283935 -0.2704549 0.3213702 -0.20407753 0.25764182 0.3741261 -0.3605766 0.33548656 -0.034551613 0.2654444 0.09256488 -0.025952287 -0.46484712 0.21110292 0.21216752 0.100024074 0.0061787064 -0.06839937 -0.49900162 -0.12989941 -0.099590376 0.11030772 -0.29452804 0.19668336 0.21279842 0.17828067 -0.14248186 0.02550309 0.32214653 0.2250413 0.0095194075 -0.22495003 -0.04846509 -0.16882114 -0.016272409 0.13197474 -0.33460316 -0.02048668 -0.0001609438 0.38509205 -0.3599846 -0.33091152 -0.13347082 0.0514332 0.13969378 -0.056411654 0.094125345 -0.6065445 -0.14219563 0.52521205 0.20598646 0.16348884 -0.32938474 0.40678614 -0.1513441 -0.08714807 0.20796803 -0.2568506 -0.15013678 -0.27465743 0.21071725 -0.45928958 0.39695558 0.27465934 -0.19345272 0.021854399 0.21499604 -0.0139808785 0.45118517 -0.25744668 -0.24935447 0.25536144 -0.33648053 0.13993278 -0.124345124 0.080599025 -0.029105224 -0.09050864 -0.092090145 -0.28090924 -0.20354235 -0.012850572 0.51817834 0.53100204 0.44497603 0.72998637 -0.23874652 0.37036034 -0.17918006 0.31380376 -0.12777695 -0.19563521 0.3108226 -0.034087073 -0.24833104 -0.015748115 0.039209314
66 -0.13801904 -0.034675922 -0.012874234 0.77059036 0.5958353 0.16438444 -0.5976555 0.81768924 -0.1166498 0.29641414 -0.13242464 0.13507701 0.12170054 0.035858214 0.22315688 -0.39068982 -0.39856717 0.2815135 -0.3749209 0.18880385 -0.21767007 0.08832286 -0.24871537 0.24744543 -0.25578955 0.027897893 -0.1740761 0.10716216 -0.071837105 -0.028288422 -0.06850778 -0.29291373 -0.44678983 0.26121333 -0.24475166 0.24271902 0.25177783 -0.42661053 0.24576709 0.10406225 0.41326442 0.058412664 -0.0008029989 -0.29723552 0.044522043 0.15280175 0.3110493 0.022968471 -0.08544266 -0.34579197 -0.052862655 -0.06049568 0.060984366 -0.345478 0.33569697 0.10843849 0.3636076 -0.3294709 -0.026401792 0.1786191 0.24550168 0.11491282 -0.12981388 -0.035152998 -0.16687043 -0.076839864 0.20810457 -0.30192825 0.042142995 0.0012652602 0.40307078 -0.18357383 -0.124793924 -0.2926986 -0.029650245 0.010289789 -0.23730575 0.17208937 -0.6744908 -0.04951551 0.46477687 0.2944276 0.27951187 -0.37532997 0.36742905 -0.24826473 -0.11760101 0.04256423 -0.20522428 -0.08536036 -0.3102826 0.046703495 -0.44781977 0.5093221 0.27460483 0.126501 0.0032440021 0.18504012 0.020464795 0.13363042 -0.23730122 -0.23835148 0.013386504 -0.30371723 0.13195702 -0.30636433 0.037466016 -0.22475229 -0.026981177 -0.010790712 -0.29856583 -0.17666844 -0.06230544 0.5381302 0.5863324 0.1974309 0.5117697 -0.21520948 0.26633435 -0.07426975 0.15071432 -0.15212703 -0.19624355 0.21433474 -0.025524804 -0.15103531 0.046383094 -0.035784326
29 -0.14048572 -0.1904353 -0.13771923 0.87908036 0.5659308 0.1680501 -0.634824 0.9973704 -0.026858209 0.4505508 -0.1007816 0.34312707 0.0549244 -0.0073597417 0.25090486 -0.41857105 -0.43416923 0.20712964 -0.47474027 0.14515723 -0.2654309 0.1532271 -0.1877273 0.29491398 -0.3256239 -0.011262824 -0.120248064 0.113996215 0.034292098 0.0021049466 -0.18374766 -0.2694448 -0.51978374 0.3010779 -0.21641362 0.2781213 0.1833919 -0.3957575 0.22328752 0.19101068 0.51593214 0.05509567 0.07425174 -0.24366343 -0.09458777 0.08356669 0.47542793 0.07153631 -0.13771088 -0.22951947 -0.0018808821 -0.0034225355 0.041339975 -0.4415353 0.42215213 0.021697914 0.5536825 -0.5088134 -0.12748812 0.057596374 0.3110906 0.18745121 -0.10047389 -0.045535564 -0.17359172 -0.09936581 0.2280073 -0.22529899 0.049707476 0.03555664 0.44533652 -0.054901913 0.009114037 -0.43605447 -0.12188617 -0.02389367 -0.36844778 0.21795043 -0.7505177 0.07668933 0.53459466 0.35937315 0.3871007 -0.42528388 0.29279906 -0.3521493 -0.1780136 -0.040428508 -0.13891296 -0.032293472 -0.41932413 -0.06412287 -0.43275326 0.5667 0.30963588 0.30652386 -0.029681135 0.190832 0.040858056 -0.061046608 -0.23066767 -0.22614984 -0.15269066 -0.3277554 0.09842038 -0.37630633 -0.002160821 -0.37623098 0.048514023 0.012903756 -0.30598232 -0.16520797 -0.13008177 0.58153445 0.66303265 0.07655774 0.34696335 -0.17155436 0.2415874 -0.046933994 0.048251785 -0.17274676 -0.1700455 0.14438824 -0.08584213 -0.100563124 0.10749847 -0.06806284
45 -0.2119567 0.16673468 0.20005502 0.6744239 0.61396086 0.099532515 -0.5867373 0.5714558 -0.23116486 0.006403042 -0.21405171 -0.08864534 0.19774042 0.047325715 0.18178482 -0.33916193 -0.28771234 0.41017407 -0.18844265 0.20687671 -0.045269243 -0.08949335 -0.28808257 0.16535085 -0.21827245 0.17764041 -0.30266586 0.16997355 -0.21882263 -0.04903723 0.06055537 -0.23050915 -0.2453996 0.31583968 -0.23081383 0.26249275 0.3725368 -0.34730527 0.31833938 -0.09932259 0.28261375 0.042850498 -0.040544186 -0.4328551 0.22851625 0.19831717 0.04412128 -0.015023326 -0.097858086 -0.49793622 -0.12008255 -0.10587655 0.1065408 -0.27209824 0.18967555 0.17189944 0.10272155 -0.122062065 0.05816846 0.35221267 0.16359192 -0.049359284 -0.25451285 -0.047523104 -0.14085893 -0.04820341 0.17462079 -0.36331144 -0.009710699 -0.017084604 0.40896332 -0.40059224 -0.29000875 -0.13160862 0.094932005 0.13334346 -0.04988327 0.103127435 -0.5531115 -0.1466431 0.48923656 0.22826263 0.13608345 -0.32785907 0.41006052 -0.14409837 -0.097159 0.15684216 -0.26621324 -0.18423542 -0.22730409 0.257071 -0.49107692 0.34379074 0.23143606 -0.20243636 0.040823795 0.19918023 -0.02810375 0.4543713 -0.23966941 -0.2286764 0.28018454 -0.32290614 0.106788084 -0.09228477 0.052618865 0.002594523 -0.08591524 -0.097852655 -0.26713577 -0.25309676 0.0256302 0.4891248 0.5006116 0.45025823 0.7030783 -0.25405943 0.3685127 -0.18958822 0.3178988 -0.1110312 -0.21591301 0.3260709 -0.015365291 -0.2445849 -0.021942925 -0.020605188
98 0.4722088 -0.049296264 0.0037814612 0.1672896 0.4599989 -0.17023605 -0.088190876 0.24703498 0.04554591 -0.26138622 0.22471803 0.3241347 -0.06745585 -0.29777345 -0.26664424 -0.19756524 0.06000172 0.21303457 -0.3517066 -0.8113494 -0.100474834 0.26167202 -0.18794933 0.30739856 0.064516604 0.18036021 0.04412114 0.23209274 0.04075428 -0.04710081 -0.27227905 0.20092773 0.40009063 -0.1422873 0.3026081 0.4937657 0.053834062 -0.093887866 -0.32974565 0.28652495 0.41525218 0.12851217 0.033270936 -0.57477653 -0.14185768 0.2010048 0.43066278 0.0969063 -0.019029023 0.2929035 0.26020283 -0.37383208 0.009504685 -0.4844381 0.2875486 0.22867635 0.7378075 0.04894948 0.03167151 -0.11418541 0.32845503 0.10958004 0.3942975 -0.07855205 -0.37263483 0.061941132 -0.3256544 0.028773189 0.14982466 0.21909185 -0.12127235 -0.044317733 -0.2502409 0.10186368 -0.5303761 -0.16526379 -0.4090723 -0.03492516 -0.6690928 0.14988975 -0.04948085 -0.082812324 0.27653554 0.108634025 -0.7565305 0.39427704 0.106814645 0.35355407 0.21799201 0.22098929 -0.4393378 0.19647987 0.36182156 0.39172253 0.09695861 -0.04540018 -0.09551796 0.20495094 0.31361178 0.23647366 -0.113626294 -0.35824153 0.31829715 0.047995616 -0.011009219 -0.07914833 0.046675615 0.08888569 -0.09133904 0.01696764 0.11928048 0.0058069024 -0.033920232 -0.18723716 -0.15356804 -0.34531602 0.075951435 0.036341388 0.18855977 -0.29300663 -0.12772435 -0.40870026 0.10423418 0.28131333 -0.29093197 -0.12676285 -0.41317183 -0.031755697
28 -0.08264741 -0.40547687 -0.113436624 0.68883365 0.35729697 0.25631806 -0.2875654 0.68315506 0.07908781 0.28294343 0.030778099 0.44941407 -0.19409508 -0.11077096 -0.11798293 -0.26583332 -0.4485156 0.046966337 -0.19377439 -0.16092756 -0.108264916 0.13525032 -0.14163376 0.18831971 0.019040793 0.1288869 -0.13530421 0.3812173 0.03764371 -0.07339892 -0.26163238 -0.12146747 -0.006228711 0.15081483 -0.07657438 0.42626262 0.13023482 -0.17018524 -0.040469605 0.057764288 0.5816039 -0.0733375 0.15549883 -0.22592391 -0.19024205 0.08808362 0.3041885 -0.074671574 -0.2563165 0.1253373 0.1226549 -0.2442789 0.12342274 -0.39148754 0.4759678 0.014760658 0.50023854 -0.23610774 0.09022741 0.059859876 0.07413971 -0.0739935 0.09768647 -0.09647949 -0.25871056 -0.15019166 0.1797676 -0.20556948 0.18100232 0.14134677 0.32324803 -0.19508973 0.15150791 -0.31436408 -0.36668953 -0.1395738 -0.38979685 0.24111798 -0.53936046 0.15611638 0.14524806 0.28650466 0.38549945 -0.25759813 -0.29406792 -0.07294339 -0.16769853 -0.115681775 -0.009149537 0.024698664 -0.34566846 0.17345579 -0.19040261 0.43623435 0.016923282 0.22136247 0.013681745 0.20536566 0.05952513 -0.049469814 -0.0055682748 -0.22675776 0.054158036 -0.085390285 0.00496685 -0.07406594 -0.2690981 -0.2071342 0.08850217 0.005541432 0.00527714 -0.29305783 -0.0144124795 0.22912982 0.22891054 -0.19097234 0.007922038 -0.11900022 0.1395298 -0.079147294 -0.069987 -0.21367402 -0.10158918 0.26630294 -0.13503732 0.0042451452 -0.11347571 -0.34481555
40 -0.1540957 -0.23606738 -0.12752105 0.76341116 0.43905482 0.18512912 -0.522073 0.8363489 0.001198907 0.41950914 -0.087604396 0.38634083 -0.008931717 -0.03324359 0.15868238 -0.3229339 -0.41038463 0.13861863 -0.36382833 0.090025246 -0.21303664 0.11423672 -0.10710597 0.2216262 -0.23503537 0.019164287 -0.12410787 0.18400623 0.04898557 -0.0016431587 -0.2020794 -0.20625228 -0.3741559 0.28091776 -0.14122228 0.32114494 0.1561626 -0.2692503 0.2024506 0.13887882 0.47246933 0.024326956 0.12065015 -0.19213976 -0.1339595 0.043886133 0.37582123 0.042697355 -0.1575269 -0.11611484 0.020950438 -0.060081564 0.065992996 -0.40927795 0.4013417 0.0022698923 0.50356114 -0.430744 -0.09745837 0.04716603 0.22315082 0.1300291 -0.07232846 -0.054920804 -0.17197037 -0.10341346 0.22583976 -0.21187294 0.080364645 0.04232215 0.3987195 -0.073282205 0.049493592 -0.39598843 -0.18810968 -0.006431216 -0.30572695 0.23976324 -0.6261927 0.121339045 0.46261454 0.33386195 0.36749244 -0.3607914 0.13364051 -0.31778097 -0.188552 -0.06959788 -0.109229535 -0.022661498 -0.38383076 -0.017239796 -0.378717 0.48300907 0.22396114 0.28678775 -0.020499181 0.18308207 0.023640899 -0.09133102 -0.1284612 -0.19096048 -0.13034393 -0.29025653 0.06709912 -0.24908216 -0.07757873 -0.33383143 0.094596736 0.009091787 -0.21399677 -0.1958863 -0.13814868 0.49733037 0.5336938 0.0702938 0.21173398 -0.15263852 0.22705072 -0.04111877 0.00042705107 -0.16398588 -0.13729641 0.13457082 -0.10864289 -0.048708368 0.073648036 -0.14226533
42 -0.14524621 -0.1419658 -0.07641876 0.80355525 0.53837305 0.16548249 -0.5569775 0.861259 -0.1139925 0.3515739 -0.12567195 0.25290364 0.066030346 -0.084761284 0.11859216 -0.36714286 -0.419151 0.22402209 -0.31066015 0.11602071 -0.22922975 0.0913317 -0.16475073 0.20437895 -0.23508345 0.017680394 -0.1567594 0.15859939 -0.043042246 -0.017400278 -0.14129433 -0.2528296 -0.4170736 0.32524726 -0.22607464 0.27965048 0.17644396 -0.28548548 0.22277686 0.073756926 0.42585978 0.011903706 0.07056333 -0.26379094 -0.042278007 0.13251539 0.3088017 -0.013580386 -0.16434573 -0.23729676 -0.017180825 -0.10498386 0.071812525 -0.37230372 0.34899458 0.10303275 0.38840726 -0.3708414 -0.020200346 0.15785995 0.19734943 0.06425531 -0.054480318 -0.026856486 -0.17510733 -0.0838893 0.2604851 -0.29007927 0.044858426 0.07045424 0.4487705 -0.16715537 -0.05150462 -0.35516948 -0.1329698 -0.029224016 -0.28606018 0.20218642 -0.60161006 0.044921506 0.4587314 0.33570302 0.29276988 -0.32984382 0.2214411 -0.275669 -0.170355 -0.027568366 -0.15308759 -0.043489367 -0.3530266 0.06401122 -0.43199927 0.4161752 0.22348192 0.18777308 0.021383906 0.16133277 0.006652168 0.011438608 -0.1733271 -0.18586922 -0.014548422 -0.34619573 0.07774793 -0.2684227 -0.029450703 -0.23029329 0.035321817 -0.03696585 -0.231347 -0.273361 -0.08759003 0.51634985 0.5734451 0.1775867 0.37562472 -0.18995266 0.27941337 -0.026290644 0.10075518 -0.10838062 -0.15561768 0.16012105 -0.043414626 -0.098212615 0.018512882 -0.15992025
60 0.37261716 -0.16421054 -0.07369074 0.27563483 0.42924315 -0.01218014 -0.12804526 0.33078575 0.0128834555 -0.09404096 0.17640834 0.36240363 -0.12194669 -0.30525687 -0.33534667 -0.22198626 -0.1429418 0.12861294 -0.28236705 -0.6907212 -0.16314334 0.26080424 -0.13825044 0.27879634 0.113936685 0.20748901 -0.023069253 0.3186125 0.03481249 -0.088319324 -0.28999755 0.10189885 0.35172203 -0.08598687 0.20806465 0.56727713 0.074130476 -0.112944596 -0.22393346 0.21344534 0.5140269 0.04467675 0.07325336 -0.46012148 -0.20130797 0.23278242 0.33250257 0.0060003945 -0.08586644 0.2969097 0.2395117 -0.4376651 0.03351164 -0.47570276 0.37212119 0.21825227 0.70012426 0.055897478 0.10832174 -0.08790771 0.22415262 0.02801852 0.40255392 -0.09936261 -0.4207382 -0.0043513123 -0.16175938 -0.13319422 0.21654657 0.24737908 -0.042553894 -0.15711908 -0.15204923 0.053185914 -0.5608263 -0.1800328 -0.3797358 0.08986567 -0.63152814 0.1822468 -0.025721895 0.0034985263 0.33363706 0.085235134 -0.7963129 0.31274608 0.013808381 0.2384239 0.099674925 0.20267147 -0.44652584 0.25636294 0.20826921 0.43442878 0.012470621 0.029489541 -0.045575663 0.23223183 0.25860897 0.1558604 -0.004961472 -0.31511697 0.26555943 -0.025471507 -0.012879815 -0.016391413 -0.07845873 0.06304505 -0.044147972 0.012569347 0.17843 -0.10168421 -0.052180465 -0.115624994 -0.114143215 -0.3054722 0.016946286 -0.05750543 0.21971823 -0.2190448 -0.12298264 -0.36440527 0.06935665 0.28703743 -0.23025014 -0.11260684 -0.3785419 -0.2020213
15 -0.21985188 0.18520747 0.1617209 0.631078 0.6053375 0.098593295 -0.62109375 0.5348164 -0.22140045 0.07870334 -0.23788677 -0.055730682 0.21298638 0.08395863 0.22962916 -0.33002836 -0.26592597 0.4105814 -0.23845951 0.23671508 -0.08337419 -0.07505488 -0.25085717 0.17195573 -0.22954424 0.1812283 -0.29771888 0.1687474 -0.15798476 -0.035919912 0.031604078 -0.2398261 -0.27713612 0.3242808 -0.19790933 0.29551786 0.39626655 -0.3450316 0.39719966 -0.041301526 0.26804894 0.0894942 -0.0064157792 -0.42653042 0.19716217 0.1936306 0.050652716 0.011845401 -0.06770174 -0.49731898 -0.15085997 -0.10240798 0.11588972 -0.30495104 0.22045441 0.20348097 0.18578269 -0.12348327 0.019244106 0.3259265 0.1985052 0.012144695 -0.24696155 -0.066658646 -0.18461408 -0.008811209 0.15924138 -0.3775879 0.00616561 -0.022522232 0.3610783 -0.3830392 -0.31927368 -0.13107197 0.038359128 0.17621957 0.0102494825 0.14526205 -0.6016998 -0.11029802 0.5706831 0.21213898 0.20073491 -0.3499801 0.40359518 -0.18168049 -0.10402603 0.19133867 -0.3035011 -0.15684071 -0.28089935 0.19810577 -0.48253527 0.43057925 0.26722348 -0.17714024 0.023374863 0.24987166 -0.026428437 0.43072388 -0.20771807 -0.23372376 0.2175593 -0.358778 0.16510557 -0.07553523 0.048908107 -0.057744015 -0.045450754 -0.075796805 -0.27476662 -0.18710862 -0.05039137 0.5490444 0.529983 0.4852115 0.7129461 -0.26645416 0.38071916 -0.19148645 0.2977784 -0.13434158 -0.20229752 0.3288348 -0.044459097 -0.25060922 0.012304509 0.04119427
36 -0.22942702 0.1850713 0.18648401 0.6499109 0.6057415 0.07886682 -0.6161539 0.5353072 -0.26022053 0.029592663 -0.25316763 -0.07637718 0.22454542 0.01883735 0.18637347 -0.33059287 -0.25681263 0.42156792 -0.1927624 0.21691851 -0.0557543 -0.10949448 -0.23531947 0.14000002 -0.23347934 0.20019768 -0.31445205 0.17549689 -0.20384863 -0.029339748 0.036182687 -0.21049725 -0.24871333 0.3598028 -0.19824095 0.29503453 0.37550744 -0.2953316 0.390588 -0.09444921 0.24781932 0.06513247 -0.012517091 -0.44304442 0.21201533 0.1885065 0.0136348605 0.00049131986 -0.09602433 -0.5075798 -0.14681813 -0.1134561 0.11894985 -0.29251426 0.1856709 0.20824435 0.1379724 -0.11551088 0.039131764 0.34356526 0.17456363 -0.03551611 -0.25032324 -0.061905116 -0.1656106 -0.005986843 0.1705599 -0.3805469 -0.014347265 0.0021145556 0.39747155 -0.41347742 -0.32638025 -0.12291089 0.04905076 0.18271911 0.010918888 0.12894036 -0.5509751 -0.10270542 0.5771082 0.22885394 0.158445 -0.32293245 0.38214952 -0.18181817 -0.12363506 0.19311494 -0.2832737 -0.1692299 -0.27744213 0.25076655 -0.4985349 0.3423233 0.25441298 -0.22185062 0.030139297 0.23040454 -0.029492984 0.45094153 -0.20545371 -0.21344253 0.2633786 -0.39078733 0.12380851 -0.049650427 0.046281055 -0.0036421458 -0.058904994 -0.10788374 -0.25686502 -0.24097916 -0.03283439 0.5364868 0.5304781 0.53321606 0.7122235 -0.26128387 0.4106153 -0.1925722 0.32396248 -0.10525641 -0.19296218 0.3185704 -0.041061655 -0.24895996 -0.0103979865 0.00073730585
93 0.40364772 0.0055008703 0.01912821 0.08101945 0.33301267 -0.28648648 -0.07020149 0.13594101 0.020579243 -0.3375366 0.18565589 0.24110416 -0.029504666 -0.28942072 -0.1595487 -0.15168782 0.22623564 0.19498387 -0.33214262 -0.7488517 -0.010152431 0.15333517 -0.08110947 0.27435765 -0.055947673 0.20907825 0.03518094 0.1278147 0.034944862 0.028107857 -0.23704983 0.29156342 0.40647194 -0.031149939 0.3314049 0.38484865 0.020228226 -0.0011505375 -0.2714562 0.19385466 0.3023432 0.1079912 0.049423918 -0.49405068 -0.16691992 0.10370514 0.355307 0.17004555 -0.050227996 0.24213356 0.23441252 -0.18343095 -0.04437141 -0.40508163 0.13327679 0.10987081 0.58990157 0.006236724 -0.078550145 -0.19907208 0.33662617 0.12544903 0.26360244 -0.06970775 -0.25900024 0.08903121 -0.33043554 0.18172896 0.03220669 0.22542858 -0.11485685 0.03994204 -0.19483483 0.11636221 -0.38231203 -0.060503572 -0.31211784 -0.080686055 -0.51025194 0.19201203 0.072009385 -0.119239286 0.17636913 0.14527899 -0.66178924 0.30476275 0.06281126 0.34897465 0.27681577 0.17244756 -0.4166591 0.13346337 0.3627384 0.18756719 0.14829096 -0.12515691 -0.13072217 0.18152227 0.278721 0.22552213 -0.1564294 -0.2552925 0.22308378 0.016928444 -0.092623286 0.021981869 0.09065409 0.099101916 -0.08392059 -0.009208657 0.10531492 0.08718817 -0.021265786 -0.17337708 -0.09032963 -0.24812146 -0.018115258 0.08452499 0.15938908 -0.31036523 -0.08980898 -0.30495435 0.1344102 0.16660433 -0.3318219 -0.13329247 -0.28491056 0.047556236
55 0.45025802 -0.039930504 -0.019408468 0.14775334 0.40770665 -0.19150832 -0.079350926 0.2205764 0.008627195 -0.25105643 0.19367573 0.33545855 -0.048690427 -0.34659663 -0.29495472 -0.17446956 0.085100755 0.19721158 -0.30592957 -0.80990046 -0.10810227 0.2372275 -0.110884875 0.26909634 0.03550425 0.17161193 0.04264409 0.22664103 0.047667775 -0.0178062 -0.27971175 0.21884583 0.38595346 -0.07376283 0.31632996 0.46747556 0.021778513 -0.013386436 -0.28241545 0.25252756 0.36173296 0.10944914 0.06946956 -0.5330483 -0.16824114 0.19622763 0.37575382 0.09334328 -0.040445928 0.30473563 0.25670752 -0.36776763 0.009797819 -0.4629253 0.23154344 0.23019218 0.69045395 0.042047523 0.0094149625 -0.13834882 0.31187475 0.10278549 0.38939336 -0.06530117 -0.3532087 0.062838204 -0.29374528 0.045294017 0.11480418 0.24579468 -0.09747219 -0.023345647 -0.23038502 0.100436516 -0.5355616 -0.14430699 -0.37503693 -0.03932987 -0.5906665 0.17765512 -0.0038784724 -0.080774896 0.2410341 0.15951641 -0.7678399 0.34430924 0.06980389 0.3358422 0.21835242 0.21364728 -0.43620223 0.20074359 0.3362608 0.3077606 0.081017636 -0.049110103 -0.08797193 0.17623536 0.28978524 0.18632278 -0.082267866 -0.305914 0.28341746 -0.007972419 -0.05134893 -0.049654964 0.04698721 0.108369865 -0.06697168 -0.0058885864 0.14628485 -0.021533424 -0.06355338 -0.17703226 -0.1287777 -0.27258158 0.02600106 0.04040114 0.21569519 -0.25036064 -0.12136591 -0.36389562 0.12466922 0.20775606 -0.28105596 -0.10962196 -0.39290363 -0.07157634
33 0.38315955 0.016941495 0.026155053 0.11714233 0.3483146 -0.3000763 -0.08826492 0.1671538 0.01918186 -0.32286522 0.1778468 0.25682837 -0.018507848 -0.298428 -0.17225488 -0.14841953 0.21980803 0.22213277 -0.31689376 -0.7532537 -0.0052673947 0.14481756 -0.08370952 0.2641392 -0.07885016 0.18849474 0.049171902 0.12211494 0.028956722 0.03293281 -0.22716437 0.28760028 0.35781547 -0.0030452644 0.3322496 0.35884503 0.011974549 0.016070422 -0.2877237 0.18544012 0.27600193 0.105482526 0.061348096 -0.50209177 -0.12383937 0.095750585 0.36664587 0.17693162 -0.056346823 0.25646496 0.24666965 -0.17852922 -0.028447747 -0.3978612 0.1173303 0.10874803 0.5766466 -0.01227761 -0.086240955 -0.18330409 0.3424889 0.11868855 0.2617945 -0.056203008 -0.22897242 0.07697535 -0.3280797 0.19542775 0.00889432 0.2188015 -0.08180296 0.05086354 -0.205644 0.08840363 -0.37885216 -0.078413315 -0.3440018 -0.10027363 -0.5143638 0.16903174 0.06633016 -0.08489961 0.15051845 0.152189 -0.6036293 0.2869634 0.064195596 0.3276803 0.28012893 0.15367435 -0.40462247 0.1374044 0.3450258 0.16147469 0.16404684 -0.11074924 -0.119790465 0.14205389 0.27856788 0.21177492 -0.17996082 -0.24240068 0.2357506 0.017604321 -0.12546368 -0.043267936 0.10730375 0.09662051 -0.0935604 -0.026578013 0.08748264 0.0453028 -0.033089403 -0.16498958 -0.076639965 -0.22289908 0.004336933 0.09131552 0.18663466 -0.3068067 -0.09729837 -0.30931547 0.12113506 0.14246254 -0.29058644 -0.11424958 -0.29604867 0.046733428
52 0.38033772 0.011452976 0.011479206 0.11178989 0.3593254 -0.25880077 -0.111028366 0.17144042 0.052303705 -0.2738918 0.182534 0.2926339 -0.0435906 -0.24566406 -0.15606664 -0.1466303 0.18005088 0.20247033 -0.3499571 -0.7409243 -0.032703925 0.17569783 -0.09929799 0.28816143 -0.058460005 0.20042796 0.044886433 0.1597813 0.059606384 0.013895762 -0.23443405 0.25524902 0.35854915 -0.048402615 0.34873655 0.4031848 0.045896634 -0.025065314 -0.2607661 0.22739552 0.3138825 0.12393903 0.07835081 -0.49688533 -0.14000519 0.112888634 0.3766645 0.17806195 -0.032637488 0.26927942 0.23317444 -0.21289416 -0.017616034 -0.43147674 0.16266106 0.12234792 0.64681727 0.0015518579 -0.0778771 -0.17287916 0.35375556 0.14328255 0.26998496 -0.075118825 -0.26610488 0.07308254 -0.3344566 0.1453259 0.05155434 0.19911365 -0.11591892 0.033238545 -0.2069761 0.092434935 -0.4188774 -0.068632476 -0.3258961 -0.06156153 -0.5831807 0.16816176 0.07046827 -0.09006817 0.20935535 0.1252708 -0.62482154 0.2878865 0.06250517 0.3276281 0.23179586 0.16292906 -0.4149229 0.12797065 0.3464731 0.27068186 0.1610531 -0.084160864 -0.11645902 0.185639 0.2858069 0.21604615 -0.15470323 -0.26577526 0.22587352 0.026956523 -0.07527893 -0.04442271 0.07640017 0.06180417 -0.077893265 0.007845624 0.08611358 0.06726579 -0.06080631 -0.140009 -0.09760149 -0.24023119 0.012745545 0.06038648 0.18697917 -0.31845352 -0.1219878 -0.3560119 0.10584672 0.19003062 -0.30041245 -0.12030619 -0.30194116 0.052277368
68 0.17502534 -0.35265374 -0.08902901 0.5416698 0.4142568 0.14772122 -0.16654621 0.56759125 0.023354229 0.05291077 0.14589481 0.40188918 -0.19774684 -0.27685058 -0.3298965 -0.27807042 -0.35313383 0.08205083 -0.1855024 -0.4964187 -0.13196306 0.19848838 -0.16570751 0.23589666 0.108173914 0.18677984 -0.09435518 0.37629026 -0.015579983 -0.117184326 -0.27232757 -0.007860939 0.22336033 0.031406313 0.032066833 0.5024074 0.06890513 -0.13985601 -0.21228702 0.070259996 0.6147055 -0.06960621 0.115467526 -0.35226864 -0.19683312 0.18348362 0.30217296 -0.08618344 -0.220632 0.26012585 0.22041519 -0.38922846 0.07816815 -0.41554877 0.42290282 0.10143617 0.5496339 -0.05925052 0.16681989 0.003591385 0.10352617 -0.1057754 0.29983917 -0.09663292 -0.34246746 -0.12646414 0.043451026 -0.18122019 0.21152891 0.24646689 0.17624986 -0.2234358 0.0568769 -0.12451371 -0.45758227 -0.24136949 -0.45777398 0.1644248 -0.5457367 0.15207791 -0.04159858 0.16449612 0.3195457 -0.043363445 -0.623351 0.17922054 -0.07974856 0.015747163 0.06699475 0.11345361 -0.3714887 0.30538386 0.008799813 0.36932367 -0.040154614 0.11288988 0.0066979225 0.19250238 0.17603923 0.07066405 -0.0058822227 -0.26860073 0.21541001 -0.019395832 -0.069508515 -0.047413323 -0.2019191 -0.010265483 -0.02253387 -0.004330739 0.1465868 -0.27389 0.03536683 -0.008475516 0.0010924861 -0.3147679 -0.031126706 -0.08905491 0.17587274 -0.13416679 -0.09884965 -0.2783169 -0.018138567 0.2883361 -0.14561588 -0.046038043 -0.29758167 -0.3852078
