68 128
46 -0.25505388 -0.03306512 0.0444686 -0.13911192 -0.15503754 -0.02679512 0.21037354 0.17698704 0.014432008 -0.2253949 -0.035137467 0.34104478 0.14655957 0.29825312 -0.34653854 0.110610776 -0.292643 -0.03918776 -0.21453133 0.13010147 0.13250285 -0.20654091 0.19444437 0.1417813 -0.03737827 0.02124883 -0.16427918 -0.08843793 0.112072036 -0.128746 -0.15455101 0.07021228 0.2878983 0.05663771 -0.17857371 -0.24905606 0.013380003 0.05944309 0.03270154 0.09831992 -0.33142298 -0.1029079 -0.064829946 0.08345169 -0.018838702 0.23532028 0.064225584 0.07643584 -0.18575229 -0.07100195 -0.039437253 -0.1533415 0.11457464 -0.13531041 0.11605937 -0.084611304 -0.34864977 -0.37670538 -0.0755045 -0.3313882 0.3103818 -0.19274716 -0.2935025 0.0005215609 -0.003475718 0.12307011 -0.12373705 0.048401795 0.22093444 0.1610865 -0.19506158 -0.20845944 0.3830195 -0.39184088 0.14572103 0.013362911 0.12105684 -0.14946508 -0.10060958 -0.3449827 0.15529945 -0.12890859 0.08032744 -0.41134727 -0.12530886 0.18188068 0.18034233 -0.2093143 -0.013919173 0.20663984 0.17137383 0.124126956 0.049158886 0.3477678 -0.052805275 0.37763953 0.4184671 -0.12368318 -0.0461872 -0.09571915 0.0075432514 0.028210592 -0.022819808 0.3525868 -0.017463502 0.10888733 0.06881686 0.06818589 -0.15570918 0.32494062 -0.10430869 -0.0897546 0.027075514 0.059524044 0.110624366 0.11793852 -0.076479904 0.5557671 -0.08404249 -0.22816508 -0.040612813 0.16906227 -0.2506385 0.07612289 0.1466158 0.14633913 -0.37919563 0.14817065
16 -0.249355 -0.050958302 0.010903535 -0.1681943 -0.09781442 0.06260089 0.11956877 0.0886674 -0.008747204 -0.22617784 -0.01050834 0.28664628 0.14889526 0.31781232 -0.27597722 0.13025604 -0.28313115 -0.041218918 -0.18486172 0.086496584 0.06573104 -0.21279371 0.1980626 0.14914624 -0.017826747 0.01643259 -0.0906941 -0.11217002 0.09909482 -0.18585455 -0.2533246 0.06836564 0.23832455 0.0042367955 -0.17225249 -0.2122368 0.058166068 0.09206813 0.036270913 0.091040194 -0.29431224 -0.1322521 -0.011935412 0.05503151 -0.03668003 0.18741642 0.04420654 0.041820653 -0.1711048 -0.065641776 -0.016073989 -0.15745075 0.08134914 -0.12362646 0.06579848 -0.0833124 -0.32343298 -0.3883132 -0.07759259 -0.2416807 0.29517156 -0.18561427 -0.28879178 0.009640904 0.016669061 0.15283531 -0.039238665 0.0369524 0.16642459 0.22614837 -0.10888657 -0.18839446 0.35533047 -0.3316997 0.11243768 0.017239343 0.14090373 -0.09659986 -0.039419737 -0.24400902 0.18823148 -0.13929042 0.0371048 -0.4245048 -0.10411952 0.2574035 0.16085245 -0.25410146 -0.009518392 0.10703929 0.047716055 0.15981178 0.02262882 0.2836796 0.018440932 0.30552363 0.33057547 -0.089386486 -0.031744648 -0.1663316 -0.02283808 0.0007067265 0.012431884 0.30804 -0.014264911 0.045453735 0.09757617 0.113470964 -0.20550904 0.2666168 -0.059311472 -0.04681028 0.07311307 0.10014784 0.12904908 0.1034014 -0.059522133 0.56231976 -0.13313435 -0.20694195 -0.010298717 0.17159301 -0.24696833 0.12154598 0.08413762 0.20365092 -0.37230954 0.15912601
15 -0.2083846 -0.01063156 0.050395735 -0.17673339 -0.08699122 0.013012094 0.13853444 0.16211593 0.029982481 -0.21951109 -0.034024447 0.2957908 0.13163199 0.2926995 -0.3330694 0.12364039 -0.29007298 -0.08844487 -0.15606283 0.0896489 0.12162227 -0.22058614 0.18809171 0.18774335 0.00676703 0.01477713 -0.12334457 -0.122358136 0.09034265 -0.16739444 -0.16955659 0.05889624 0.2305242 -0.041816227 -0.12963454 -0.19490449 0.016319714 0.06456802 0.03452222 0.07178969 -0.22897191 -0.12522861 -0.08730635 0.04640806 -0.03171482 0.14855911 0.018640794 0.06442579 -0.12732275 0.022818621 0.006483808 -0.13721208 0.056721818 -0.08012443 0.0656198 -0.0071995677 -0.17852426 -0.3085829 -0.12326836 -0.33964515 0.20773487 -0.10053988 -0.2760553 0.047750205 0.020803606 0.19687872 -0.05238848 0.042948335 0.1224223 0.23543881 -0.12026091 -0.18236329 0.34694993 -0.3154338 0.1744169 -0.00310231 0.07037503 -0.17544943 -0.039771806 -0.23199035 0.16057524 -0.11841632 0.08825897 -0.41498888 -0.10034371 0.1637272 0.26209834 -0.25175554 0.0038944837 0.17025892 0.04561984 0.13026333 0.02881398 0.29779965 -0.077513486 0.3152426 0.40899825 -0.062146377 -0.02155214 -0.08370959 -0.012830588 0.040943548 -0.005162757 0.40728888 0.06661293 0.07543281 0.109771304 0.052378964 -0.14051065 0.34695658 -0.08800788 -0.0883075 0.0812373 0.055645064 0.11694347 0.1081657 -0.039137594 0.46670383 -0.13818672 -0.20888008 -0.026995607 0.21222766 -0.23958607 0.07211226 0.037496693 0.1611475 -0.36208862 0.08888621
21 -0.24370006 -0.09923968 -0.038494747 -0.16678166 -0.05325401 0.033963438 0.16942716 0.10231519 -0.035233635 -0.20937164 -0.08966558 0.27757007 0.1726509 0.31827056 -0.2745115 0.09350102 -0.27056655 -0.10108628 -0.16909969 0.048239663 0.06336737 -0.2103053 0.10099158 0.23258848 0.0332319 0.05450348 -0.13999823 -0.020931054 0.036388274 -0.19294947 -0.18100207 0.09442118 0.31306773 -0.08353773 -0.23141418 -0.20438789 0.10276643 0.100161456 0.048386447 0.08522252 -0.34429348 -0.103527136 -0.008029371 0.047590062 0.0033489945 0.23437749 0.027155805 0.071696654 -0.12353588 -0.06825746 -0.0057635284 -0.07063298 0.101108804 -0.08571066 0.057815082 -0.08427924 -0.29760128 -0.35094118 -0.109802395 -0.19232935 0.26062712 -0.1676706 -0.247144 0.0644089 0.061329436 0.14407465 -0.09357821 -0.020852575 0.18392372 0.10523801 -0.20155971 -0.26892668 0.44615266 -0.3011864 0.1714248 0.036755443 0.10992842 -0.095393665 -0.13054283 -0.27210414 0.12977608 -0.18140957 0.06802431 -0.3977346 -0.071446344 0.23440899 0.21156386 -0.23060979 0.026600761 0.13322431 0.12062203 0.16615099 0.035281215 0.2621052 -0.059977762 0.34412506 0.29749775 -0.12434968 -0.027919278 -0.0711161 -0.05761542 -0.016123526 -0.050693348 0.2986512 -0.0073950407 0.08217181 0.09408068 0.10234942 -0.22308202 0.30634117 -0.060270164 -0.06903615 0.12855178 0.02722306 0.06399035 0.11541608 -0.039914727 0.5251882 -0.12342795 -0.15680069 -0.04808381 0.18999696 -0.24508439 0.08893034 0.08402472 0.13259266 -0.33955795 0.17021568
23 -0.24368471 -0.03586941 -0.023004824 -0.1834618 -0.083841905 0.0060006063 0.17874709 0.11826163 -0.008290997 -0.23209181 -0.018899282 0.31055358 0.19910502 0.3387805 -0.37105283 0.08580124 -0.3238881 -0.077712074 -0.23006631 0.07276588 0.110028975 -0.23810416 0.14239547 0.19794245 -0.029774772 0.078593545 -0.16628258 -0.023823673 0.09970863 -0.17592578 -0.17436138 0.07670461 0.21495973 -0.10124481 -0.17767619 -0.1016598 0.05424889 0.1736928 0.021776214 0.038482077 -0.19787782 -0.054899387 -0.06957834 0.031942368 -0.018802233 0.18537955 0.024414493 0.07904642 -0.06486475 -0.11587822 -0.077738136 -0.105413675 0.095663235 -0.16227902 0.11513435 -0.026531264 -0.17076363 -0.30570316 -0.0977175 -0.25677818 0.25899428 -0.14544483 -0.25562555 0.02092498 0.036436103 0.10838489 -0.10235826 0.010892666 0.122886464 0.10280523 -0.17533316 -0.1799217 0.45580986 -0.3211748 0.17588276 0.042494006 0.17143442 -0.11596582 -0.124574974 -0.20553803 0.06632049 -0.17477143 0.11729273 -0.3053746 -0.098867476 0.15030664 0.182219 -0.23297548 0.08209755 0.12749627 0.12959409 0.14261597 0.06274366 0.35232213 -0.021864915 0.3639561 0.2252521 -0.12870991 -0.046614397 -0.037561134 -0.030507034 0.018166585 -0.008853499 0.2547597 -0.082247585 0.075994566 0.043069094 0.03812464 -0.2128645 0.24269192 -0.063023545 -0.007633229 0.13021149 0.030524215 0.06912162 0.11969228 -0.048974544 0.47087744 -0.07556299 -0.27587736 -0.0763602 0.1373848 -0.25284016 0.05486751 0.10055379 0.1333331 -0.29679573 0.12691896
19 -0.17640711 -0.04680178 0.014935295 -0.1587063 -0.120422445 0.021766888 0.13684505 0.101366125 -0.0065536257 -0.20364803 -0.045207437 0.23953797 0.12539321 0.2783619 -0.23385511 0.13978393 -0.31433943 -0.1380503 -0.22948143 0.07089025 0.07204162 -0.16022958 0.11311924 0.23727222 0.00916661 0.07842919 -0.11801872 -0.06862401 0.06918178 -0.25654384 -0.1849815 0.024656244 0.27804178 -0.10728398 -0.24973439 -0.21725886 0.020006543 0.09874081 0.020103302 0.11307183 -0.29385677 -0.08041268 -0.0052296724 0.026037384 -0.024425788 0.27774474 0.032735884 0.10840037 -0.13913547 -0.05247239 -0.052680653 -0.08548861 0.06151259 -0.17223792 0.049489494 -0.057598256 -0.26683533 -0.24850988 -0.089364834 -0.25458172 0.23420276 -0.1392384 -0.28194898 0.057578098 0.0031234026 0.1061981 -0.036668364 0.0517434 0.15329666 0.15541297 -0.17492129 -0.2037072 0.4096203 -0.2421878 0.109954454 0.03358997 0.10687157 -0.05750109 -0.06786324 -0.27839458 0.15185674 -0.16333637 0.11806288 -0.36987796 -0.0418264 0.20407672 0.18235512 -0.1709123 -0.013700433 0.14489274 0.14898647 0.21218272 0.053456746 0.29522088 -0.09128624 0.38686323 0.31193626 -0.09364519 -0.042488605 0.01940312 -0.054409612 -0.000482833 -0.09767824 0.27650297 0.015209798 0.04379195 0.084795415 0.19504572 -0.20724782 0.38677257 -0.09080606 -0.09308552 0.15956649 -0.010850606 0.054881703 0.07321149 -0.09555482 0.59676236 -0.22624734 -0.16378483 -0.05091893 0.19140655 -0.23277959 0.0816513 0.12885262 0.14788814 -0.39525408 0.20334572
61 -0.22614917 -0.048792303 0.069264814 -0.17335421 -0.21380575 0.022786532 0.1449927 0.08874586 0.020128269 -0.21054974 -0.03875837 0.33260944 0.118755735 0.28097767 -0.32646748 0.16621956 -0.32553738 -0.112075076 -0.25534934 0.0365131 0.08811545 -0.26000282 0.12183152 0.17284927 0.019628132 0.20996729 -0.06712387 -0.04523003 0.085026726 -0.2803883 -0.23266825 0.11570161 0.2379946 -0.069576964 -0.13711536 -0.19156146 0.0021849358 0.13222982 0.06325091 0.11464205 -0.17548725 -0.115695864 -0.03436699 0.054724157 -0.06746736 0.18047585 0.010625539 0.10162066 -0.11896686 -0.019644197 -0.11855279 -0.13338351 0.016044574 -0.23184146 0.15645371 -0.003565729 -0.20072082 -0.32044053 -0.14044417 -0.28577778 0.24305297 -0.14717004 -0.28434452 0.09936145 -0.021770153 0.12649724 0.0023630012 0.010233598 0.13497138 0.22316319 -0.16560483 -0.18826137 0.40830728 -0.2640529 0.09351543 0.034885388 0.15922885 -0.09556796 -0.06697852 -0.296533 0.13942485 -0.1485568 0.11001643 -0.4019982 -0.084434085 0.1929174 0.2178634 -0.2342526 0.026477275 0.17588788 0.1723801 0.13979259 0.03331562 0.3087497 -0.050841227 0.35513428 0.2557602 -0.021902567 -0.072919264 -0.06508518 -0.056893114 -0.058946196 -0.053495347 0.28013167 0.037080683 0.11557889 0.028868474 0.12952912 -0.2895688 0.40486592 -0.048670813 -0.0763582 0.21573834 -0.017007811 0.17320774 -0.0018204798 0.01219999 0.505207 -0.21220423 -0.11639629 -0.043111466 0.24971493 -0.29320705 0.12635691 0.14735505 0.14505352 -0.43151656 0.08644431
66 -0.25333548 -0.027694983 0.085169636 -0.15726115 -0.12719391 0.025317421 0.13497634 0.1865251 0.036425423 -0.23822425 -0.019207649 0.3167609 0.13170917 0.28602213 -0.274774 0.19746825 -0.3141319 -0.09341416 -0.21671993 0.114611045 0.12030407 -0.18293008 0.19338003 0.29382658 0.043749575 0.0053140386 -0.1018518 -0.1373402 0.08804633 -0.22890523 -0.23640732 0.04571893 0.21858658 0.035683136 -0.16330738 -0.29778585 0.030795213 0.02495789 -0.018671336 0.12464682 -0.353257 -0.089258455 0.02051256 0.1029948 -0.041566562 0.25190717 0.0928501 0.092295885 -0.17690623 -0.001933277 -0.0044589806 -0.09648282 0.068531506 -0.14921279 0.112105325 -0.07536253 -0.3029826 -0.3468889 -0.10031457 -0.349797 0.2705099 -0.21457422 -0.2763593 0.04348135 0.012796576 0.094946615 -0.09043142 0.098919824 0.17684507 0.17932457 -0.13881224 -0.17543176 0.35985056 -0.30571648 0.21569271 -0.0918312 0.09163471 -0.092195585 -0.1361176 -0.24538268 0.1435501 -0.06923532 0.03614464 -0.38700342 -0.108749375 0.18049237 0.11927721 -0.18536489 -0.03169362 0.19367352 0.08855285 0.13989244 0.013087263 0.34278274 -0.031324845 0.34985754 0.33669925 -0.08198016 0.010098881 -0.07992653 -0.055277538 0.04158044 -0.09016415 0.30253604 0.016278705 0.06398382 0.06360526 0.13619599 -0.14270921 0.38467705 0.026681766 -0.09882245 0.017861497 -0.030544756 0.09799358 0.060023118 -0.0708098 0.5002292 -0.18616685 -0.043142162 -0.0050411476 0.20911147 -0.21479098 0.088934794 0.0940012 0.10939873 -0.36956763 0.19081052
47 -0.280219 -0.024883304 0.049370073 -0.17450733 -0.09439906 0.03316466 0.14921722 0.16198535 0.030009877 -0.27392748 -0.014882993 0.34372285 0.17084715 0.31811655 -0.33504942 0.15477633 -0.31026763 -0.07000129 -0.22190383 0.11970487 0.118728824 -0.21126936 0.18260498 0.23913862 0.03157446 0.0574363 -0.15131174 -0.112667814 0.0801583 -0.23044197 -0.25894547 0.0718263 0.23542652 -0.024069022 -0.17355624 -0.23261565 0.057451807 0.051429395 0.0017660448 0.09270913 -0.3227508 -0.08309706 0.004759204 0.066029474 -0.009782565 0.25048244 0.04164209 0.07850871 -0.16003637 -0.06635669 -0.01606217 -0.1104614 0.0748698 -0.17206024 0.10181266 -0.06926981 -0.25330842 -0.3176009 -0.09256515 -0.31736898 0.2997582 -0.20089196 -0.2525234 0.041469857 0.07654501 0.10357732 -0.1003806 0.025107728 0.18969242 0.13032642 -0.19063225 -0.22475941 0.4243883 -0.28176335 0.1781108 -0.025729578 0.10837301 -0.06318159 -0.14371571 -0.2098404 0.14535029 -0.17274114 0.032578506 -0.36502007 -0.08187357 0.20729066 0.19071989 -0.1997831 -0.03245086 0.22762792 0.11297694 0.17395627 0.028624447 0.360741 -0.09835591 0.4106817 0.26528338 -0.104569614 -0.0027219034 -0.080105744 -0.068601325 0.009253802 -0.0070562856 0.2957288 -0.075975105 0.04703608 0.040615357 0.14683414 -0.20538759 0.3099086 0.0029782623 -0.032822948 0.16084915 0.025544863 0.14838299 0.07009011 -0.03136843 0.5389475 -0.18328752 -0.15541862 -0.0085542 0.19460309 -0.28048205 0.08138253 0.13279548 0.12349626 -0.32458368 0.14832558
64 -0.24921118 -0.07404222 -0.016637102 -0.1479419 -0.09393128 0.13951382 0.20351155 0.1962368 0.033433266 -0.2743366 -0.035065074 0.3629297 0.18421485 0.39815548 -0.3062333 0.14870502 -0.35672522 -0.08593888 -0.2719746 0.10981849 0.07939015 -0.28267345 0.2217387 0.26465008 0.083071865 0.0776148 -0.17788072 -0.13727017 0.049538866 -0.24221075 -0.35179034 0.08389012 0.21892002 -0.018068668 -0.1529222 -0.19072534 0.0635881 0.12136442 -0.035384133 0.074120216 -0.24000578 -0.10798344 -0.025660718 0.021385241 -0.01887829 0.14721702 0.08950798 0.080767035 -0.14395888 -0.05491772 0.02713389 -0.20026857 0.056517042 -0.09023585 0.09876581 -0.04691572 -0.28316882 -0.34280446 -0.06168077 -0.31810597 0.28883564 -0.20174837 -0.2772388 -8.7392116e-05 0.07419666 0.13723354 -0.057684556 0.04834329 0.10916629 0.13788934 -0.17073089 -0.18618773 0.33967334 -0.2556868 0.16721551 -0.002859475 0.15207979 -0.070139624 -0.13576816 -0.18120612 0.17259572 -0.1475978 0.062138733 -0.36356956 -0.06959687 0.25217918 0.20718691 -0.22611843 0.011206343 0.19324681 -0.008588036 0.18430567 0.049866088 0.35942972 -0.04168888 0.4146274 0.26320493 -0.08056967 0.016486349 -0.07680959 -0.0129196765 0.036416173 -0.032488532 0.25540495 -0.037716147 0.03253753 0.06541268 0.1035365 -0.19509949 0.24845004 0.047341753 -0.020081041 0.08472222 0.038745206 0.13248678 0.11071726 -0.0639103 0.58129466 -0.14576878 -0.19506788 0.0071311244 0.15238127 -0.22295783 0.11913517 0.06973163 0.13269003 -0.3265408 0.20455891
7 0.017588107 -0.086894095 -0.05307567 0.0047617587 -0.24134523 -0.0335253 0.19843045 0.028118988 0.24991773 0.18284579 0.022408826 0.13901697 -0.06997517 -0.009566706 0.094354 0.03751838 -0.022597605 -0.11479693 -0.21968639 -0.027097978 0.042061605 -0.17439702 0.0292538 -0.0052056545 0.27044237 0.24332364 -0.010854133 0.16831277 0.00065643643 -0.044789284 -0.021686796 0.14839822 -0.13060647 -0.28328198 0.021561502 0.20384169 0.027406305 0.18352427 -0.09474058 -0.094776124 -0.027102893 0.22651264 0.15885726 -0.021869635 -0.05886115 0.05549711 0.04208982 -0.024628866 0.0075211646 0.011332113 -0.2637774 0.257434 0.08155458 -0.28509694 -0.16101357 -0.12527627 0.17935613 -0.011837017 -0.110904306 -0.31378183 0.17299761 -0.20985487 0.039000858 0.13113378 -0.27184993 -0.04867912 -0.075434 0.30870897 0.03853038 0.15579286 0.0019786044 0.23975986 0.18903208 -0.007999778 0.25969315 -0.2876883 -0.09852177 -0.06823524 0.034077905 0.23330076 0.15635955 0.08842456 -0.013474397 -0.036085427 -0.18008763 -0.054317623 -0.08706439 0.1246423 -0.13602217 -0.026354346 0.13693656 0.022347234 -0.028604774 -0.012499814 0.050626043 -0.07797715 0.4701172 -0.108727165 0.018912647 0.21753763 -0.048867326 -0.032295525 -0.16951568 0.4092759 0.23092745 -0.02514339 0.049966037 0.009507809 0.19175817 0.05328745 -0.0776813 -0.25417948 -0.4774945 -0.017130919 -0.15372723 0.25048056 -0.40298012 0.08138071 0.12815532 0.02973251 -0.14401998 -0.08543561 0.17065802 0.056342613 -0.023228588 -0.06779932 -0.0919745 0.18780288
6 0.03588969 -0.15709466 -0.115116894 -0.08141323 -0.20074861 0.024037305 0.18724164 -0.042101245 0.20699325 0.11957646 0.06533445 0.123391226 -0.0515051 0.03886927 0.09822394 -0.032491967 -0.05043074 -0.20137377 -0.2319511 -0.065776624 0.0031507998 -0.11697766 -0.0070138923 -0.008382087 0.21031192 0.24274251 0.022100104 0.21120445 -0.01974457 -0.116059564 -0.046141397 0.09722951 -0.117620625 -0.28614682 0.007857577 0.22682562 0.093614586 0.26998308 -0.08061505 -0.10876914 -0.054685947 0.24296977 0.3072048 -0.03404381 -0.1320444 0.10754432 0.09149106 -0.07823448 0.07209504 -0.027949374 -0.35703072 0.3192233 0.042932592 -0.3497351 -0.10487346 -0.27427477 0.199953 -0.074407265 -0.13407747 -0.28978473 0.29024976 -0.3350899 0.10279954 0.11722279 -0.09732481 -0.084630616 -0.055958647 0.13802932 0.013496964 0.006964462 0.051302616 0.11449153 0.31715316 -0.09447279 0.24146661 -0.2627517 -0.087061904 -0.030470783 0.0017756918 0.02887253 0.1678659 -0.012373732 -0.039078705 -0.0072723804 -0.077910975 0.011745111 -0.028506674 0.115515284 -0.14362963 -0.020606743 0.10935078 0.08906137 -0.00047857605 -0.020259423 -0.06906729 0.015143549 0.31192124 -0.12572376 0.061937522 0.21860133 -0.019859785 -0.029361235 -0.14213227 0.24077538 0.13166583 0.029956134 0.102184355 0.08603218 0.021283353 0.023410842 -0.064371616 -0.24255909 -0.46465102 -0.0015023708 -0.25415912 0.1600997 -0.41065508 0.103232585 0.08357479 0.07766074 -0.12155713 -0.1477987 0.20946702 -0.10556756 -0.08886981 -0.008934549 0.026813086 0.11862397
50 -0.018412918 -0.11617685 -0.13189915 -0.06116948 -0.22481658 -0.069883116 0.22898076 -0.061985828 0.26045236 0.16102685 0.11190588 0.13093908 -0.047524102 0.06905072 0.07170295 -0.010181096 -0.056765933 -0.13735388 -0.16065237 -0.025226654 -0.013129592 -0.14991854 0.06794784 -0.022855446 0.22399998 0.1683158 0.027630975 0.17088684 0.04421883 -0.02818443 -0.034205455 0.09732754 -0.11049936 -0.31265217 -0.050100874 0.24077389 0.05544954 0.17760472 -0.09851639 -0.13158631 -0.07902313 0.21942033 0.19789575 -0.035862852 -0.03829657 0.14065507 0.011721147 -0.021021333 0.00069397327 -0.05328449 -0.40066856 0.31867787 0.13878568 -0.47962266 -0.13813731 -0.31521863 0.21639296 -0.10316258 -0.16778907 -0.25598767 0.3230968 -0.3492889 0.037230786 0.13242926 -0.15482236 -0.09049114 -0.13074698 0.22778982 0.052715044 0.094997 0.07536576 0.13138457 0.2041922 -0.04980212 0.18864657 -0.24493502 -0.114370234 -0.0196153 0.07041204 0.21618687 0.13555181 0.059901364 -0.05409319 0.0038019929 -0.08701531 -0.0360739 -0.19633457 0.12263116 -0.21361738 -0.0907699 0.15006807 0.06329426 -0.043881007 -0.08784697 -0.023786865 -0.0852342 0.40376306 -0.11571582 0.026132017 0.18106408 -0.044826396 0.048213385 -0.13858818 0.35657793 0.13449872 -0.009949746 0.12355503 0.12349262 0.19892325 0.05477676 -0.11877488 -0.2706485 -0.50925756 0.06638078 -0.24074066 0.2365445 -0.34567368 0.054092765 0.15376498 -0.036986224 -0.06251634 -0.15355611 0.100273386 0.0021878043 -0.019312816 -0.006913294 -0.08382788 0.12035385
9 -0.0554281 -0.19172154 -0.21977097 0.06547427 0.0650813 0.057126276 0.05465088 -0.015781969 -0.29470208 -0.028922431 -0.17856845 0.041059867 0.18071936 -0.06522215 -0.09742114 -0.035548877 0.014695437 0.116182886 -0.03149154 -0.2153482 -0.08644766 -0.0741717 -0.042375315 0.086056486 0.07185294 0.25447372 -0.060690716 0.19448878 -0.13037665 0.17053077 -0.052697115 0.3181133 -0.028182784 0.09709233 0.10443454 -0.03632723 0.40308747 0.09213899 0.007177821 -0.13407716 -0.3023767 -0.055913236 0.3455695 -0.087884106 -0.3011105 -0.050631087 -0.032151327 -0.34000662 0.13453813 -0.13852166 -0.2305615 -0.034690388 -0.091715455 -0.10295004 0.08615516 -0.17787929 0.12306778 -0.2763192 -0.2560471 -0.22581823 0.26387197 -0.30808666 -0.03775291 0.22754286 -0.09221065 -0.11261848 -0.100467026 0.29067212 -0.14957526 0.10101713 -0.21700256 0.27035058 -0.087910704 -0.029101413 -0.00917362 -0.033067998 0.3605423 -0.060404833 -0.0028201016 0.57486117 0.45274654 0.056333777 -0.068948425 -0.19151556 0.20607533 0.18590291 -0.082068115 0.20578946 -0.1318998 -0.0018804322 0.14029953 -0.26099727 -0.017564226 -0.28611317 0.18202372 -0.13241683 0.07804338 -0.12555224 0.21523969 0.28339115 -0.47083566 -0.36121827 0.03589878 0.3593766 0.12736747 0.07881918 -0.061062194 0.20160967 -0.017550508 0.06228909 -0.10317316 -0.3709029 -0.33741572 -0.022522168 -0.10271009 -0.1872829 -0.22216518 0.28819242 0.14966692 0.15028118 -0.13829221 0.013768237 0.14899144 -0.2704907 0.00020383127 0.35678214 0.048621424 0.14234409
55 0.031686816 -0.20352122 -0.13653365 -0.06562283 -0.27937976 0.03274466 0.3268041 -0.014383688 0.24405953 0.12845775 0.017969977 0.18443075 -0.063968614 0.102140725 0.054049645 -0.03638543 -0.044511553 -0.1672577 -0.20308858 -0.0319446 0.03340002 -0.1164566 0.034947034 -0.019175125 0.25590938 0.2209573 -0.09161012 0.19608328 -0.03907616 -0.04788081 -0.012358963 0.13286816 -0.08634755 -0.21858963 0.024283033 0.20328982 -0.0037793112 0.17518641 -0.12708066 -0.14723097 -0.0082456395 0.22460951 0.18811467 -0.09175083 -0.08617486 0.08477934 0.0396024 -0.041987736 0.0029563513 -0.024920104 -0.3267668 0.28644788 0.06719413 -0.3487077 -0.14256477 -0.29029548 0.2713814 0.01166942 -0.17453936 -0.31362754 0.2221958 -0.21236548 0.06398881 0.14502278 -0.15081498 -0.053656764 -0.07167825 0.20296654 0.048852 0.05210617 0.11518544 0.15077282 0.090535834 -0.01860869 0.13765599 -0.19485095 -0.09352526 -0.036470067 0.050061416 0.10876499 0.14574061 0.028388932 0.056547273 -0.08795924 -0.06433095 -0.051146857 -0.10441623 0.08803824 -0.12085495 0.0088506425 0.04937701 0.15685107 0.013938295 -0.015107631 -0.00980458 0.0035478082 0.4558189 -0.1111003 0.05271616 0.23067296 -0.04090496 -0.05841702 -0.15163185 0.33872697 0.18974504 -0.021442404 0.068676725 0.12523274 0.21070653 0.023765756 -0.15000123 -0.24227653 -0.36419386 0.010780474 -0.09078744 0.21991867 -0.29646918 0.06268517 0.08385111 -0.0145370625 -0.062569976 -0.17699306 0.16834365 0.027285488 -0.027699914 -0.07034408 -0.04830679 0.15067662
40 -0.21560715 -0.055559468 -0.0106214415 -0.19436516 -0.0050157984 -0.031463064 0.15253876 0.03994114 0.1275157 -0.18716468 0.11788631 0.31168616 0.06198666 0.23552072 -0.2499943 -0.07718699 -0.28020576 -0.13212009 -0.1565738 0.025981495 0.20254286 -0.10926628 0.16866559 0.25078535 -0.019830966 0.106769085 -0.14383708 -0.07858935 0.042222004 -0.20208623 -0.084687196 -0.026234586 0.09971315 -0.0062639955 -0.07449933 -0.23895481 0.009373159 0.08324857 0.10244561 0.13521643 -0.25228375 0.024691572 -0.0059724255 0.1093194 -0.0334629 0.25867596 0.087614454 0.14470945 -0.1346559 -0.07201318 -0.027359156 -0.169046 0.016971981 -0.12347622 0.3059123 -0.12362242 -0.13342802 -0.24773394 -0.049598895 -0.25328133 0.19674806 -0.10345879 -0.16852634 0.012959712 -0.16206749 0.18570594 -0.10793206 -0.015735691 0.32804418 0.2432848 -0.20613097 -0.015533047 0.40988034 -0.360177 0.300388 -0.10527369 0.13354656 -0.10895027 -0.18515028 -0.09785565 0.1420771 -0.06636686 -0.084890924 -0.35302207 -0.2626713 0.19173051 0.3596753 -0.1812662 1.7558952e-05 0.23385037 0.12752894 0.011649554 -0.0077924747 0.20715354 -0.12242325 0.21916002 0.3023202 -0.14145014 0.0005387907 -0.097584546 0.06600101 0.08169897 0.06799003 0.14739394 -0.012122192 -0.030236369 0.13962667 -0.0916691 -0.043094054 0.11601517 -0.1403768 0.016617125 0.19476038 0.08867763 0.12164996 0.118318886 -0.01809101 0.3643623 -0.11206 -0.26997977 -0.06259301 0.14433429 -0.13256806 0.070431225 0.10033334 0.07193493 -0.19334812 0.08737318
41 -0.10313249 -0.13620651 -0.10618868 0.11720703 0.11425699 0.043694336 0.021653969 -0.00092861324 -0.30467921 -0.033623956 -0.18967599 0.02858062 0.16560863 -0.037072808 -0.028838303 0.06856286 0.014894331 0.072287306 -0.07864332 -0.24204294 -0.14729002 -0.10617562 -0.12906042 0.07177249 0.12352336 0.3078828 -0.03597166 0.25396335 -0.062434025 0.06842438 -0.09354643 0.37381545 -0.01834334 0.046710413 0.04370512 -0.013281605 0.51335645 0.100618966 -0.04048041 -0.111849844 -0.19971135 -0.05724712 0.29980835 -0.15089229 -0.22847153 -0.108539395 -0.012593093 -0.2711606 0.10160245 -0.18015496 -0.18729714 -0.026139721 -0.1485951 -0.18365288 0.124123625 -0.1867115 0.08027592 -0.19875817 -0.2089576 -0.18387829 0.21645583 -0.25214225 -0.047563955 0.26666316 -0.26134774 0.027899029 -0.22155549 0.46190992 -0.08271795 0.19809076 -0.25357178 0.36057076 0.05427142 -0.087259 0.15293351 -0.12298653 0.36068463 -0.1324674 -0.033160273 0.6383321 0.410551 0.100678146 -0.006480028 -0.16875082 0.22549824 0.04907103 -0.09017173 0.24987693 0.030784084 -0.03565542 0.030767065 -0.16256042 0.002627496 -0.23959526 0.20766461 -0.14130132 0.040654436 -0.10281887 0.1937062 0.47694916 -0.52415484 -0.33058825 -0.022112789 0.31892926 0.11669712 0.072300054 -0.13486485 0.13002247 -0.085640594 0.10389669 -0.011767148 -0.30249137 -0.35733175 -0.10469449 -0.21361059 -0.19183287 -0.25454032 0.3319921 0.18682028 0.27332187 -0.14092791 -0.00075283647 0.12708901 -0.22726299 -0.061544936 0.28983727 0.020034643 0.20237604
60 -0.07145984 -0.0874625 -0.036767945 0.1310272 0.12182484 0.015260152 0.011932092 0.066305414 -0.23933493 -0.040361818 -0.1920946 0.048767485 0.2102618 -0.059314474 -0.1353579 0.041746963 0.0020791183 0.14115188 0.008419774 -0.24759772 -0.16827777 -0.11814276 -0.041244537 0.07059019 0.032480594 0.27638602 -0.0092887785 0.2876895 -0.0094989035 0.2494771 0.023500603 0.3775563 0.04936907 0.10324515 0.08136413 -0.023162922 0.48991174 0.014465702 -0.014785443 -0.11314242 -0.19580518 -0.15668024 0.23807305 -0.13990864 -0.20596343 -0.107166 -0.08396813 -0.31575236 0.14415401 -0.07087595 -0.15345387 -0.0019615241 -0.049328364 -0.09546863 0.08920455 -0.14468172 -0.009870472 -0.22610255 -0.13152762 -0.03995287 0.11930578 -0.25139326 -0.010959445 0.15551277 -0.13089104 0.01592366 -0.15752748 0.4190156 -0.16736577 0.17069237 -0.26621875 0.27150157 -0.004521418 -0.13021025 0.16573368 -0.0909174 0.3956414 -0.09082057 -0.09741036 0.55837566 0.525402 0.081901655 -0.056700826 -0.30083892 0.19188699 0.18287499 -0.07577731 0.23878676 -0.07710848 -0.014582643 0.1467938 -0.20375654 0.038754478 -0.25960314 0.1408478 -0.0060511627 0.22370714 -0.22324447 0.20679097 0.39313686 -0.5718504 -0.31089324 -0.027584203 0.45699987 0.05344205 0.12377077 -0.13848925 0.19702941 -0.0067206686 0.116269045 -0.07106936 -0.36707446 -0.576838 -0.09293607 -0.16912562 -0.118955396 -0.21877456 0.2443455 0.200522 0.26622057 -0.25447008 0.017564388 0.2148302 -0.3637575 -0.045023847 0.3871831 -0.006670064 0.23125686
14 -0.05671225 -0.1831107 -0.14254235 0.097064294 0.078974895 0.160308 0.03816512 0.053122696 -0.25959396 -0.04480535 -0.21993144 0.10149215 0.13977551 0.019240908 -0.0588157 -0.04903071 0.077716954 0.077700935 -0.04767921 -0.17937617 -0.05100765 -0.06327004 -0.10849841 0.10008911 0.1284534 0.24152622 -0.09621164 0.20017591 -0.14600909 0.1415421 -0.07690864 0.34963545 -0.011034801 0.12933612 0.1733844 -0.0070242397 0.4629686 0.005159649 -0.028383639 -0.1385628 -0.25005567 -0.069750376 0.36483237 -0.14555831 -0.22630821 -0.13511935 -0.02241434 -0.3648168 0.11396337 -0.079250626 -0.11087438 -0.014702537 -0.10796767 -0.040999383 0.105509944 -0.15701775 0.12101554 -0.21398225 -0.2217398 -0.26264778 0.23734428 -0.38275164 0.10233775 0.18940566 -0.12264961 0.012103381 -0.17046827 0.3781267 -0.18015587 0.121920966 -0.19537024 0.26508215 -0.11759398 -0.02784007 0.13224068 -0.069490634 0.32091835 -0.10633267 -0.10442765 0.5155848 0.44011012 0.04966435 -0.01128006 -0.27709636 0.18911962 0.12289615 -0.0034381885 0.13255937 -0.0006354899 -0.0008125093 -0.036439832 -0.18295714 0.016335962 -0.24233375 0.15198906 -0.122152455 0.11190716 -0.13311493 0.2948647 0.42819023 -0.5829098 -0.3575511 -0.032647587 0.4346527 0.10010358 0.073641375 -0.072368704 0.22936866 -0.02741021 0.11204082 -0.008332219 -0.32586423 -0.4220552 -0.08969153 -0.087475605 -0.16217774 -0.15925652 0.22696497 0.13197726 0.25533214 -0.091888614 -0.051074777 0.21179536 -0.30112362 -0.071099825 0.27000448 0.03694755 0.13220719
22 -0.21147081 -0.033258446 0.015011036 -0.23494567 -0.09207773 -0.05475748 0.15154131 0.037195224 0.16144991 -0.21207342 0.1414855 0.36117327 0.023495007 0.25998834 -0.2489096 -0.0128804315 -0.3282534 -0.2205502 -0.19350837 0.040974293 0.24022448 -0.09069416 0.11714724 0.26235694 -0.0019491725 0.123496935 -0.1517788 -0.1431882 0.04050484 -0.32193047 -0.14243194 -0.059298497 0.103300266 0.026078535 -0.07929135 -0.25399265 0.00429339 0.070394255 0.07961842 0.110633485 -0.20307826 -0.037565682 -0.07908249 0.093814455 -0.051085725 0.16048631 0.03831193 0.17094314 -0.13974898 -0.052961744 -0.00058665156 -0.19687988 -0.07493845 -0.096162684 0.25222737 -0.10645959 -0.12203604 -0.18779899 -0.07119559 -0.29334924 0.17775932 -0.008883163 -0.21075524 0.072390795 -0.13801631 0.20067203 -0.09281817 0.017377557 0.27724823 0.24714178 -0.21883272 -0.01964432 0.38864297 -0.3460213 0.27126494 -0.07289206 0.111082524 -0.1343575 -0.14342445 -0.13080347 0.08812073 -0.0417925 -0.008246187 -0.29003948 -0.18206741 0.15385304 0.3446829 -0.16430943 0.033725757 0.21362747 0.1311356 0.026045633 -0.055194505 0.17906012 -0.11927839 0.17235675 0.32186598 -0.082127616 0.03925 -0.05688983 0.019766323 0.065532796 0.05642448 0.21988235 0.06632755 -0.013337416 0.17225099 -0.04976382 -0.067774504 0.2095963 -0.11248665 -0.036144327 0.16648874 0.072851725 0.09948435 0.028497517 -0.046225343 0.34586993 -0.13745148 -0.14047287 -0.037353724 0.18173668 -0.14048174 0.053386156 0.0297028 0.13202967 -0.18735424 0.09274941
49 -0.24843909 -0.00502753 0.035912514 -0.18405814 0.052859753 -0.047257964 0.105376594 0.042081915 0.08599296 -0.23682518 0.10033954 0.32997677 0.07258871 0.20598346 -0.2509211 -0.09991709 -0.26762936 -0.15638863 -0.14462583 0.026089648 0.23481719 -0.108872116 0.10102196 0.20077936 -0.066088274 0.14250715 -0.15396552 -0.08971614 0.061851688 -0.24031202 -0.07179098 -0.04193757 0.16796866 -0.05319974 -0.101872705 -0.24575111 0.06925828 0.10363704 0.12227911 0.14121683 -0.3064511 -0.0056721717 -0.033677235 0.122363225 -0.009495594 0.21036035 0.04982078 0.1475202 -0.11237846 -0.052076597 0.005021082 -0.14341994 -0.02405393 -0.045343205 0.21470995 -0.04628188 -0.1471006 -0.19934656 -0.051181674 -0.28538463 0.24692461 -0.06415922 -0.14331353 0.07553578 -0.14245011 0.24192333 -0.08558294 -0.054681666 0.35332203 0.24250236 -0.2450686 -0.13209426 0.55624616 -0.39885297 0.3628909 -0.09528939 0.061027527 -0.16358598 -0.19460258 -0.2580102 0.088806204 -0.09776387 -0.027778761 -0.27519506 -0.2619263 0.13458309 0.39799547 -0.1923917 0.050255433 0.22071205 0.14470463 0.042294465 -0.043201104 0.23132974 -0.16906253 0.16715895 0.27344692 -0.1761553 0.039883442 -0.017670166 0.024839472 0.04785288 0.045538805 0.22643246 0.047050342 -0.063230224 0.2589933 -0.061725352 -0.15122305 0.1992469 -0.13707232 -0.0020122782 0.1577495 0.115243934 0.047937788 0.06929372 -0.10996154 0.38077328 -0.13590032 -0.21215375 -0.067417495 0.18601778 -0.11558135 -0.00665239 0.007166607 0.102089144 -0.16509081 0.060143992
18 -0.19121356 -0.058357824 -0.068927996 -0.19224447 -0.029147295 -0.05509399 0.12262919 -0.020039443 0.09119741 -0.18971156 0.14754905 0.28664893 0.050079975 0.22326456 -0.1964069 -0.07781442 -0.2836736 -0.1360227 -0.21931422 -0.008138146 0.20450753 -0.0842533 0.06655894 0.19211523 -0.078066364 0.1382352 -0.13310234 -0.093941264 0.08224852 -0.2537753 -0.09249404 -0.087958224 0.15286583 0.036570214 -0.13065906 -0.2390482 0.04262691 0.08927471 0.095856525 0.15687402 -0.2892193 0.005684977 -0.026719889 0.13482903 -0.035475463 0.26971412 0.12381924 0.16390115 -0.10549513 -0.13995497 -0.03952787 -0.15682775 0.049486693 -0.10706286 0.20433028 -0.07007389 -0.19100425 -0.23867464 -0.035927515 -0.23472364 0.26324648 -0.08954249 -0.18005277 0.063455455 -0.14628063 0.17562956 -0.107052036 -0.04376944 0.32440594 0.18451928 -0.20479792 -0.094769955 0.47598174 -0.42225277 0.28381258 -0.052301157 0.09398324 -0.18228064 -0.14852886 -0.22763476 0.07933753 -0.068093695 -0.0147090405 -0.24761996 -0.23421602 0.11326374 0.29432708 -0.16816825 0.028724656 0.16109388 0.16602921 0.027532592 -0.0015892189 0.18117303 -0.11048498 0.16652358 0.27998447 -0.17905821 0.030401574 0.01605933 0.019155402 0.044252124 0.033899006 0.2241203 0.04156215 -0.040200554 0.22296748 -0.047569584 -0.117330566 0.18605791 -0.1725116 -0.05640495 0.1675273 0.06752657 0.0033022442 0.0707119 -0.11342746 0.36737218 -0.1082586 -0.23281135 -0.04941947 0.13398 -0.1039102 0.023069134 0.070814885 0.101429895 -0.17186706 0.09567108
42 -0.5442462 0.09529011 0.31456384 0.09887146 0.3589754 -0.6234068 0.51604116 0.23230092 0.30944046 0.10299441 0.10785542 0.36596382 0.118750736 0.21430454 -0.4775485 -0.052027434 -0.16331102 0.12798001 0.4581619 -0.038630813 -0.13168418 -0.3916227 0.52660316 0.09391146 0.10916862 0.17776538 -0.0508736 0.57522947 0.17040169 0.8985111 0.6405449 0.48681015 -0.0024851488 0.6311138 0.40431166 -0.031034483 0.31180987 -0.018981887 -0.11864517 -0.11071972 0.03283168 0.38184884 0.23490657 0.083414465 -0.45845586 -0.32207948 0.5705531 0.32935497 0.4292158 0.15986702 -0.51197 -0.3049599 0.5887941 -0.25682113 -0.23309731 -0.3006155 0.41554525 0.06317012 -0.48565617 -0.8462776 0.03315143 0.32910782 -0.7215635 0.24899791 -0.04608266 0.3078998 0.18389474 0.06561617 -0.43408746 0.009104323 -0.32650444 0.13767943 -0.18474403 0.72424686 0.122400835 0.29511005 -0.14293286 0.12768887 -0.23275009 0.5098931 0.00443747 -0.09110757 -0.08312414 0.14686795 0.3883686 0.46115217 0.3128955 0.13458247 -0.018713735 0.081425406 -0.15516199 0.4269226 -0.08014415 -0.37011963 -0.5851 -0.02966364 -0.30954668 -0.01902962 0.21579474 0.5020385 -0.30063328 0.031011011 -0.49945176 -0.3196774 0.5602071 -0.3229811 0.8495964 0.22394666 -0.4880026 0.47082108 0.23395856 -0.10695075 0.11648482 -0.013573809 -0.47110513 -0.21815647 -0.22681257 0.6493203 -0.340821 0.13204913 0.24869354 -0.026286542 0.15405689 -0.28517997 -0.4651493 0.063639395 0.06962762 0.16299438
31 -0.10630481 -0.14241944 -0.12682235 0.09172401 0.11242142 0.016861824 0.055479825 0.006295266 -0.2532046 -0.03252253 -0.09052458 0.045008384 0.17749193 0.017818408 -0.06629431 0.01752373 -0.10364078 0.035165343 0.010161311 -0.29194582 -0.19215372 -0.101187944 -0.03719629 0.09947635 0.050225098 0.21322773 0.047722153 0.17544329 -0.046566103 0.14209552 -0.16448262 0.27233937 -0.016830128 0.06016862 0.12660882 0.04876342 0.18182583 0.12078663 0.0010916467 -0.10371295 -0.02443442 -0.02471609 0.12403372 -0.04222999 -0.20427488 -0.08132277 0.029151194 -0.15110607 0.15142134 -0.07399177 -0.25712112 -0.03416292 -0.054213006 -0.16460446 0.054112986 -0.16378994 0.18366277 -0.21300101 -0.20833768 -0.179996 0.2455971 -0.23526347 -0.09148088 0.13819452 -0.17145798 0.01114696 -0.007916291 0.31885266 -0.20278902 0.15575291 -0.19476165 0.35722843 -0.018746434 0.00021480172 0.1640965 -0.05818118 0.28623646 -0.08772618 -0.0063488465 0.60528994 0.24614976 0.116984226 -0.0739692 -0.08337218 0.036508866 0.16545157 -0.049382064 0.047873087 -0.03496194 -0.089788266 0.15541776 -0.14940456 0.008146411 -0.17249373 0.09661146 -0.008758791 0.04283399 -0.15971023 0.20381173 0.17201556 -0.47304562 -0.26204512 0.03945887 0.3607406 -0.026788017 0.0919656 -0.15822564 0.11377806 0.013595812 0.003912726 -0.04441115 -0.19251852 -0.45328388 -0.024169432 -0.09436657 -0.15522093 -0.1672636 0.24337053 0.21770652 0.100890614 -0.18991396 0.097214445 0.07965319 -0.2755103 -0.06290336 0.3676716 0.0263016 0.17935549
34 -0.681239 0.09310814 0.47455263 0.14359568 0.38077512 -0.7126373 0.5613524 0.21608925 0.38645217 0.050495904 0.13884954 0.41105646 0.076399505 0.20372035 -0.5730089 -0.07276226 -0.118442275 0.17747913 0.5178772 0.036167074 -0.16824275 -0.47013673 0.61818117 0.018610332 0.08096101 0.18136288 -0.0023425505 0.52864915 0.22113347 0.92960095 0.72436684 0.4920802 0.048448253 0.5727295 0.3497651 -0.027576843 0.3513467 0.0022278635 -0.0648962 -0.01736216 -0.036397494 0.36781752 0.34580386 0.07700105 -0.47582218 -0.378098 0.5272604 0.20571207 0.35263193 0.20430367 -0.50916696 -0.12657852 0.5767043 -0.1755311 -0.27678195 -0.38436952 0.20231125 -0.100709796 -0.4091505 -0.6852254 0.08509165 0.17940542 -0.6765988 0.28922778 -0.20019142 0.33355007 0.19873731 0.10477482 -0.34720048 0.17820169 -0.3372118 0.21827425 -0.22897817 0.7189354 0.16706155 0.21063226 -0.20533589 0.10543013 -0.17540699 0.5342952 -0.002424547 -0.031950273 -0.09634091 0.061464015 0.38958317 0.46191877 0.20718928 0.14316665 -0.023162227 -0.05044071 -0.18238689 0.32826546 -0.102593 -0.40004835 -0.4204313 -0.18262245 -0.27488247 -0.008069058 0.14592235 0.33817095 -0.29975584 0.033234667 -0.52241206 -0.4007033 0.4977331 -0.185993 0.80388415 0.120978326 -0.48522 0.43190932 0.26497966 -0.047993694 0.1464451 0.041772563 -0.44281313 -0.25159326 -0.11606759 0.5357028 -0.36739412 0.27960727 0.30676422 -0.009043699 0.1092604 -0.12231836 -0.5163007 -0.006521732 -0.0010803196 0.015915107
65 -0.11189449 -0.20046182 -0.13297546 0.03040535 0.039555397 0.054211833 0.12371792 0.020901855 -0.17489588 -0.098890945 -0.14672163 0.1336122 0.18600205 0.050639004 -0.1554336 -0.042286932 -0.13899449 0.024706423 -0.030713964 -0.20059322 -0.1424941 -0.26288217 0.05008537 0.13261129 0.09242069 0.33073875 0.01672522 0.16731092 -0.098605715 0.077406324 -0.08513621 0.31778577 0.06944771 -0.050880164 0.0427274 0.0035058842 0.35829395 0.1559078 0.12018435 -0.04157879 -0.16251512 -0.09140424 0.26617235 -0.053368364 -0.18518446 -0.034831665 -0.057229884 -0.3704114 0.14848201 -0.0499555 -0.31332493 0.06964451 0.0059745 -0.10940112 0.10711631 -0.19417857 0.030120356 -0.40047464 -0.16857113 -0.03129536 0.25834435 -0.39296803 0.0036336058 0.13472663 -0.13543092 0.013072123 0.013769247 0.22419241 -0.22748394 0.20161347 -0.2210459 0.28491902 -0.1264551 0.009750038 0.030021852 0.015351285 0.23122899 -0.07329927 0.058181465 0.49039346 0.28200483 0.13139819 -0.13528518 -0.08265979 0.07186013 0.109198116 -0.12853178 0.13564679 -0.09842289 -0.19270231 0.22231853 -0.3356813 0.018523715 -0.25919855 0.16821373 -0.1693587 0.07857035 -0.1982245 0.1206784 0.12260439 -0.44298717 -0.25588545 0.014537039 0.3109331 -0.044390213 0.10087274 -0.12201842 0.07349249 -0.046536274 0.016294735 -0.08123516 -0.18420169 -0.48053452 0.006258154 -0.19873396 -0.20614351 -0.17318565 0.20996818 0.16230863 0.25727043 -0.20871958 0.13369694 0.105969116 -0.22952871 -0.0902616 0.33598018 0.006940586 0.04057654
45 -0.14655696 -0.13549337 -0.10798201 0.05880266 0.11419666 -0.0040369546 0.16574231 0.112254836 -0.19073406 -0.07306668 -0.17230481 0.17422624 0.26036286 0.072304405 -0.22324169 -0.023167878 -0.11544421 0.081801206 0.009279464 -0.22078104 -0.14412124 -0.24498521 0.039519962 0.09937195 0.048853617 0.30651632 -0.03148466 0.25690383 -0.045725033 0.22788487 -0.028933667 0.34580076 0.083886 0.024192717 0.08776353 0.024763834 0.24273333 0.10276928 0.084910415 -0.07520497 -0.10547933 -0.049996722 0.11337341 -0.060135912 -0.17377704 -0.08689477 -0.0055901064 -0.16747785 0.17063114 -0.0429633 -0.2738559 0.004327465 0.029619401 -0.1378534 0.16058002 -0.18072024 0.041959893 -0.32016236 -0.150048 -0.09578805 0.25378948 -0.30279487 -0.03166293 0.07784609 -0.08537902 -0.040005323 -0.07721769 0.2677939 -0.25129616 0.064828716 -0.24279682 0.26586363 -0.12073933 -0.030018335 0.109928064 -0.0026242593 0.28701907 -0.06344735 -0.039754253 0.5866678 0.26004115 0.1118682 -0.06558718 -0.040056996 0.08111643 0.11130121 -0.10588643 0.1205887 -0.07823151 -0.063653305 0.24083035 -0.2916211 0.038577512 -0.1659376 0.13010864 0.013274342 0.049006585 -0.21055296 0.18747129 0.19058071 -0.47470754 -0.2883609 0.020947846 0.32038847 -0.08663857 0.10224268 -0.20055063 0.049984872 0.00821991 -0.020321934 -0.025960261 -0.2067732 -0.47090015 0.00044285116 -0.11482923 -0.13856189 -0.12105012 0.22537118 0.24337354 0.13438001 -0.21248049 0.106887355 0.12891611 -0.3213843 -0.0878168 0.3088821 0.07737094 0.123084754
11 0.056140117 -0.08292909 -0.20455338 -0.24694331 0.053347282 0.15384859 0.05234601 0.037917968 0.19330506 -0.08091 -0.10098409 0.22850946 0.06195499 0.13699256 0.012228889 -0.26211607 -0.1155863 -0.19312263 -0.31356576 0.08640221 0.309695 -0.11597517 -0.004104632 0.19563729 0.03398105 0.13699538 -0.19776097 0.09724046 -0.0034156952 -0.25144678 0.16379802 -0.03645713 0.029563662 -0.35026106 -0.10186915 -0.004757432 0.2262304 0.16675092 0.11504469 0.09325674 -0.078727394 0.24000181 0.085996635 -0.07163963 0.06075535 0.2746207 0.07685523 0.06162796 0.065869905 -0.033730317 -0.1959585 0.1396544 0.19612558 -0.2957228 0.2990452 -0.18835792 0.10270059 -0.1949744 0.014701143 0.0027343535 0.06328947 -0.25287345 0.22483604 -0.084573396 -0.2822375 0.33653602 -0.1447732 0.123067334 -0.056557115 0.19330703 0.051429182 0.15618609 -0.06711801 -0.037414674 0.27320403 0.0056183008 -0.12001476 -0.19546522 -0.01429893 0.11372774 0.09113055 0.026829539 -0.08562501 -0.21170314 -0.22267859 -0.14619757 0.25071126 -0.07721962 0.11231323 -0.104282476 0.025118401 -0.082055345 0.16273043 -0.09357866 -0.10813426 -0.1103663 0.24021375 -0.11290326 -0.020072516 0.34535384 -0.121302865 0.1067008 -0.059540674 0.27043524 -0.011552925 0.07700764 0.11940701 -0.12231966 -0.16495101 0.04893458 -0.09284693 0.071574435 -0.288296 -0.008831008 -0.2507696 0.22094381 -0.03221326 0.13325605 0.16275443 -0.2992184 -0.08842776 -0.15409303 0.147277 -0.19753146 -0.07417671 -0.016956963 -0.10785297 -0.17081566
28 -0.05579717 -0.16351809 -0.12317608 -0.022680698 0.008376342 0.06655648 0.050616078 0.0091181835 -0.23703513 -0.0321954 -0.18100071 0.11134579 0.17906818 0.006559082 -0.07865868 0.00839753 -0.15401782 -0.07737273 -0.023827182 -0.26410767 -0.101798095 -0.1455503 -0.04837529 0.18024173 0.15360011 0.29308948 -0.01667329 0.17918213 -0.11813567 0.020319663 -0.12143707 0.38043007 0.019783324 -0.055876594 0.086024635 -0.046603713 0.34798425 0.15001112 0.094252214 -0.07012421 -0.13219091 -0.096464545 0.19473593 -0.09062805 -0.19872823 -0.057095855 -0.1230689 -0.29860455 0.13642736 -0.011290333 -0.25343716 -0.030449955 -0.11224165 -0.14606431 0.14518368 -0.1649603 0.19906305 -0.2344766 -0.2709303 -0.19360103 0.21473186 -0.26765 -0.030803753 0.19494915 -0.0447325 0.04990172 -0.03380625 0.2601907 -0.22664213 0.1541511 -0.19583242 0.22507805 -0.08120451 -0.0038738365 0.03627212 0.059048586 0.3213078 -0.06925391 -0.010513903 0.42475313 0.2886762 0.10694811 -0.07376007 -0.15143245 0.09873528 0.08673081 -0.02358082 0.096680224 0.029654205 -0.055064715 0.18124595 -0.21967614 -0.026846308 -0.18957748 0.1111367 -0.11294567 0.057262823 -0.111199066 0.13612524 0.12143599 -0.45663157 -0.27228525 0.08553844 0.39010864 -0.022869747 0.032786876 -0.18464436 0.15758675 0.0071090204 0.054026786 -0.0907681 -0.15625478 -0.4390886 -0.035889845 -0.08229751 -0.19664145 -0.14198908 0.22685508 0.14305833 0.22233742 -0.24830016 0.1677531 0.12261897 -0.31204757 -0.105821624 0.3751228 0.061541483 0.1459501
5 0.06652939 -0.14738554 -0.17604364 -0.13821934 0.050162464 0.11797993 0.23559573 0.059254833 0.25956059 0.008692792 -0.03278914 0.16463321 0.045964867 0.1381776 0.061384007 -0.24499296 -0.063790224 -0.11597815 -0.21477921 0.07535229 0.16653134 -0.08707613 -0.0128308805 0.19600166 0.075238965 0.07205335 -0.12662615 0.14165182 -0.026103355 -0.15413192 0.17597534 -0.12770838 0.014270758 -0.26948544 -0.1383432 0.009207515 0.08016824 0.17709233 0.068234034 0.10658593 -0.03507756 0.21944848 0.032865107 -0.026444845 0.052224386 0.26902804 0.15110752 0.14268239 0.12055002 -0.09965679 -0.22237204 0.20097251 0.20874646 -0.25578308 0.29920894 -0.2100225 0.091902465 -0.197669 0.06278583 0.16503449 0.031883005 -0.20778914 0.15307702 -0.11355055 -0.32202253 0.24699292 -0.19089054 0.09194248 -0.015062271 0.11566713 0.05314016 0.21643695 0.084338166 -0.15747537 0.42419425 -0.099064805 -0.16513613 -0.20110823 -0.078587234 0.14583622 -0.10508255 0.109251626 -0.13347547 -0.11000768 -0.3228487 -0.1452769 0.16026485 -0.13329057 0.038021542 -0.15911627 0.16865562 -0.111625575 0.17315097 -0.086165905 -0.15872267 0.0008347222 0.17802918 -0.23949814 0.10518255 0.40272748 -0.22784641 0.049987298 -0.09788911 0.20497663 -0.16336565 0.115912296 0.040962886 -0.09351382 -0.17932785 0.047682885 -0.08885609 -0.04195769 -0.25875613 -0.07790117 -0.33585212 0.17260231 -0.048272215 0.24382956 0.16786422 -0.27278158 -0.1587119 -0.06792909 0.10431167 -0.19451553 -0.023045892 0.06454865 -0.093879566 -0.034522887
53 0.05273271 -0.10431896 -0.25558507 -0.31206578 0.09127445 0.100913934 0.08122087 -0.0003456418 0.18366288 -0.030552004 -0.040306374 0.20612359 0.027152456 0.23410276 0.0033427668 -0.23785324 -0.13946922 -0.2459084 -0.20275383 -0.003921715 0.18303952 -0.0780504 -0.11597182 0.22375888 0.02848583 0.0715723 -0.12488197 0.12897934 -0.035630938 -0.2733122 0.23050174 -0.07903197 0.07547726 -0.4213268 -0.1500205 0.08549045 0.24933644 0.20702103 0.16068257 0.09155027 -0.053354412 0.21673179 0.095424935 -0.064374074 0.055599067 0.24758692 0.08208629 0.08750485 0.12665775 -0.09169335 -0.18538071 0.14367366 0.22239615 -0.23819846 0.34814575 -0.17173354 0.15739913 -0.20502527 -0.0075137243 0.15870827 0.030892737 -0.24670148 0.22248657 -0.0832271 -0.27598092 0.24437977 -0.10851792 0.10572806 -0.14399539 0.082810454 0.07128743 0.23123139 0.07169036 -0.017207414 0.2519384 0.03448562 -0.062391136 -0.12521985 -0.034196693 0.12285321 0.07471883 0.022520257 -0.12640783 -0.1113986 -0.2409623 -0.07387757 0.27332637 -0.025991552 0.10117804 -0.11159512 0.16888621 -0.10160329 0.14001523 -0.10108957 -0.12365415 -0.049772013 0.33202198 -0.2377129 -0.021805197 0.37482613 -0.14162487 0.15668128 -0.049273428 0.2594236 -0.00889776 0.043614402 0.17135142 -0.17197737 -0.11413094 0.08319033 -0.2175181 -0.0030020864 -0.19123363 0.007295384 -0.36778545 0.25584072 -0.058900848 0.26701915 0.1742417 -0.35921255 -0.1467008 -0.13444847 0.09311072 -0.24137412 -0.14696723 0.04099002 -0.048925538 -0.11758942
26 -0.19629773 0.10044753 -0.062255435 -0.420603 0.15997918 -0.15877819 0.020276476 -0.1380132 0.05630639 -0.30694777 0.2288947 0.14179888 0.2397524 0.11050532 -0.38662964 -0.10462449 -0.32470697 -0.15196936 -0.27898526 0.06295752 0.35848936 0.07140083 0.35027537 0.48654145 -0.19586723 0.114558786 -0.2236345 0.0685978 0.2310757 -0.08446849 0.15894473 -0.13312078 -0.251936 -0.23443744 -0.26851088 -0.22102514 0.0027166079 0.3575046 -0.1665818 0.010277744 -0.124224305 0.16899346 -0.17744794 -0.22929731 -0.34169763 0.21762304 -0.06364192 0.48043495 -0.05303315 -0.059176404 -0.18002586 -0.018118111 -0.26348135 -0.508287 0.322446 -0.4626135 0.29190636 -0.015984342 -0.103400186 0.1945996 -0.049631353 0.26418775 -0.19327277 0.007633902 -0.37240776 0.336254 -0.024351785 0.25688404 -0.093593344 0.38143247 0.23276684 0.36764693 -0.20241027 0.10902664 0.21868542 -0.015772495 -0.0915597 -0.15164664 0.3602554 0.4830307 0.06198235 0.14743446 -0.09283565 -0.225857 0.18215008 0.17726867 0.05386034 -0.12847687 -0.02090764 -0.2578683 -0.070578225 0.09824104 -0.0033370662 -0.37608087 -0.13059723 -0.27772117 0.14374043 0.1267652 0.24205971 0.4544568 -0.44448715 0.0072616134 0.10337085 0.35909265 0.098043874 0.27844596 0.2432484 0.24069077 -0.085065044 0.016751144 -0.21834096 -0.11879845 -0.29584393 0.28542703 -0.18573761 0.13635896 0.08713622 0.20634827 0.24389665 -0.8202716 -0.011367876 -0.37645602 -0.041079067 -0.21739869 0.014462565 0.5229859 -0.279012 -0.34188747
44 -0.15238443 0.05989831 -0.142507 -0.46910828 0.14823288 -0.22125824 -0.123269 -0.24071412 0.085284226 -0.2224645 0.30638894 0.038275138 0.15084901 0.09401039 -0.2920633 -0.13199343 -0.33732733 -0.21284598 -0.2241001 -0.11753302 0.19793116 0.16653705 0.21903549 0.53647727 -0.16033398 0.2134531 -0.08244017 0.27570355 0.26697108 -0.028490081 0.21165636 -0.040941082 -0.19748986 -0.1864491 -0.2443119 -0.2550531 0.087411694 0.33951685 -0.17662539 0.062300477 -0.18946883 0.111770205 -0.1093764 -0.20351882 -0.37017277 0.23953082 -0.040367834 0.46737024 -0.084530294 -0.077353686 -0.24838121 -0.06277873 -0.15838037 -0.4987957 0.29354647 -0.5420266 0.30537853 -0.08441147 -0.15826191 0.19948684 -0.16467541 0.2254958 -0.19061987 0.009653782 -0.42070302 0.39417255 0.0061379843 0.33247045 -0.11714974 0.44642365 0.26178795 0.4147172 -0.13982366 0.009921928 0.2670571 -0.034330364 -0.13267966 -0.25872934 0.32584384 0.3546343 0.17997293 0.14901035 -0.111102216 -0.2769022 0.20637459 0.17801294 0.08570394 -0.06934838 -0.047494046 -0.30241475 -0.19220223 0.11684825 -0.049797088 -0.45656866 -0.20258641 -0.27486834 0.2614455 0.19750752 0.17662354 0.34360078 -0.4168883 0.078180805 0.07836365 0.40418103 0.15572979 0.330858 0.20725858 0.23171596 -0.021621967 0.061895724 -0.22411214 -0.21837105 -0.44361582 0.095477305 -0.20158897 0.045133717 0.06455649 0.066848315 0.18362857 -0.4433389 -0.022834321 -0.34130704 0.0072531146 -0.1586368 0.0037923474 0.43748483 -0.28575817 -0.25561953
57 -0.08561151 0.10411174 -0.07815724 -0.4422246 0.13258143 -0.22329004 -0.08765523 -0.22810522 0.085235804 -0.15828186 0.22084537 0.0012091994 0.16383377 -0.014822673 -0.27587664 -0.20502108 -0.30675647 -0.18572596 -0.28933218 -0.01642747 0.28236353 0.11280934 0.28302053 0.40033236 -0.17915563 0.16674946 -0.18281753 0.24359652 0.27826506 -0.036526572 0.29279703 -0.071994916 -0.23878641 -0.3163243 -0.29266918 -0.17133757 0.123218656 0.39032152 -0.08045323 0.045619912 -0.074883215 0.20967737 -0.07793047 -0.28700566 -0.3568751 0.28914315 -0.06451664 0.3915699 -0.035175625 -0.085931785 -0.3047812 -0.030183414 -0.2017687 -0.601831 0.2639885 -0.5738368 0.3382928 -0.069918945 -0.18307698 0.20300777 -0.13015819 0.2032196 -0.20204562 0.019974744 -0.37427366 0.40692756 -0.019236231 0.29116446 -0.07974614 0.48476315 0.23522194 0.34588432 -0.12600476 0.028371459 0.18245113 0.033707988 0.027068758 -0.2283029 0.40432528 0.4569651 0.24648333 0.10202909 -0.08688388 -0.40688443 0.20895946 0.19740155 0.13563831 -0.11408239 0.02706999 -0.28766346 -0.0854432 0.13643073 -0.01728731 -0.42921335 -0.15964326 -0.25374568 0.1794231 0.23035306 0.07700738 0.38250566 -0.3556694 0.110482 0.10301292 0.34632957 0.13640593 0.29043174 0.16651103 0.22390923 -0.04276362 0.05395752 -0.29035997 -0.06690948 -0.41912115 0.15571156 -0.26147938 0.13006216 0.070057645 0.11593037 0.23277135 -0.6526776 -0.06163214 -0.33373943 -0.012340778 -0.21785185 0.0070352615 0.52843666 -0.2818792 -0.28136614
63 0.11828937 -0.13355559 -0.26253724 -0.22767626 0.114537716 0.10883582 0.11203197 -0.039222565 0.16285889 0.037284527 -0.078735955 0.08210389 -0.014301184 0.07298112 0.14214855 -0.24585272 -0.15615556 -0.20102593 -0.21947995 -0.020850947 0.17758015 -0.04450951 0.013581948 0.22086896 0.06440772 0.11542574 -0.090185 0.11521266 -0.08488429 -0.21155784 0.19986522 -0.08820014 0.03630002 -0.39300618 -0.12517957 0.03247701 0.14278328 0.24964704 0.14599068 0.11741407 -0.06346111 0.33745912 0.09564196 -0.09345245 -0.019041296 0.31402242 0.13235971 0.17761052 0.117356025 -0.0054648444 -0.25539052 0.14147066 0.18485412 -0.28606436 0.3089307 -0.26095864 0.08370956 -0.274637 -0.016152058 0.06316295 0.07511392 -0.20984747 0.0656402 -0.013242079 -0.26881698 0.24541786 -0.1237222 0.03827713 0.008193131 0.13699043 0.10336526 0.13387725 0.000728983 -0.06731878 0.2501431 -0.051744513 -0.06606431 -0.12133353 -0.014475191 0.12995566 -0.023058215 0.064253904 -0.055167776 -0.29187506 -0.17452265 -0.012845639 0.24192123 -0.12757042 0.071455814 -0.08379444 0.20295535 -0.06607846 0.17343913 -0.101265274 -0.12293368 0.024164867 0.30584684 -0.17359729 -0.016637884 0.36847702 -0.14239569 0.07985041 -0.11372612 0.18822527 0.06402197 0.103705145 0.16730054 -0.12998374 -0.05852928 0.032288264 -0.19629888 -0.018261714 -0.33535016 0.009750146 -0.3544854 0.23939425 -0.06331206 0.24040256 0.18199946 -0.346923 -0.16351049 -0.13812053 0.18681051 -0.21097204 -0.097295105 0.098696195 -0.06974467 -0.10308537
25 -0.17720677 0.117919564 -0.053418297 -0.3688276 0.102705315 -0.19612706 -0.06767281 -0.1710516 0.07844758 -0.23605716 0.25740704 0.0922304 0.1582779 0.067040116 -0.32679296 -0.1914381 -0.29985377 -0.12442725 -0.26918226 0.033059068 0.33266303 0.03157773 0.2973549 0.34959495 -0.23127924 0.17825438 -0.17077656 0.121597975 0.28197563 -0.039493766 0.20642182 -0.110097595 -0.22645335 -0.19630939 -0.2072754 -0.13491698 0.103824496 0.29751652 -0.1082168 0.0044887764 -0.13347329 0.10484412 -0.0914044 -0.22481205 -0.31028885 0.1939141 -0.066432744 0.32180482 -0.013658355 -0.08324979 -0.22622544 -0.03965799 -0.18892333 -0.45503536 0.20665449 -0.40323427 0.31843618 -0.082080424 -0.17832729 0.15352245 -0.036597963 0.19325121 -0.18035156 0.04515182 -0.38168094 0.3749258 0.0077945995 0.22964485 -0.09285078 0.4412531 0.258344 0.26591527 -0.15624353 0.06007563 0.15094116 0.029161636 -0.07539878 -0.21914083 0.3792574 0.3860629 0.11176773 0.096633635 -0.052562088 -0.238524 0.22667563 0.11039562 0.04377824 -0.12963866 -0.02848731 -0.34204647 -0.15551355 0.08318887 -0.018075284 -0.4579233 -0.16271076 -0.33465755 0.14259683 0.1495328 0.19564575 0.48070252 -0.44636166 0.010632931 0.04241995 0.4104076 0.1567093 0.2856878 0.22716855 0.27953923 -0.08410318 0.09974584 -0.22549541 -0.17558552 -0.39715606 0.17089862 -0.25984484 0.050914533 0.058086008 -0.010167818 0.22952634 -0.57265645 0.012875697 -0.34877804 -0.00075803674 -0.24379191 -0.0018914541 0.48680478 -0.28198728 -0.37528577
62 -0.21145657 0.00899753 0.030505948 -0.19077551 -0.03465403 -0.096058704 0.06851397 0.0065006423 0.104373634 -0.16250582 0.17653692 0.3108963 -0.010035761 0.16910732 -0.19334002 -0.041619364 -0.29615963 -0.18325178 -0.17182478 0.012715806 0.25903937 -0.061165653 0.097412206 0.2075358 -0.03371339 0.11003397 -0.12166389 -0.14632791 0.07579414 -0.2999727 -0.100682236 -0.076320544 0.08081483 0.038897388 -0.065136194 -0.2660423 0.016977707 0.04964155 0.10450698 0.16260098 -0.3296135 0.022679772 -0.0035898876 0.18330097 -0.042436797 0.22124495 0.098366015 0.1941504 -0.13824639 -0.078130335 -0.019775743 -0.21694246 -0.04261729 -0.10190359 0.27085012 -0.05922791 -0.11072663 -0.21066426 -0.1307816 -0.44418842 0.30370173 -0.09310307 -0.2269072 0.1448644 -0.18592387 0.1899425 -0.13801675 -0.0046507395 0.37613663 0.25067464 -0.1886513 -0.08501885 0.50457764 -0.43639028 0.2947159 -0.10173082 0.13154514 -0.17460555 -0.16312322 -0.22278188 0.05995398 -0.029112954 -0.004707747 -0.2628118 -0.24209195 0.0828815 0.3093596 -0.17433952 0.09632682 0.22948843 0.13185196 0.0086715 -0.09736004 0.23943545 -0.076237395 0.117205635 0.2708117 -0.100379415 0.009165592 -0.07394922 0.075128086 0.072410904 0.08148952 0.19019772 0.078622654 -0.071786255 0.21765491 -0.05003991 -0.06322744 0.2422717 -0.16025288 -0.063837 0.16206525 0.09496919 0.06557214 0.03806811 -0.101679794 0.35197312 -0.13655941 -0.19346428 -0.06563582 0.20635985 -0.13387507 0.037619192 0.042829033 0.108082406 -0.17093626 0.092305034
29 -0.16135903 -0.16155562 -0.21615185 -0.013589104 0.26619583 0.011716869 0.0774057 0.0350445 -0.3734347 -0.22705054 -0.18825302 0.13432775 0.3472963 0.12991364 -0.30242085 -0.04440121 -0.24709478 -0.02777234 0.052559603 -0.36509037 -0.09955172 -0.19263613 0.03832175 0.31910226 0.04973012 0.3280503 0.0070690922 0.14891383 -0.09213025 0.1989575 -0.09980864 0.4534648 0.0031523192 -0.23906706 0.10094163 -0.007371754 0.33049318 0.28755534 0.06376255 -0.08913104 -0.09108636 -0.05643801 0.1044213 -0.21228652 -0.2562455 -0.06275559 -0.1849767 -0.23800519 0.15917096 0.02825938 -0.21049833 -0.06838001 -0.15599813 -0.08908418 0.28118044 -0.087342255 0.29670507 -0.35436305 -0.2286565 -0.16388941 0.25833446 -0.30997533 -0.02338678 0.18133536 -0.08164307 0.03907062 -0.02594269 0.16766067 -0.18738586 0.23283392 -0.13912252 0.25156134 -0.27567664 0.08238683 0.053607695 0.0059878356 0.2540352 -0.08289697 -0.014883222 0.5835825 0.21038638 0.11444585 -0.052159414 -0.22283772 0.079425 0.061986756 0.057164904 -0.030168545 -0.0011775536 -0.013831384 0.10469651 -0.3383036 0.08638763 -0.006773225 0.16954029 -0.033533353 0.058442224 -0.09898242 0.16724618 0.15215798 -0.42171326 -0.24171065 0.097969696 0.417169 -0.0919777 0.15371284 -0.25235444 0.04728492 0.0822345 -0.0031844354 -0.06612947 -0.12194433 -0.37549508 0.0048797205 -0.034449484 -0.17497616 -0.079586215 0.24258514 0.18026529 -0.023669424 -0.20709892 0.12979445 0.024218494 -0.22370161 0.014878575 0.35099474 -0.09221928 -0.008177747
27 -0.07606525 -0.08898322 -0.14344802 -0.1882006 0.037603248 -0.027361142 0.076488644 -0.0068026325 0.112516835 -0.10671911 0.14570802 0.21433619 -0.013882585 0.15734984 -0.09615752 -0.1813404 -0.2681182 -0.1148098 -0.21215951 -0.008769704 0.32391843 -0.018065289 0.12110633 0.27272454 -0.063292764 0.09640668 -0.13496996 -0.11236403 -0.034883805 -0.22847547 -0.038183145 -0.15264273 0.056879923 -0.0024758405 -0.020792056 -0.1621805 -0.05329452 0.107592784 0.07974607 0.13286921 -0.28374943 0.12948409 0.033904932 0.1418371 -0.070696935 0.2698236 0.17688656 0.1518673 -0.031727716 -0.10234934 -0.0045232577 -0.1699174 0.07516446 0.06835975 0.23061989 -0.017727882 -0.084218904 -0.24517044 -0.02507183 -0.2739201 0.19012211 -0.07078034 -0.1685783 0.031557374 -0.19471434 0.1227836 -0.05508873 -0.07821914 0.2597171 0.19007565 -0.22203223 0.0057932264 0.38530204 -0.36368635 0.28772908 -0.101913154 0.11609425 -0.17311467 -0.21528396 -0.07944118 -0.0013081917 -0.073662475 -0.014473573 -0.24888875 -0.2693814 0.16231865 0.37846032 -0.20808013 -0.030475216 0.16532408 0.16728865 -0.12708318 0.013810465 0.14739297 -0.09115696 0.14526895 0.27973294 -0.19990341 0.054151405 -0.033246316 0.01346596 -0.02814493 0.048333436 0.20094033 0.09039069 -0.021403758 0.21615261 -0.11506503 -0.08976608 0.17211485 -0.15963988 -0.13095385 0.25581682 0.011336239 0.06792504 0.042959344 -0.13924403 0.45702085 -0.1713605 -0.24158464 -0.120716885 0.2017937 -0.06780067 0.041839257 0.117912285 0.08028389 -0.17177068 0.1428488
13 -0.22269577 -0.011560595 0.09452598 -0.21840969 -0.09770043 -0.092647634 0.07497423 0.0028294763 0.067822814 -0.14706667 0.08212092 0.304866 0.0627634 0.03954904 -0.19856125 -0.03588489 -0.26767004 -0.15425068 -0.21952616 0.026911685 0.2924617 -0.0497888 0.14085709 0.17087856 -0.037115503 0.19988962 -0.16550513 -0.02095022 0.06253068 -0.31405145 -0.101540156 -0.0073870276 0.09662415 0.004301447 -0.10328454 -0.3405061 -0.025689058 0.08335406 0.13391662 0.16733024 -0.29562047 0.045135044 -0.0100333225 0.15431294 -0.06967168 0.2416615 0.046387155 0.17680863 -0.19139948 -0.04444699 -0.08727073 -0.14664759 -0.094186954 -0.15877028 0.255532 -0.20565882 -0.178333 -0.20144545 -0.09063389 -0.33601457 0.22489849 -0.021807503 -0.200772 0.086333856 -0.16360612 0.16272856 -0.13151826 0.013531959 0.4106262 0.24200657 -0.27481928 -0.05117694 0.48911 -0.47875816 0.26698136 -0.13172172 0.16311431 -0.14440201 -0.12485051 -0.2138008 0.17221718 -0.033269703 -0.10302229 -0.3507482 -0.26589078 0.19569847 0.35058853 -0.12757458 -0.0063400115 0.28328818 0.20927638 -0.020463804 -0.12542188 0.1165921 -0.09373085 0.1546855 0.26005888 -0.06031993 -0.030045984 -0.21595806 0.1063758 0.0028844927 0.14166434 0.14394093 0.086441144 -0.011143722 0.15477474 -0.039878506 -0.1643665 0.21686934 -0.15229319 -0.078297175 0.21094905 0.091226816 0.18985328 -0.0051353713 -0.08445512 0.4292656 -0.18447375 -0.11170918 -0.1424411 0.29766935 -0.104590036 0.010446963 0.10230624 0.18817122 -0.14839734 0.18405156
68 -0.14363156 0.061320547 -0.000900876 -0.25890124 -0.05017871 0.0006568992 -0.023506913 -0.03835293 0.07893625 -0.13998541 0.13847746 0.24730164 0.006233947 0.12518816 -0.0820745 -0.04538395 -0.3171333 -0.18499269 -0.19880207 0.05712953 0.31207278 -0.09887752 0.103724405 0.11558331 -0.089216895 0.14675997 -0.09050409 -0.175163 0.059378505 -0.37956473 -0.13292545 -0.10863621 0.10283649 -0.043236155 -0.033873685 -0.23210286 0.04989989 0.14245184 0.18121581 0.17342235 -0.25137243 0.04911509 -0.025245136 0.1570908 -0.05073787 0.18216531 0.06953903 0.1895204 -0.10453765 -0.04429822 -0.11266743 -0.2041743 -0.020416472 -0.19940396 0.28671384 -0.045065865 -0.08647536 -0.19379012 -0.087134145 -0.40158042 0.32718742 -0.056617633 -0.17685407 0.112634026 -0.13347374 0.19512069 -0.031907268 -0.05643413 0.28329945 0.27204582 -0.17236693 -0.13410215 0.4236254 -0.31444865 0.19175823 -0.04124483 0.06424409 -0.1371059 -0.09183521 -0.1610844 0.081447564 -0.060842477 -0.04034574 -0.12926354 -0.20472239 0.08477627 0.2916958 -0.118471 0.042780213 0.17689526 0.18483937 -0.028578438 -0.11654236 0.12471908 -0.11613897 -0.006928576 0.25370207 -0.11043446 0.005023162 -0.030322606 0.07600595 0.0034334515 0.08131429 0.2434411 0.12607405 -0.13083005 0.280017 -0.06047895 -0.19407421 0.21007772 -0.13137996 -0.035159875 0.111487046 0.15407898 0.037674278 0.032000564 -0.16167732 0.36471686 -0.12290891 -0.23047997 -0.0833192 0.20547023 -0.024303671 -0.012115425 -0.032393645 0.120808244 -0.061067846 0.059675023
56 -0.13009758 -0.14966926 -0.22838956 -0.06403747 0.23510367 0.019970715 0.07983372 0.010454792 -0.31459966 -0.15168741 -0.1841336 0.12778424 0.3066394 0.13503832 -0.22184858 -0.04821571 -0.27992216 -0.07785479 0.007802844 -0.31727186 -0.09470629 -0.20211452 -0.00946106 0.3088344 0.0819059 0.27658275 -0.058932394 0.17051935 -0.06830943 0.04680593 -0.089039095 0.36348158 0.013874809 -0.20323929 -0.007913268 -0.025646575 0.34747732 0.24797922 0.09442979 -0.06452826 -0.09475033 -0.025195012 0.041087963 -0.15396518 -0.16803911 0.003430694 -0.123094454 -0.1380511 0.17387901 -0.07504665 -0.25652677 -0.086418994 -0.072071165 -0.18058446 0.30589762 -0.17181304 0.2682833 -0.3056074 -0.2376653 -0.13004483 0.19990896 -0.20766877 -0.07491882 0.16617058 -0.089053035 0.083879486 -0.16484383 0.2292197 -0.18629298 0.14125355 -0.15875499 0.2638103 -0.19878393 -0.035197236 0.07000644 0.07365425 0.2890405 -0.12855 0.01684226 0.606368 0.120286115 0.15203753 -0.028153766 -0.09636606 0.10172032 -0.04684632 -0.016704908 0.024290947 0.10579078 -0.07147473 0.13248198 -0.28552574 0.056708734 -0.10489431 0.14192045 -0.05412641 -0.0033571594 -0.12963587 0.12366557 0.21766149 -0.41986045 -0.15753569 0.10073956 0.3258788 -0.12960574 0.09867604 -0.2168021 0.010482203 0.060423154 -0.020364886 -0.08657283 -0.082108065 -0.40269718 -0.012349654 -0.16921473 -0.13045864 -0.045691323 0.183772 0.26569828 -0.010985702 -0.21390492 0.10714449 0.032935362 -0.26869625 -0.05682992 0.3355908 0.020716207 0.042194314
30 -0.081996605 -0.18765438 -0.14773697 0.08086784 -0.20036112 -0.049271546 0.33907807 -0.041391708 0.111435674 0.12530236 0.11686647 0.0999057 -0.046742383 -0.040069573 -0.028951982 -0.047413938 -0.05506077 -0.034881547 -0.13050368 -0.025263907 -0.0523515 -0.120392874 0.2143774 0.019017614 0.26988798 0.2157601 -0.02216889 0.14585285 -0.084994264 0.14212279 -0.198359 0.16086394 -0.23798192 -0.114819296 0.0352078 0.16781233 -0.028901279 0.19423646 -0.1548128 -0.20460433 -0.1320152 0.2400782 0.220497 -0.042728283 -0.20389253 0.095811665 0.0028792717 -0.09300064 -0.052228328 -0.03607889 -0.26557687 0.13816786 -0.08847213 -0.26370007 -0.10921831 -0.3377262 0.22122933 -0.09579005 -0.20328796 -0.34784633 0.26495257 -0.21047018 -0.103622444 0.12493601 -0.12082873 -0.18878989 -0.04419235 0.17540549 0.096971504 0.07352261 0.079475015 0.23187147 0.022580495 0.056855682 0.09324374 -0.28631672 -0.05504276 0.082351245 0.14411494 0.40208414 0.077130936 0.039354026 -0.07672144 -0.0029936496 0.0019846894 0.1406538 -0.1516357 0.08010021 -0.3165658 0.021495037 0.14133029 0.060140964 -0.11854945 -0.087575436 -0.089896806 -0.030608935 0.259198 -0.05469868 0.13904835 0.12616858 -0.051345106 0.042964887 -0.103817366 0.17478564 0.16207191 0.025957502 0.21916756 0.20995392 0.28056037 -0.041187465 -0.13358961 -0.30156183 -0.547049 0.1474561 -0.20611683 0.11027673 -0.4195385 0.05799939 0.14393689 -0.06287799 -0.03906062 -0.22736946 0.067972764 0.0002851751 0.080901 0.10664967 0.016945414 0.08015183
36 -0.079932354 -0.17050093 -0.09197108 -0.054347046 -0.11101349 -0.07253607 0.22047977 0.00627248 0.13699241 0.13521709 -0.020278571 0.18201502 -0.014727468 0.009479419 0.06793494 0.050622143 -0.15651275 -0.17563687 -0.10493911 -0.13760555 -0.01630083 -0.05127891 0.12724906 0.23349401 0.34664172 0.23049006 0.008273261 0.17501205 -0.10647648 -0.06332528 -0.09721398 0.23529431 -0.25480026 -0.28290054 0.021476155 0.19159614 -0.05446688 0.057098843 -0.10992434 -0.13358317 -0.0932744 0.30004004 0.25469065 -0.08078311 -0.10088761 0.1741116 -0.053594142 0.04241242 0.0015977925 0.077457234 -0.33035138 0.28221387 -0.053049527 -0.39113906 -0.18466721 -0.3777859 0.31059685 0.025961347 -0.27836388 -0.27782166 0.17339274 -0.22603567 -0.04567011 0.21864174 -0.15874597 -0.13677599 -0.043533128 0.23802312 0.10393245 0.09427343 0.06349458 0.212865 0.040210012 0.15010186 0.09183561 -0.26899356 0.013423375 0.15160888 0.045248322 0.39266396 0.10770103 0.104275905 -0.09836777 -0.1285282 -0.06987221 0.09998055 -0.16127652 0.111274675 -0.20401281 0.028200978 0.1998241 0.14252965 -0.046848156 -0.07587561 -0.11025178 0.050619397 0.4128845 -0.034861583 -0.019220544 0.13886422 -0.091863334 0.018362926 -0.18636721 0.2432244 0.20571387 -0.1082519 0.02254064 0.17715752 0.40897474 0.031878293 -0.1511521 -0.16203685 -0.47940063 -0.037324384 -0.16320449 0.15835692 -0.27878118 0.058231276 0.02920736 0.13859658 -0.08715574 -0.07604146 0.06928409 0.07502674 0.071538895 0.0125402035 -0.14152208 0.21027865
20 -0.19509122 -0.102282725 -0.20250645 -0.08505239 0.24158385 -0.011239105 0.07257215 0.052970175 -0.39067724 -0.28237626 -0.15622625 0.15202688 0.38576734 0.18040474 -0.3228446 -0.041517127 -0.32102776 -0.038588412 -0.0018254825 -0.30942607 -0.039418034 -0.18454367 0.021529363 0.30546123 -0.03375662 0.30510834 -0.07332161 0.111432984 -0.026685964 0.057794735 -0.095560946 0.33396167 0.053429484 -0.18865958 0.027110498 -0.038064454 0.33467805 0.15920024 0.09621294 -0.07487024 -0.16337402 -0.053272683 0.09069084 -0.14290947 -0.16515611 0.06785051 -0.16743527 -0.21587639 0.18682542 -0.08887862 -0.30839747 -0.034782525 -0.04977005 -0.23527898 0.26093844 -0.16156825 0.29470655 -0.28816774 -0.24113905 -0.15701494 0.27532548 -0.2303634 -0.03134094 0.1580396 -0.039582245 0.03091794 -0.032751333 0.17983173 -0.2155721 0.13961329 -0.14163256 0.2333061 -0.26538086 0.07595397 -0.078518316 0.113748774 0.21539384 -0.036285736 0.033741344 0.54243207 0.1689018 0.08731289 -0.051864997 0.020903086 0.15912262 -0.037440717 -0.096095435 0.11089031 -0.0304996 -0.07566199 0.14543018 -0.25229526 0.080362 -0.13924867 0.053308807 -0.07861269 -0.036756046 -0.16910939 0.14367089 0.27057233 -0.45526597 -0.18734407 0.07404927 0.33666083 -0.08451224 0.006096239 -0.120882764 0.105425596 0.06965324 0.028699804 -0.11666636 -0.093879536 -0.27895427 -0.016511576 -0.1699243 -0.24137563 -0.1094061 0.13071321 0.1320949 0.07987586 -0.12755495 0.06938401 0.052647546 -0.31330064 -0.03633292 0.31901124 0.045232814 -0.00279392
54 -0.094395034 -0.20341018 -0.16990043 -0.020306636 0.18912219 0.010127497 0.154342 0.050556406 -0.26118925 -0.12112117 -0.21374997 0.14051789 0.24623346 0.13196623 -0.18979602 -0.012421314 -0.2938198 -0.08606972 0.06986833 -0.39571616 -0.19141026 -0.19105604 -0.031006377 0.34772253 0.17260984 0.29396212 -0.013606202 0.17579676 -0.121137105 0.13167344 -0.03326151 0.43316117 0.051999416 -0.14701988 -0.0040371944 -0.06448974 0.3171446 0.19365689 0.071578056 -0.035651166 -0.019867847 -0.08652233 0.026637508 -0.18707827 -0.19341263 0.010694423 -0.15816216 -0.15091698 0.22875649 0.0150479 -0.18759543 -0.13576682 -0.050263245 -0.076649345 0.17106876 -0.09504275 0.2618322 -0.2048988 -0.22463775 0.031185852 0.035885625 -0.09218331 -0.119367175 0.15245686 -0.03930264 0.09976642 -0.008618833 0.19470182 -0.22888984 0.15576164 -0.1375161 0.23900434 -0.18377973 0.06987654 0.029104313 0.1347008 0.2843273 -0.070894614 -0.006905374 0.4137535 0.1352139 0.14221978 -0.034716874 -0.19659941 0.10496599 0.025398118 0.007746226 -0.00023218329 0.09031042 -0.0439291 0.25491235 -0.1936239 0.098996274 -0.034127686 0.02570581 0.07198682 0.09961943 -0.15545139 0.111824244 0.23637007 -0.48126137 -0.1297782 0.066043355 0.39899674 -0.15859829 0.06402106 -0.2851222 0.10847036 0.103141695 0.04535127 -0.14450969 0.0053151892 -0.34715527 -0.12284304 -0.18061155 -0.18331622 -0.033164516 0.2650961 0.12916785 0.06005851 -0.24315637 0.15675408 -0.00701248 -0.2728802 -0.04040117 0.39065176 -0.0066277133 0.087263785
59 -0.053139202 -0.11358707 0.080286555 0.32286668 -0.18986125 -0.10392523 0.6424535 0.33633208 0.0044194926 0.15093699 -0.37616187 0.25527743 0.3683338 -0.19452344 -0.42915568 -0.16208068 0.27210924 0.29045793 0.028388973 0.2799386 0.00039363385 -0.431472 0.18567431 -0.31644514 0.3121619 0.2911472 -0.425434 0.5775799 -0.08128266 0.55029047 0.32958716 0.4301455 -0.1547829 -0.14477198 0.03578371 0.2677548 0.30814072 -0.047064055 0.0031102698 -0.30718592 0.17423683 0.26381552 0.2730439 -0.07733102 0.075670145 -0.02644337 0.093334705 -0.5024536 0.18510777 -0.09381874 -0.15949932 0.036982134 0.20806926 -0.12697875 -0.2126857 0.05236461 0.44956723 0.101935215 -0.1776338 -0.38314757 -0.032201182 -0.11912871 0.16110048 -0.059905834 -0.03071756 0.09547318 -0.1008962 0.14477049 -0.08274528 0.14579706 -0.18931097 0.16054323 0.12590463 0.14879388 0.029910918 0.073332064 -0.078705 -0.032717012 0.15849696 0.41285625 0.3550423 -0.20348227 -0.15903297 0.06698951 -0.12302562 -0.080563925 0.36177662 0.2838435 -0.28313524 0.17245655 0.10217636 0.057094816 -0.06143762 -0.18420663 -0.49271995 0.027414631 -0.022893883 -0.15316777 0.037571937 0.65732753 -0.017089348 0.2599379 -0.08454672 0.07630118 0.11513655 -0.36781475 0.30908316 0.12158862 -0.13876301 0.30207127 -0.15131319 -0.17617552 0.061570756 -0.024904724 -0.5698168 -0.039335933 -0.60319924 0.36835426 -0.16911906 0.038121995 -0.026859995 0.040715087 0.04102128 -0.31883916 -0.060728822 0.022989228 0.19960327 0.17604353
35 -0.07334611 -0.16249345 -0.09957632 0.08655547 0.052167706 -0.046460442 0.22576778 -0.026122749 -0.19694427 0.086170815 -0.14800903 -0.04374172 0.042928614 -0.19837035 -0.037728637 -0.12608907 0.16751905 0.1105098 0.17768429 -0.05182924 -0.06537084 0.086595744 0.04396108 0.11241972 0.22897421 0.07998167 -0.14921877 0.24672523 -0.24719518 0.25308794 0.08896493 0.2283816 -0.07999677 0.0077424217 -0.021104202 -0.08527865 0.27290335 -0.07061837 0.037392545 -0.16342503 -0.42706403 0.048668783 0.363968 -0.10936362 -0.15608096 0.09925448 -0.12171564 -0.22213036 -0.06751226 -0.07915368 -0.01595897 -0.0036688 -0.2697294 -0.0095449425 0.16323192 -0.34340233 0.048168864 -0.24199878 -0.306185 -0.22101563 0.19014034 -0.25511697 -0.04484116 0.20439114 -0.1028945 -0.14704081 -0.32291323 0.21008115 0.20793627 0.064321 -0.105416656 0.15527262 0.025602069 -0.11937311 0.0026596475 -0.17005229 0.2809419 0.10657652 -0.0057723783 0.4793859 0.2550786 0.052408777 -0.13631071 -0.27530858 0.18003269 0.16099636 -0.018939165 0.1776638 -0.20915622 0.19087532 0.22104552 -0.13800637 -0.13516882 -0.29910225 -0.048239708 -0.036148082 0.17814487 -0.15900597 0.20669149 0.39012757 -0.3315213 -0.119153574 -0.07119862 0.08110573 0.15919095 0.004419835 0.09743655 0.2704186 0.25481904 0.13429657 -0.19099922 -0.4356134 -0.2989924 0.015371247 -0.24517795 -0.067021154 -0.1599611 0.22688974 0.1295397 0.18935199 -0.034888647 -0.05656036 0.05241701 -0.17033356 0.087738656 0.21193226 0.104807824 0.16412306
4 0.025211986 -0.055019863 -0.06653091 0.2332417 -0.09185802 -0.056872178 0.39779863 0.24580903 -0.007598612 0.0726861 -0.24617757 0.20276795 0.42329833 -0.09723418 -0.35136834 -0.10609893 0.20656407 0.22032969 -0.040562212 0.21437359 0.014595798 -0.3294525 0.08084575 -0.20391987 0.19793794 0.25626874 -0.30330962 0.4877895 -0.011764987 0.43690524 0.21799405 0.29208767 -0.2688553 -0.109810166 0.12313871 0.33778027 0.36601835 -0.08922562 -0.0724211 -0.36432344 0.22141474 0.26308382 0.31389695 -0.0045507005 0.058733117 -0.019696428 0.14841072 -0.3817064 0.2734839 -0.16721265 -0.22732565 0.0052078273 0.291082 -0.29007766 -0.1538478 0.065463424 0.5458414 0.16821182 -0.11092122 -0.3935103 0.002862987 -0.18978773 0.26808384 -0.12813859 0.09416923 0.04016685 -0.12710676 0.124049574 -0.14451417 0.05415928 -0.22092801 0.116019845 0.21235077 0.085099906 0.10502131 0.012300925 -0.070544735 -0.020904671 0.052079633 0.5201028 0.44454792 -0.26371515 -0.20158818 0.16484408 -0.060412955 -0.008593855 0.34145197 0.3212826 -0.35258806 0.16417736 0.0531805 0.058445483 -0.026558582 -0.23201653 -0.561538 0.11079919 -0.06834387 -0.08585047 0.075745955 0.64583266 -0.0014603288 0.30043125 -0.032544244 0.114454016 0.065439746 -0.3385063 0.32179204 0.175226 -0.21982418 0.29636157 -0.044723682 -0.2201937 0.05021051 -0.05458625 -0.5889614 -0.06399709 -0.63051164 0.3190359 -0.20527527 0.017833114 0.02407845 -0.022625037 0.09311262 -0.36968774 -0.051579572 0.048550695 0.24351208 0.20316675
24 -0.0114928465 -0.21269174 -0.24634163 0.15596421 0.09672997 -0.039487 0.1480413 -0.14061272 -0.15565172 0.12790498 -0.07782464 -0.07062455 0.1377721 -0.10778662 0.030535413 -0.10275772 0.17839764 0.013332 0.15270947 -0.18015067 -0.15303788 0.00023596702 -0.045716513 0.19688964 0.33288947 0.13559733 0.007352808 0.30778715 -0.19591331 0.3078805 0.0071881725 0.279549 -0.17131509 -0.024404876 0.04974456 -0.028401984 0.38918126 -0.14820924 -0.0065390863 -0.20049095 -0.2951827 0.041577484 0.37431917 -0.018027233 -0.13188517 0.10976655 -0.07512289 -0.105489664 -0.051992074 -0.108462684 0.11770502 -0.060882766 -0.14706257 -0.07941008 0.21153502 -0.17739575 0.15427586 -0.27816892 -0.21807022 -0.19634508 0.14051381 -0.34908992 0.04761757 0.102031685 -0.08830679 -0.117303856 -0.4278994 0.34012005 0.1235249 0.21111688 -0.07513899 0.20455194 -0.021050315 -0.20667931 0.115015104 -0.270295 0.24744426 0.049495555 -0.051034637 0.74726725 0.38018635 0.017453408 -0.16620971 -0.3475768 0.16902581 0.17478275 0.006169926 0.13312969 -0.26037753 0.16654082 0.094195694 -0.18666886 -0.123919286 -0.30428535 0.0046452913 0.059638754 0.2859558 -0.100084215 0.19178881 0.28168252 -0.35652134 0.037707686 0.022156503 0.2665874 0.034142345 0.065605044 0.055985358 0.31056082 0.2204403 0.2643562 -0.02266723 -0.47404036 -0.34042314 -0.025513785 -0.2831001 -0.070846915 -0.15679705 0.26089364 0.046486564 0.18107656 0.008869245 -0.010034888 0.06882484 -0.123060636 0.07620017 0.25679395 0.03496951 0.27409893
38 -0.10676751 -0.09089395 0.25653437 0.3400374 -0.23328182 -0.22622822 0.5533785 0.24620043 0.23629355 -0.0051438874 0.08926247 0.14472598 0.102509975 -0.24771778 -0.41116777 -0.076815315 0.034557626 0.37898543 -0.009748249 -0.016519256 -0.2015263 -0.3294643 0.41457793 -0.10410365 0.22904103 0.37680802 -0.10212532 0.13791008 0.05162796 0.64027274 0.057635047 0.24266508 -0.15404299 0.36875835 0.16863751 -0.07448781 -0.024982601 -0.21368659 -0.090673484 -0.059685066 0.2763505 0.05770804 0.21801782 0.003336155 -0.14520665 0.017923681 0.22351356 -0.4214147 0.14813511 0.032735504 -0.3198663 -0.120632164 0.11847678 -0.31311932 -0.2851495 -0.122008264 0.14844397 -0.058754284 -0.16075417 -0.1878351 0.06913705 -0.17687826 -0.117709726 0.03313022 -0.10258292 0.1903193 0.54449654 0.14819026 -0.1578382 0.5372551 -0.32827663 0.35795215 0.11907811 0.3845272 0.23973133 -0.1018867 0.14186455 -0.051645678 0.08880033 0.679303 0.7449089 0.06097741 -0.33253214 -0.0956786 -0.022639276 0.37177977 0.21222459 0.32178524 -0.456167 0.0867239 0.24014978 0.14067689 -0.038458064 -0.17407894 -0.6063067 0.0020123988 -0.21977197 0.01681289 0.18725507 0.53507066 -0.16566831 0.26823083 -0.20163031 -0.056304947 0.33387536 -0.457603 0.34402984 0.2356973 0.22006327 0.14132096 -0.060066313 0.13288787 0.015210743 -0.15758708 -0.3773251 -0.35087714 -0.4206393 -0.07108544 -0.36642277 0.38031262 0.25972623 -0.0076619377 0.052362274 -0.2048167 -0.20402712 0.15915634 0.14077176 0.013318292
39 -0.0812622 -0.10353442 0.10002558 0.25355905 -0.35776278 -0.13982399 0.79488015 0.27595457 0.30745098 0.17371078 -0.095891245 0.33975494 0.1581561 -0.15893535 -0.3707903 -0.23289447 0.049993046 0.31898376 -0.14325169 0.2623901 0.12632369 -0.5568697 0.484514 -0.20490798 0.2999785 0.6016597 -0.30157557 0.5028278 -0.07614337 0.6332538 0.33508033 0.3138244 -0.10769179 0.34307116 0.2800829 -0.006827129 0.17395246 -0.11905603 0.13115142 -0.09534531 0.16410343 0.3300068 0.293088 0.10495872 -0.1786195 0.026350584 0.31915238 -0.100322366 0.25466803 0.032021772 -0.3791552 -0.32466936 0.36031663 -0.3890827 -0.039217837 -0.039094463 0.17003688 0.06044541 -0.1647517 -0.56112826 0.032393843 0.011928555 -0.15970397 -0.082118236 0.045470677 -0.042808246 0.23839606 0.028064981 -0.23614188 0.055702575 -0.19538316 0.11515789 -0.12887183 0.46403506 -0.15485899 0.18119992 -0.008340461 0.1013334 0.11958878 0.46368274 0.41049346 -0.1459099 -0.18938044 0.1919259 0.21254215 0.21965446 0.14938374 0.4040058 -0.38322732 0.21868306 0.28039154 0.041719157 -0.08216704 -0.38114566 -0.5631962 -0.008493001 -0.21492904 0.11222764 0.099301375 0.59307206 -0.08706645 0.068420306 -0.15293165 -0.14381216 0.34487298 -0.40079805 0.36620706 0.2918194 -0.24066858 0.19978535 0.0055121593 -0.08359219 0.16048343 -0.047857936 -0.373145 -0.30834422 -0.4446116 0.24965037 -0.3469125 0.12356493 0.08393471 -0.03868826 0.31697688 -0.31365177 -0.08818154 0.12785517 0.44563648 0.08518038
2 -0.03707251 -0.17394675 -0.010086517 0.23944665 -0.44001767 -0.22877756 0.86238027 0.3426487 0.31957135 0.10092649 -0.0991944 0.45050356 0.16860956 -0.19057693 -0.46708825 -0.25302738 0.052974056 0.40953422 -0.23429711 0.2508878 0.19521156 -0.4678057 0.4647644 -0.20238951 0.26557726 0.59886366 -0.43981627 0.43574697 -0.06473826 0.68378145 0.38923743 0.32111734 -0.13588256 0.43621364 0.22275783 -0.004553999 0.14352173 -0.15080588 0.021242978 -0.10817787 0.0741503 0.33455557 0.28321052 0.03916015 -0.24658325 0.021486161 0.29173586 -0.251274 0.26249546 -0.075298995 -0.42512703 -0.27424255 0.3205483 -0.2956279 -0.16893655 -0.10085893 0.23742935 0.10622956 -0.15744814 -0.47569284 0.044817183 -0.003385989 -0.10923097 -0.031723756 0.0068505127 -0.020481907 0.26660115 0.03598716 -0.25139916 0.060319856 -0.27470598 0.15067682 -0.17354013 0.37956578 -0.210704 0.24966455 0.037331525 -0.03055133 0.1069452 0.2670197 0.44992545 -0.07753538 -0.15461707 0.19907144 0.12604332 0.1159862 0.12384865 0.44848222 -0.3671189 0.17880979 0.32461786 -0.026331253 -0.036798306 -0.33201015 -0.53463167 -0.11415967 -0.12676775 0.019168759 0.051899236 0.6038365 -0.027886707 0.07847432 -0.10316343 -0.03778999 0.40270954 -0.4969234 0.43892026 0.21725963 -0.14934912 0.27652523 -0.15027688 -0.057105403 0.20569487 -0.11205922 -0.38334775 -0.3310194 -0.5334997 0.35344443 -0.38170537 0.11295205 0.10838468 0.014377578 0.22844031 -0.34396428 -0.046622626 0.13962118 0.3255805 0.11588391
3 -0.111999355 -0.099418506 0.24801984 0.42994988 -0.30377987 -0.2639303 0.6042984 0.2546321 0.10770818 0.006179345 0.08919317 0.07856612 0.051030494 -0.28004405 -0.40988633 -0.042161744 0.024105506 0.42517486 -0.01152706 -0.085567966 -0.2712495 -0.35364902 0.37793452 -0.18913275 0.17909117 0.39402017 -0.032959733 0.14384864 0.06715316 0.7385801 0.04842435 0.23489046 -0.083207026 0.5523975 0.21186996 -0.11209012 -0.09499078 -0.19929315 -0.034677856 -0.0074535944 0.29738474 0.078499645 0.18894334 0.10337725 -0.21166554 0.09277055 0.36479396 -0.39903313 0.1923075 0.07008156 -0.319083 -0.23156507 0.23352015 -0.21262948 -0.4457042 0.052559394 0.07212232 -0.08336808 -0.19458401 -0.32953644 0.06657479 -0.08769827 -0.27976826 0.050549988 -0.1685701 0.08402074 0.64839226 0.092226 -0.07460619 0.49224985 -0.26704186 0.3624553 0.2539779 0.33257726 0.26047048 -0.111204006 0.09517188 -0.13459836 0.18797526 0.4862786 0.62842906 0.08537384 -0.27150026 -0.022336455 -0.049740322 0.36014128 0.16867049 0.28795934 -0.50401604 0.055938017 0.35255334 0.19081038 -0.001278197 -0.15308242 -0.6358057 0.05624091 -0.17511287 -0.0040541547 0.19873291 0.5475601 -0.17690043 0.21613437 -0.283894 0.023431683 0.47013164 -0.45215273 0.36912483 0.23396213 0.2741589 0.109791815 -0.17532448 0.05743216 -0.035878327 -0.19328575 -0.47240773 -0.40105227 -0.6029085 -0.10159083 -0.36235142 0.39253736 0.21436194 0.010025123 0.109829366 -0.22364551 -0.17237529 0.18925786 0.2175711 0.012873245
51 -0.29549557 -0.077703424 0.28819934 0.4079352 -0.19280781 -0.4539619 0.65025455 0.10999665 0.4242031 0.27172673 0.22215487 0.27560923 -0.10607301 -0.13700633 -0.26259744 -0.081131525 0.16178574 0.40390632 0.012575742 -0.09246685 -0.21388403 -0.34272942 0.3211358 -0.43528003 0.12430921 0.46529767 -0.036472283 0.45481518 0.23034874 0.7967763 0.4445091 0.34691355 0.10082934 0.7976905 0.31292787 -0.13014147 0.1803878 -0.10270064 -0.06744306 0.13795105 0.09697738 0.25690162 0.2530097 0.1143572 -0.37588283 -0.15895288 0.599422 0.0779098 0.21751037 -0.078658365 -0.5357152 -0.22179486 0.47357106 -0.50911653 -0.26294678 -0.26976424 0.05281687 -0.0017212181 -0.19490722 -0.5820825 0.23398496 -0.030576386 -0.4430431 0.25081313 -0.36679006 0.22008748 0.4105958 0.30609298 -0.293722 0.27633157 -0.26422903 0.3995603 0.0050383583 0.5199598 0.1860788 0.11959565 0.052851565 -0.098684184 -0.045924865 0.40255684 0.6162128 -0.004522349 -0.07977791 -0.028083324 0.15498683 0.42471668 0.2029931 0.39109144 -0.09160426 0.009238082 0.0007170603 0.3756819 -0.024050798 -0.2938444 -0.31048265 -0.2219909 -0.2442835 0.07639564 0.082196645 0.5074729 -0.104666635 -0.044108428 -0.32905295 -0.17403117 0.5181449 -0.39740333 0.4295219 0.14307742 -0.22331768 0.16162181 0.06834951 0.047240607 0.2794486 -0.12003593 -0.14521348 -0.18121602 -0.29072005 0.30192602 -0.35169446 0.19090389 0.2699216 -0.12265399 0.2622028 -0.107354596 -0.297789 0.015909005 0.09739141 0.16191877
8 -0.13947451 -0.19288504 -0.13161199 -0.045451187 -0.2259254 -0.033860162 0.2526254 -0.24207215 0.12428515 0.18164861 0.13082306 0.23473845 -0.029971011 0.09106302 0.05816183 -0.066157736 -0.0134933675 -0.14428096 -0.092779815 -0.10179428 -0.03649317 -0.14868684 0.01661897 -0.19268025 0.18703628 0.39175057 0.028888626 0.29115343 -0.0115361195 -0.055233836 -0.08539192 0.24965023 -0.17104329 -0.17371902 0.08486013 0.20946361 0.098573305 0.14999577 0.091470964 -0.08825082 -0.07066718 0.19301403 0.26452437 0.033535495 -0.101221405 0.066141345 -0.055142634 0.0030987016 -0.08177555 -0.1170787 -0.33531803 0.20579743 -0.07791661 -0.4547616 0.029178042 -0.34361103 0.22523075 0.044777587 -0.14579754 -0.1558571 0.2970614 -0.21948306 0.09728509 0.14481592 -0.2905598 -0.06642062 -0.055056952 0.16608204 0.15929045 0.17322063 0.13670318 0.24709968 0.054686245 0.047206953 -0.00292537 -0.17847125 -0.054816008 0.12381327 0.16496263 0.37760234 0.1675188 0.011669222 -0.1530327 -0.0041064066 -0.20418823 0.051549044 -0.11598433 0.07899032 -0.10916207 -0.08336074 0.2075877 0.051761504 -0.11886923 -0.15842713 0.023179356 -0.21662499 0.47402716 -0.13032196 0.027208062 0.20787749 -0.10707957 -0.12204182 -0.042819045 0.32028124 0.13812366 -0.112927765 0.17721364 0.1209023 0.08115945 -0.009023663 -0.25485182 -0.21191898 -0.42649084 0.24852166 -0.17863475 0.21049716 -0.3876542 0.20181623 0.17256339 -0.1713512 -0.14846806 -0.16314718 0.1371771 0.11806744 0.036248747 0.047182117 -0.006807849 0.15361807
33 -0.25913498 -0.06184253 0.3391974 0.41375345 -0.24903049 -0.45546424 0.6351378 0.1543284 0.43275872 0.251947 0.18875691 0.2521925 -0.109709665 -0.15091343 -0.2604997 -0.071761504 0.19670507 0.42127368 0.0018273871 -0.053355392 -0.21124396 -0.33336458 0.3086541 -0.44368795 0.102815695 0.51108354 -0.07468085 0.5087257 0.22108118 0.846298 0.49184787 0.37903133 0.12153767 0.7949222 0.34153104 -0.118267566 0.17212404 -0.12584367 -0.048406634 0.10573587 0.13039564 0.20285523 0.29137355 0.083213106 -0.3848701 -0.19980428 0.5394053 0.016570818 0.21075813 -0.04828933 -0.5623316 -0.22245331 0.44028515 -0.49922398 -0.25550216 -0.22776532 -0.007753267 0.035782743 -0.18503757 -0.5481481 0.18270114 -0.057358053 -0.39067647 0.18524121 -0.3508543 0.20725808 0.47848994 0.30270898 -0.34478396 0.29970893 -0.31039542 0.37386626 0.01869847 0.54552776 0.1831579 0.1376028 0.083513066 -0.11510776 -0.04712266 0.36834297 0.6836679 -0.0028207963 -0.07016691 -0.073503435 0.17266291 0.42797345 0.21564479 0.39166823 -0.08181083 0.011589074 0.06286007 0.32045874 -0.0045481273 -0.3128808 -0.2932084 -0.20688905 -0.1798862 0.1143253 0.098209776 0.55405074 -0.14057365 -0.10720213 -0.35862368 -0.122793436 0.58232576 -0.3530879 0.40597394 0.16950545 -0.2653866 0.23440023 0.054877203 0.0225458 0.26836944 -0.18735297 -0.1303084 -0.22069891 -0.26336977 0.30649117 -0.3475962 0.19064786 0.2576361 -0.104092464 0.2699752 -0.11468684 -0.28120834 0.016001454 0.04887633 0.14412612
43 -0.07418478 -0.13786581 -0.1595504 -0.042714857 -0.28806037 -0.036588073 0.24268675 -0.291416 0.18165872 0.1987799 0.172766 0.13614361 -0.08024215 0.07746203 0.15565097 -0.02139903 -0.027584126 -0.19738607 -0.14401412 -0.07468431 -0.092407584 -0.1105997 -0.024379035 -0.22809178 0.16442387 0.398116 0.08507814 0.24469408 -0.00027471455 -0.1473637 -0.102600046 0.15072551 0.0350269 -0.19535443 0.035335124 0.09357337 0.05148173 0.16940227 0.14636539 0.024754183 -0.05915973 0.15215619 0.16042443 0.09465777 -0.037161954 0.13059732 0.0061650095 0.17240475 -0.18665546 -0.1474208 -0.37916687 0.18354535 -0.0271499 -0.63611937 0.18925647 -0.3725417 0.09620895 -0.03285107 -0.06682849 -0.14115664 0.3541837 -0.24936105 0.06551945 0.12620345 -0.3147062 -0.0482937 -0.0073377583 0.18412758 0.14101025 0.20769334 0.13368349 0.22228664 -0.025799597 0.14410785 -0.09316826 -0.14115225 -0.09557132 0.18084233 0.17873965 0.4291975 0.2614362 0.025169013 -0.10991997 0.021406678 -0.1376195 0.08868977 -0.10266443 0.18352407 -0.1389005 -0.058135696 0.24455181 0.085935354 -0.10215775 -0.1425886 0.036957547 -0.17477383 0.3981373 -0.067212924 -0.03925197 0.22821283 -0.032861665 -0.04248472 -0.0877727 0.17570981 0.15847996 -0.086849086 0.20996249 0.1115935 0.04806243 0.010552716 -0.1703668 -0.18795885 -0.35899785 0.27517733 -0.16611187 0.17659956 -0.34701318 0.24365614 0.17315874 -0.1359511 -0.058719598 -0.18149222 0.13339047 0.1538734 -0.03360649 -0.0008847574 -0.022317182 0.17537463
32 -0.38916084 -0.36508074 -0.20655459 0.16943698 0.13684906 -0.052189857 0.34191912 0.053686116 -0.27909458 -0.1894306 -0.31999373 0.41753268 0.33064857 0.114849344 -0.28430003 -0.057611894 -0.039163817 -0.05000993 -0.20448351 -0.117898226 -0.000168499 0.057468534 -0.10117866 0.17320096 -0.0098845335 0.39283994 -0.35684147 0.4821486 -0.12721623 -0.00514112 -0.0038750651 0.33532917 -0.09659285 0.28992984 0.0866175 0.060857434 0.36329335 0.09080067 -0.24242888 -0.29938275 -0.16900648 0.23698205 0.32252008 -0.080115244 -0.347159 -0.29537383 0.28903008 -0.092559524 0.09839294 -0.22102965 -0.09479329 0.13318516 -0.15275271 0.17006439 -0.19572778 -0.31900567 0.16830042 0.24691719 -0.106185585 -0.2525812 -0.063726835 0.106863454 0.024786325 0.2259897 -0.37152532 -0.085287824 -0.23397236 0.54872 -0.09594891 -0.20671964 -0.55347145 0.593125 -0.30112258 0.29658353 0.086408615 0.068434514 0.2562902 0.05814746 -0.11426371 0.8807246 0.43876117 -0.032725 0.08896619 -0.0762468 0.1639673 0.3352869 0.23774405 0.42488304 -0.0144136185 0.12265953 -0.20635931 0.18193911 -0.031932883 -0.44120467 -0.0071600215 0.036263652 -0.06291224 -0.08121651 0.13490501 0.33889243 -0.24286215 -0.29533604 -0.17079921 -0.25335807 0.17661268 0.22881748 0.09175447 -0.035704143 -0.23324165 -0.056934282 0.053859044 -0.32977614 -0.08064386 0.03410871 -0.07501561 -0.066262804 -0.20201327 0.36565146 0.22012936 0.15076524 0.042545956 -0.30316755 0.19017786 -0.17767176 -0.0037397237 0.0009104366 -0.04496185 0.30507502
37 -0.61499304 0.07798612 0.49131712 0.12815179 0.26890525 -0.6556549 0.5132088 0.18395609 0.36454147 0.11202487 0.14262775 0.34234765 0.020597706 0.18971719 -0.49811694 -0.026394138 -0.14837253 0.18014748 0.4950743 -0.01093858 -0.22816312 -0.46179172 0.58419293 -0.054761074 0.03863231 0.17631106 0.050970677 0.5059602 0.22180672 0.8512735 0.6421768 0.4342137 0.10094668 0.59230435 0.34899715 0.017929018 0.24558166 -0.010084569 -0.02062603 -0.015619083 0.063782714 0.2991492 0.3474887 0.08609832 -0.45958266 -0.34779996 0.5203877 0.14703332 0.39127943 0.20752369 -0.54696923 -0.12008492 0.57863325 -0.1658309 -0.4235851 -0.3061097 0.19081146 -0.062836446 -0.45537275 -0.5780357 0.050015017 0.22494845 -0.7300084 0.3037575 -0.15241851 0.29292002 0.3709669 0.033045717 -0.3709205 0.18204011 -0.30538368 0.16753393 -0.061188854 0.72594607 0.09265928 0.2552419 -0.09210119 0.16363367 -0.13639168 0.46617457 0.041595057 -0.10686134 -0.09247306 -0.025767773 0.3327812 0.591265 0.23283733 0.054892067 -0.04279439 -0.099652074 -0.056888934 0.41205645 -0.081866205 -0.37610897 -0.42494103 -0.0725157 -0.2005758 -0.053644907 0.112804025 0.301839 -0.31947038 -0.07238175 -0.56453913 -0.32252288 0.564836 -0.21013576 0.78134525 0.21843833 -0.48624596 0.45999086 0.14815776 -0.07098849 0.19389075 0.009712558 -0.39778578 -0.20783797 -0.14405818 0.56517875 -0.40373737 0.2331614 0.22022024 0.042886604 0.07703368 -0.100572936 -0.4640848 0.07554243 -0.07682091 0.086873196
1 -0.6179293 0.18613924 0.51159066 0.08462839 0.29679918 -0.7359389 0.45223185 0.18442968 0.338595 0.036158036 0.18703428 0.32768252 0.071248926 0.1825377 -0.57577586 -0.037664857 -0.13583732 0.18234786 0.53880477 0.02571212 -0.18150643 -0.4326064 0.55396104 -0.08333248 -0.029583499 0.11780262 -0.008498183 0.46737546 0.31035143 0.8893721 0.7052498 0.42958134 0.09546247 0.62235147 0.30880556 -0.05964375 0.34105027 -0.046604253 -0.031396933 -0.040764693 0.0127741555 0.25132012 0.23302689 0.08359817 -0.4246922 -0.34384248 0.44669396 0.16076961 0.34966463 0.14467548 -0.5942245 -0.18490833 0.58690095 -0.30673254 -0.28346902 -0.37858212 0.23525465 -0.049602695 -0.4461256 -0.6691519 0.10246148 0.22992925 -0.68867975 0.2647114 -0.15593413 0.39628547 0.23727158 0.106891334 -0.35477203 0.24263905 -0.3555618 0.16482647 -0.085780725 0.6031469 0.12793663 0.29126653 -0.16944031 0.024669264 -0.09700883 0.38184112 0.06456184 -0.038624812 -0.08403969 0.14297289 0.40186897 0.37196198 0.16150415 0.17820935 -0.0047260607 -0.095469065 -0.11761384 0.3714191 -0.12685777 -0.42065272 -0.48395193 -0.23559676 -0.23027837 -0.052189272 0.1474149 0.40730694 -0.3228137 0.0697064 -0.46510392 -0.25752026 0.5394041 -0.30994552 0.8569733 0.17562746 -0.43851706 0.4774404 0.1235815 -0.028006233 0.114146344 0.04922358 -0.49304977 -0.2872426 -0.18419696 0.44942415 -0.35692918 0.28699666 0.29311344 0.016406965 0.07690572 -0.21167344 -0.5425025 0.07170471 0.049761303 0.014931349
48 -0.46990445 -0.27400836 -0.06955687 0.20234792 0.12518811 -0.09692306 0.38269004 0.064094074 -0.24991818 -0.2251407 -0.20673524 0.4136019 0.2912233 0.14413662 -0.327576 -0.058363 -0.046621654 -0.0045738956 -0.12677841 -0.09513584 -0.041223712 -0.058522973 -0.09565015 0.08424984 -0.009774319 0.35175687 -0.3740922 0.35912713 -0.043399066 0.0062367124 -0.016684284 0.31062225 0.048509154 0.36981094 -0.0023861753 -0.10114463 0.45802814 0.05404733 -0.14779392 -0.1797866 -0.20867832 0.08589109 0.23686785 -0.0010022155 -0.22016482 -0.25577292 0.27768505 -0.13573532 0.027313523 -0.31063598 -0.03417804 0.015425441 -0.11977337 0.12986049 -0.08666116 -0.2549263 0.02027055 0.15767467 -0.11382085 -0.28615397 0.053859256 0.111334704 -0.06610052 0.24796182 -0.3943032 0.049500808 -0.24943809 0.54684585 -0.07954713 -0.10851816 -0.63138944 0.57379717 -0.20528115 0.2643651 0.14946786 0.15244274 0.2534307 -0.003954456 -0.13262516 0.8423183 0.3808258 0.019179398 0.05671408 0.12557931 0.21256547 0.18044092 0.1444237 0.50894636 0.09232151 0.107533276 -0.21726394 0.1923199 -0.097006395 -0.40572459 0.008056788 -0.1287381 -0.2365907 -0.12268714 0.15415911 0.391689 -0.24254264 -0.19680996 -0.14504878 -0.33963913 0.12994039 0.050807778 0.16214116 -0.08011789 -0.21896842 -0.070926204 0.08419255 -0.1993424 -0.027114373 0.053015932 -0.19847819 -0.123122774 -0.20410639 0.25757337 0.2315604 0.22913495 0.103128456 -0.29115343 0.17240804 -0.15686843 -0.14571585 -0.038131624 0.113883965 0.2556762
58 -0.18043 -0.2583921 -0.38290438 -0.14668824 -0.069463976 0.18105859 0.15462624 -0.05508722 -0.12953596 -0.26186886 0.18128274 0.14768137 0.23234376 0.48517847 -0.24212144 0.0844323 -0.33209264 -0.016305167 -0.25284663 -0.13172291 -0.05348868 -0.22024362 0.09120599 0.401028 0.0871634 0.14175399 -0.086700365 -0.096983686 0.018307181 -0.115551166 -0.47865945 0.024487095 0.23107097 0.17183362 -0.18604487 -0.26776132 -0.01938834 0.13888039 -0.1675845 0.15625514 -0.40647125 -0.27230552 -0.052994207 0.121804014 -0.12220577 0.25471392 0.16403943 0.17178826 -0.09443752 -0.27626997 0.05339701 -0.29354343 0.12119627 -0.0006093673 0.11251949 0.03835344 -0.21755031 -0.44212297 -0.05889014 -0.034825653 0.33816183 -0.15927286 -0.34640333 0.033798162 0.14017233 -0.038091492 0.10858968 -0.0855095 -0.05531469 0.08030553 -0.011291186 -0.18711065 0.20680092 -0.21752973 0.046746623 0.038252726 0.061414063 -0.118723534 -0.07838203 -0.08820035 0.007733934 -0.12090495 0.07065937 -0.013703523 0.13439292 0.21992713 -0.12868255 -0.24050136 -0.1548543 -0.0544062 -0.08858533 0.006725723 0.0057877447 0.19484678 0.09380943 0.21972908 0.0414922 -0.16867815 0.25784937 -0.036497787 -0.24315856 -0.1463438 0.02120499 0.34717292 -0.0575772 0.014228886 0.15308154 0.3604861 -0.16440918 0.26497054 0.053661633 -0.31376168 0.20850337 -0.050716158 0.05081733 -0.10578478 -0.122142985 0.5477449 -0.24753225 -0.13628481 0.08865547 0.1507012 -0.24256831 0.25150117 0.14312123 0.17721567 -0.26997823 0.25196385
10 -0.20755868 -0.2541836 -0.2201352 -0.15338174 -0.18146658 0.16942641 0.32002434 0.026261367 0.063664556 -0.22757436 0.04630611 0.34990057 0.127751 0.41008583 -0.34345818 0.038664035 -0.32975784 -0.055257693 -0.26837808 0.0458608 0.10915174 -0.354555 0.18443143 0.33422542 0.092205875 0.25346527 -0.063118696 -0.06149808 -0.07699308 -0.268985 -0.44681117 0.022886455 0.2541035 0.1318317 -0.13648167 -0.1550625 -0.041148625 0.07102523 0.013261396 0.034896098 -0.26204082 -0.2182403 -0.0133765405 0.1659227 -0.075289465 0.1335429 0.054080013 0.033473384 -0.009024245 -0.12563333 0.006590439 -0.12870748 0.0714639 0.056380104 0.049278103 0.08104201 -0.14987145 -0.39260954 -0.14722066 0.02838039 0.16064079 0.0007884 -0.35952264 0.10305267 0.21303858 -0.14401175 0.010160912 -0.19987243 -0.0333409 -0.07073207 -0.015064606 -0.24042256 0.1381764 -0.15301718 -0.122729965 0.06908541 0.10208824 0.04538191 -0.013921801 0.03931698 -0.18015677 -0.16611734 0.13386944 -0.10946477 0.0868975 0.24723452 -0.11907352 -0.28417537 -0.20431343 -0.04146561 0.18459462 -0.052433625 0.0013029422 0.057840563 0.077863775 0.274025 0.13428047 -0.15194352 0.1686307 -0.014932301 -0.33200118 -0.24601352 -0.071192496 0.27170527 -0.011446471 0.26790503 0.1712205 0.31158277 -0.2970401 0.3086609 0.02177585 -0.42765185 0.1037282 0.060000733 0.06655496 -0.10676072 -0.019440003 0.38959622 -0.07515341 -0.0655802 -0.062238686 0.11259992 -0.27563003 0.17494518 0.19928958 0.21579644 -0.2997333 0.090033345
17 -0.13565648 0.13496172 0.2195875 -0.10176557 -0.347676 -0.20201787 0.15011694 -0.16829772 0.3600282 0.15284576 0.40322694 0.13381349 -0.07665737 0.33722654 -0.20884974 0.064294495 -0.10541037 -0.19446103 -0.03090222 -0.10472101 -0.09278906 -0.43599805 -0.010197352 -0.068394676 0.09221813 0.45089608 0.21854205 0.15463981 0.28841534 0.119373426 0.0451134 0.17954318 0.4454936 -0.04692345 0.05819959 -0.32699284 -0.10509411 0.24813803 0.3520649 0.42122188 -0.019723829 -0.4012231 -0.2536751 0.28562835 -0.10404797 -0.062105678 0.049803253 0.50714695 -0.24543095 0.0064141657 -0.045189656 -0.44159293 -0.041625272 -0.40189922 0.62834525 0.25903246 -0.24255386 -0.30342487 -0.07603597 -0.23689693 0.25505173 -0.10186972 -0.27138853 -0.0012958666 -0.25465354 0.32105145 0.21233916 -0.022331517 -0.040937193 0.6108175 -0.08098294 -0.14297773 0.41868576 -0.15337229 0.25124905 -0.006374096 0.007270635 -0.229866 -0.08165272 -0.076317385 0.28878346 -0.07796636 0.07619359 -0.24878287 -0.25556165 0.14524297 0.39252862 -0.3592878 0.20238581 0.020705555 0.159764 -0.17255187 -0.13432962 0.32356575 0.1568699 -0.08455012 0.3701668 0.15953264 0.06341284 0.04006674 -0.066742405 -0.1789769 0.0071823862 0.57433736 0.13180003 0.022461569 0.027170414 0.02977219 -0.38368407 0.51066995 0.019916601 -0.1430237 0.43220392 0.036185734 0.3327498 0.009784225 0.089130364 0.55758566 -0.20872132 -0.37166393 -0.090903 0.46249694 -0.19636601 0.4129503 -0.11292956 0.13956228 -0.4194354 0.18393703
52 -0.19526097 0.193572 0.29892817 -0.18804598 -0.30193153 -0.27052084 0.08623734 -0.21455458 0.37453857 0.094088174 0.45682794 0.060322743 -0.12085709 0.21817973 -0.16615744 0.04122443 -0.16135953 -0.10742534 -0.037368093 -0.17771307 -0.034747247 -0.356986 0.091786444 -0.06277569 -0.013633061 0.45847335 0.31703594 0.1982199 0.3428744 0.1329525 0.049834438 0.19272873 0.4574423 0.033274036 0.07110101 -0.36951795 -0.17250884 0.23031902 0.31886706 0.423008 -0.018332094 -0.2908514 -0.32200876 0.26366284 -0.09234785 0.022936612 0.00016580736 0.58269215 -0.32550958 0.038194917 -0.07474766 -0.37377453 0.037547518 -0.4646391 0.59384674 0.14883639 -0.42618328 -0.38827756 0.026445832 -0.10358797 0.2505193 -0.013484024 -0.36428162 -0.055599563 -0.27071512 0.28068814 0.22737521 0.037688922 0.015392422 0.6163756 -0.059122957 -0.13827457 0.5971107 -0.2899778 0.34585816 -0.18004403 0.06111121 -0.19687234 -0.12599427 -0.15397784 0.27814755 -0.07740101 0.027486965 -0.33219266 -0.08383982 0.28147364 0.22438298 -0.26307127 0.0643588 0.07443086 0.28597826 -0.124302916 -0.13341033 0.26359606 0.13627331 -0.040834833 0.30325297 0.14754951 0.02577761 -0.045842763 -0.16106734 -0.19936867 0.027476475 0.50018346 0.15876594 0.11299264 0.043283943 0.0980994 -0.39852077 0.43712994 0.094352774 -0.13495822 0.30640084 0.051850315 0.4042879 -0.024002869 0.11502554 0.4873819 -0.1927047 -0.23345074 -0.120342776 0.3721388 -0.19643992 0.32226372 -0.06804095 0.1865313 -0.37744036 0.15615034
12 -0.5870746 -0.0783246 0.54019856 -0.23447587 0.023904992 0.23344688 0.005561511 -0.18380384 0.09211839 -0.0030009686 0.54840195 0.50326204 -0.004524462 0.2420467 -0.15680434 -0.074320026 -0.49252516 0.08875125 -0.25102726 -0.14880483 0.21384276 -0.45871496 0.5741203 -0.09139822 -0.115004696 0.33923307 0.013626833 -0.20532824 0.29535556 -0.60626644 -0.400121 -0.044940367 -0.16509752 0.082531385 -0.109851494 -0.22091524 0.02177359 0.025588866 0.42818058 0.6115838 -0.1653636 -0.0462712 0.49816817 0.3056173 0.025452722 0.45275292 0.2888922 0.03366355 -0.11590703 -0.13289931 0.36321855 -0.35770673 -0.057457622 -0.01422184 -0.15373287 0.09451942 -0.3983763 -0.12248002 -0.1271455 0.16695511 0.3440035 0.021162184 -0.4481197 0.1318678 -0.37927958 0.41591328 0.39190295 -0.0737984 0.43555126 0.57330245 0.2649795 0.13620433 1.014819 -0.28398553 0.30944943 -0.15646671 0.56902695 0.2244165 0.01447964 0.076468594 0.3915434 -0.14938584 -0.5965938 -0.48430622 -0.63116056 0.64646065 0.084602475 -0.3334531 0.23937894 -0.250264 0.02282928 0.40537626 -0.21374325 -0.021204675 0.21273637 -0.1765918 0.31777498 -0.40304753 0.05249425 -0.11559689 -0.43970376 -0.37345856 0.29821488 0.2507649 -0.20144406 -0.6345338 -0.09119651 0.23433992 -0.015937325 -0.3221386 -0.40579277 0.28439134 0.2725073 0.3672976 0.20340514 0.36690864 -0.21979217 0.75435865 -0.45501608 -0.5140027 -0.59521013 0.2251184 0.15519422 0.2760749 -0.12974474 0.62015903 -0.10918116 0.44194302
